[{"b":[[0,0,0,0,0,0,0,0,0,0,0,0,0,0,0,0,0,0,0,0,0,0,0,0,0,0,0,0,0,0,0,0,0,0,0,0,0,0,0,0,0,0,0,0,0,0,0,0,0,0,0,0,0,0,0,0,0,0,0,0,0,0,0,0,0,0,0,0,0,0,0,0,0,0,0,0,0,0,0,0,0,0,0,0,0,0,0,0,0,0,0,0,0,0,0,0,0,0,0,0,0,0,0,0,0,0,0,0,0,0,0,0,0,0,0,0,0,0,0,0,0,0,0,0,0,0,0,0,0,0,0,0,0,0,0,0,0,0,0,0,0,0,0,0,0,0,0,0,0,0,0,0,0,0,0,0,0,0,0,0,0,0,0,0,0,0,0,0,0,0,0,0,0,0,0,0,0,0,0,0,0,0,0,0,0,0,0,0,0,0,0,0,0,0,0,0,0,0,0,0,0,0,0,0,0,0,0,0,0,0,0,0,0,0,0,0,0,0,0,0,0,0,0,0,0,0,0,0,0,0,0,0,0,0,0,0,0,0,0,0,0,0,0,0,0,0,0,0,0,0,0,0,0,0,0,0,0,0,0,0,0,0,0,0,0,0,0,0,0,0,0,0,0,0,0,0,0,0,0,0,0,0,0,0,0,0,0,0,0,0,0,0,0,0,0,0,0,0,0,0,0,0,0,0,0,0,0,0,0,0,0,0,0,0,0,0,0,0,0,0,0,0,0,0,0,0,0,0,0,0,0,0,0,0,0,0,0,0,0,0,0,0,0,0,0,0,0,0,0,0,0,0,0,0,0,0,0,0,0,0,0,0,0,0,0,0,0,0,0,0,0,0,0,0,0,0,0,0,0,0,0,0,0,0,0,0,0,0,0,0,0,0,0,0,0,0,0,0,0,0,0,0,0,0,0,0,0,0,0,0,0,0,0,0,0,0,0,0,0,0,0,0,0,0,0,0,0,0,0,0,0,0,0,0,0,0,0,0,0,0,0,0,0,0,0,0,0,0,0,0,0,0,0,0,0,0,0,0,0,0,0,0,0,0,0,0,0,0,0,0,0,0,0,0,0,0,0,0,0,0,0,0,0,0,0,0,0,0,0,0,0,0,0,0,0,0,0,0,0,0,0,0,0,0,0,0,0,0,0,0,0,0,0,0,0,0,0,0,0,0,0,0,0,0,0,0,0,0,0,0,0,0,0,0,0,0,0,0,0,0,0,0,0,0,0,0,0,0,0,0,0,0,0,0,0,0,0,0,0,0,0,0,0,0,0,0,0,0,0,0,0,0,0,0,0,0,0,0,0,0,0,0,0,0,0,0,0,0,0,0,0,0,0,0,0,0,0,0,0,0,0,0,0,0,0,0,0,0,0,0,0,0,0,0,0,0,0,0,0,0,0,0,0,0,0,0,0,0,0,0,0,0,0,0,0,0,0,0,0,0,0,0,0,0,0,0,0,0,0,0,0,0,0,0,0,0,0,0,0,0,0,0,0,0,0,0,0,0,0,0,0,0,0,0,0,0,0,0,0,0,0,0,0,0,0,0,0,0,0,0,0,0,0,0,0,0,0,0,0,0,0,0,0,0,0,0,0,0,0,0,0,0,0,0,0,0,0,0,0,0,0,0,0,0,0,0,0,0,0,0,0,0,0,0,0,0,0,0,0,0,0,0,0,0,0,0,0,0,0,0,0,0,0,0,0,0,0,0,0,0,0,0,0,0,0,0,0,0,0,0,0,0,0,0,0,0,0,0,0,0,0,0,0,0]]},{"b":[[0,0,0,0,0,0,0,0,0,0]],"w":[[0.025013452688371435,0.027588440976220888,0.0492181769499154,0.017004617286596566,0.02143727540245241,0.06190214665908683,-0.08356667306359898,-0.03264370572211032,-0.07359384911952675,0.07937480610984501],[0.08094575418136774,0.06401273226502707,-0.0745391050623819,-0.029901491194420322,0.003014070129511187,0.006115945973814624,-0.012311829387427503,-0.0855628782438525,0.06479536586452275,0.038318318442466026],[0.06507610796141725,0.0021593327358680053,0.0709647437102836,-0.02293597406663747,-0.04841302549084053,-0.0006941713786004222,0.04768272244513358,0.06469486731569912,0.012189745145200728,-0.04048672821553801],[0.010217061121074789,0.0565535255366694,0.018947763517892124,-0.08038502383955397,-0.019940888900271583,0.0013004618336834167,-0.05181970953822016,0.024879369825841158,0.004942882069113669,-0.025286908622837036],[0.036466854953619884,0.0320024589906327,0.02064886223533352,-0.014169019390039561,0.021269073710274727,0.008178364787019166,0.02471429558327054,-0.008216000440475865,-0.034393187692680516,0.07526697613099301],[-0.07001420934040643,-0.07380053150342748,0.013583129585887505,-0.05333715041758368,-0.039802212824222305,-0.04494784973041406,0.0018285501223927608,-0.06267614121439909,0.00886282689520071,0.0018105975061883661],[-0.05890834951519954,-0.0449856953136246,-0.08674161727541649,0.007674563953567748,-0.04584164373452113,0.0418053761843101,0.022168157533827462,-0.06316656937001414,0.08628971754666373,-0.026534043562221644],[0.08370690861006463,0.024442189532894176,-0.06795098085423812,-0.0055533261818012936,-0.08420476143029142,0.011283085240922683,0.01705639840075837,0.07071216967957611,-0.061100306745549005,-0.08347290001657977],[0.032339946577495574,0.05085439095384767,0.039837353796592756,0.021325025175994244,-0.05244873236312472,0.025407411497906263,0.00355389744211157,-0.08685282520842422,0.023097813868829614,0.07283256049274808],[-0.07341297804682079,-0.02416851239878559,-0.07609193763688728,0.08208613517424748,-0.01856640411219332,0.005649183341444708,-0.06161063820483488,-0.07258538828386962,-0.05403110250029827,-0.0635075467388557],[0.04733290694944933,0.03380276291973554,0.0653913543285859,-0.00913250916967942,0.011049019332623838,-0.04131925425789252,-0.0087709042143186,0.04857677538378352,-0.08589157850330874,-0.07304117275646477],[0.03580769868428574,-0.07508333148285379,0.026702890880614866,0.04735365886380441,0.004964920120634972,-0.07623724287443515,0.07875772080349017,0.04550476731096478,0.03969442579403418,0.05110741204003924],[-0.018043874646994376,0.0757678798938887,0.02029726813837282,0.006653839953896318,-0.01596678543764135,-0.03460166226081657,-0.050189798474083724,-0.047432610970480564,0.03995929768429918,-0.011125246968178792],[-0.06129246321943703,-0.012074190482472977,0.06234720965768353,0.024979049453672852,0.04918397608471636,0.012040760411111018,0.009730588937378118,0.04204802150070189,0.08099790058979997,0.08483793170262577],[0.017551226917662324,-0.0066145289284249426,0.030900747291663283,-0.013917820088807598,0.0023231154752355737,-0.010818309660461933,0.0203166334810284,0.03244725613988998,-0.0019145363665901832,-0.06439005346074372],[0.05699835337284506,0.02666633271742605,0.075382901167938,-0.005985481684660676,0.045083204916477715,0.04325734385768587,0.02919052911216112,-0.0024237070470461974,0.04105978551197917,-0.06444701420729775],[-0.06519389230249403,0.06438224292439665,0.017265726240110926,0.0005341708963855774,0.05824084144673136,-0.07270294861400291,0.022374404397120823,0.05344999698839459,-0.05248088433041232,-0.06304993182636519],[0.014934345839348648,0.06339921660188619,0.056033195121020424,0.043981639710904186,0.03842709488348406,0.04528430343127779,-0.08396581781198273,-0.008966935681083962,0.07561380445610269,-0.065855795487539],[0.07788380302397777,-0.06630695543997371,0.08329908111544312,-0.04682038096261713,-0.05549257482035702,0.0810636016499906,0.05526538312478413,-0.004366809284678044,-0.05677513706040357,-0.05495156600440943],[0.02173414266762716,0.02623651480525041,0.06620838217575417,0.07920707660145054,0.04440242906810607,-0.06953658193412751,-0.005300551648680055,-0.014350380669194668,0.05341185596422479,-0.04779193247025388],[-0.07355941807460155,-0.010059932407975689,-0.0005597726110907336,0.02643322389039371,-0.05756630134269494,0.0765332293312824,-0.034984809436717036,0.02569730429087498,0.005181233924783979,0.025212168471059976],[0.030773782168851738,0.043487363293422676,0.06926586381782132,0.006826648953640685,-0.0069049651332850626,0.026737081158949433,0.006528742676865942,-0.0786125368945376,-0.017247814008908638,-0.06280274678171544],[0.010136147262936546,-0.06034910632451116,-0.016434158891393907,0.05782817457134745,-0.057212276674268675,0.06833309002178994,0.020319092643696038,-0.03792422899663526,-0.034126807894573556,0.03375496339352703],[-0.015738431244308806,-0.010316427211270754,0.029478761718027144,0.08013257270424187,0.0032408149294187866,-0.07752539688628522,0.06581376221156082,0.0020294066034941133,0.030135717472686896,0.05347755420500058],[0.06310542617793677,0.05633970123077961,0.016882811976272075,0.001296756205576996,0.06696098883299062,-0.07334252279022707,-0.005206230445799459,-0.056850715413147526,-0.008569764929617266,-0.006697871890609469],[-0.08321633642647563,0.013164989365974628,0.07686296017339525,0.03597438213614004,-0.038191592243269554,0.02925659601260308,0.012270148819413393,-0.025233964127266265,-0.06264823141504493,0.0734328519191533],[-0.0821293932365898,0.059950824769029076,-0.005643905213166656,0.04572712531486625,-0.04260010999988524,0.03276078653620648,-0.03754380880716197,0.043817668620904276,0.035381286876213836,0.015078928979396222],[-0.045984985388957296,-0.06858091260696543,0.05323251472679724,-0.06827490056057278,-0.05839712535012104,-0.02761016796833496,-0.02866004024566133,-0.0535716206968375,-0.05542067459314826,-0.08366852042546162],[-0.0404125425293101,-0.010017497121514618,0.0355190687213265,0.055499264421837,0.06224328942139279,0.01982096676777556,0.013556461922674526,0.007094355185050402,-0.010149996666247357,-0.042891661310103475],[0.05579890997945969,0.005950290671559166,0.0020197711566182774,-0.06014055573162301,0.030212395163165012,-0.019972315110758795,-0.047142741888424496,0.06765349428428527,-0.026427756520090294,0.062145867259912946],[0.0037081802231059974,0.008969478219966645,0.03606877239671587,-0.06877566559077833,0.07054880260567759,-0.07446659328155097,-0.028578744871709104,-0.013977398320530687,-0.02782778971511312,0.01102777274856119],[-0.0581969248130238,-0.030988572277652053,0.05204832543324078,-0.045490193408934475,-0.0030953983107366717,-0.008384827758427929,0.07341209136787921,0.014375877159693573,0.042911136537819056,-0.07283474065642402],[0.040954128547894236,0.05501345336507674,0.020698234163327167,0.02913075559531264,-0.08471745963868699,0.024051113020633397,-0.08588823402654834,0.0805160983450148,-0.08564881345818494,-0.0831122474684478],[-0.06573069575303996,0.07244271232413668,-0.04427753793221836,-0.08100275898911795,0.010889537111216402,0.05512976597746519,0.04453301400362039,-0.08254646451113372,-0.004233873057214524,0.04860431830955905],[0.08168971927498528,-0.01752654954640015,0.07114371979166575,0.05450422158034593,0.034075217650772774,0.029095091114685487,0.06975309733327945,0.048687817501548186,0.04409836902330336,-0.08128132126528059],[0.03659732105964543,-0.07470415476023985,0.07881157912460185,0.05202523767345474,0.07068719955163477,0.05843038060580824,0.08433192998113773,-0.02329905940657702,0.011002086636421798,0.02308892034217362],[0.009507454181423125,-0.013357735333013487,0.08304067270000698,-0.05639788540377375,0.018328137161660887,0.07036904251770054,0.021647520237358733,-0.0037991028146459327,-0.056418028729934774,0.05854463297109552],[-0.040673235481452207,0.08595654519910764,0.05389060622885544,-0.08612027914932845,0.06799069477070935,-0.05709945173786349,0.054846147287903435,0.05709113468249913,0.004389223545893078,0.036250969991337936],[0.0015923480720086147,-0.07742517076332936,-0.04826216235096591,-0.014807670052519331,-0.053283732454030265,0.059764737096190707,-0.0018314983429821852,-0.011309234608960342,-0.009708069127136995,0.08203070586307981],[-0.039170960113088814,-0.028538550036270087,-0.06301247044518797,0.024192046540998796,-0.029669257282488308,-0.06284850472842915,0.07364601880037874,0.019416721779848517,0.06780007659253032,-0.022322731295991466],[0.06751248068058038,-0.04915549958483865,0.07569541887286318,0.017679225772140178,0.001822935018173974,0.08385280579036755,-0.038335705739657035,-0.004356966282951277,0.0825798248539723,-0.006621077744316528],[-0.0005525325528970282,-0.03092777387521574,-0.06469916459695643,-0.045215324503848735,-0.03900170326353324,0.05535903064474659,0.04229078750214532,0.05905150226255762,0.04233328928820765,-0.0583305771570079],[-0.07841304573037078,0.03999831305577564,-0.08568167326276861,0.03644466670489188,-0.03961014358824308,-0.04366493676093929,-0.03897326400242908,-0.0037963144863384785,-0.06374916000043063,0.020501787279734035],[0.036405746915755086,-0.04499284342417975,0.015210698332191408,-0.050161253402626386,-0.012995602302567938,-0.03187031200079983,0.023471112508316155,0.032042259203121884,-0.017971369056389158,0.0007119744007010737],[-0.07294461440774218,0.005651303356840942,0.08004291306296715,0.056333002261847315,0.007457080911913494,0.07252326577221654,0.04644089514619071,-0.01917211109303145,-0.05910338703738682,0.08513219898239938],[-0.0479787678401193,0.0010773050438351722,0.08234268001360742,0.03517244896540146,-0.0193034192372923,-0.017195144967491444,0.0012337163563921338,-0.005858085146202424,-0.03825136639476537,0.08412878923396658],[0.0001907633298233874,0.07795634077994373,-0.08546303187669588,-0.03969337567748959,-0.02218080571159163,0.02425389077756572,-0.056259265083724176,-0.0484928662113031,0.05428755166404381,0.043360433608175486],[0.07505564181349497,-0.019428741225803625,0.08125498488019173,-0.021959915698274685,-0.04024373046636984,0.024409575372662834,0.06784356553249232,-0.050087694567408615,0.021808623955578824,0.06292228910045353],[0.06216519102202864,0.029728840090259043,0.07733852567393301,0.08180100791016068,0.01381792050408863,0.07880405648828348,0.014826957595761137,-0.008935316786090802,0.06658892958860957,0.08222810681533274],[0.03382318714809933,0.042078353365918614,0.05568257837199084,-0.004645165673781815,-0.00537994382406945,-0.0669717684756895,-0.06834411540109057,0.08231814717291805,-0.07814168174163307,0.03208331593237021],[-0.07237811602213526,0.02244201679132525,0.013478535391211105,0.026989503186903713,-0.04572438229711458,-0.08435505177520926,0.05963673580376758,-0.063756200401522,0.08692413737467089,0.019096586977767283],[0.06302433867055138,-0.043431375248771574,-0.06942701468340105,0.07908961830526862,0.056135764975634966,0.02470927132886891,-0.0817452979211551,-0.027874620333522872,0.0338830487485154,0.04049755930188437],[-0.02944614470824644,0.07437490297597171,0.0740458480637278,0.0511129741112841,-0.03800141357120805,0.009618153017016531,0.03600998187663168,0.06382496010604252,0.054750290038513394,0.03155148858043305],[-0.03357075999290191,-0.03244856229177629,-0.05543555453201387,0.016581202795070457,-0.06101456539919303,0.03490699275649696,0.05303816990396787,0.07914416787382053,0.07891106875106907,0.0003622206632645786],[0.06001982134339204,0.048977451984934195,-0.08657439510410879,-0.031517478908437827,-0.05746293515600328,-0.043097130766390046,0.01700211601749506,-0.05408124206666118,-0.03202889032698733,0.02142980602071133],[-0.0081007544488126,-0.022936019223536233,0.06516325708628554,0.03969220927321576,0.07002808762914728,-0.015454356252893472,0.052833189729756036,-0.04624512920840225,-0.025600800883230634,-0.022399607628195026],[0.055330568263288,0.038451406602764776,0.062452821645912066,0.050223021468512485,0.06939760540874917,0.011435506055608821,-0.016683702467317332,0.05336550984331684,0.0638078488014748,-0.040661342627231874],[0.06230753010619944,-0.04068332083611246,0.012459148222022584,-0.0005327078654081413,-0.016853043635495113,0.05161327606274499,0.052602725734507305,0.016893507929804832,0.08418100095499309,0.0518298746092104],[-0.07391644598130671,-0.020001927486208743,-0.025040172121364612,-0.058417636174708534,0.039237541939992515,-0.036649291581842665,0.07536509612116962,0.04963524302198716,-0.005142168870163152,-0.04204338572423548],[0.0170086857737773,-0.022339084261229422,0.06383548378578899,-0.054127698846890206,-0.02513441205874603,0.08568282115322684,-0.013551551246075488,-0.08600366184601956,-0.035459900464998105,-0.026260971718978524],[-0.03507643511649346,-0.004916955897837139,-0.07299153000572556,-0.013253418777362483,-0.0838199862815774,0.035297811098366466,0.0029829426783327673,-0.06297787204292285,-0.08360435925132693,0.012965405885746698],[-0.006990044654079139,0.040013425786426554,0.04738606906427845,-0.0032187523400008106,0.007966611964355316,0.022491244114649686,-0.08405989309888602,-0.07849780018039612,0.023762563921270977,0.010377808970616645],[-0.0584784580929613,-0.04066457907163285,0.08199506838641807,-0.03325444408082853,0.02758597222000435,-0.009772455055561485,0.04279924043558192,0.053454292187320646,-0.06460588070922632,0.07346266509271646],[-0.08265678045471161,0.027768872078543103,0.005410888245263951,0.0030955161416440363,-0.06044341237583988,0.006013909018614622,-0.05127753668015639,0.053196564312275124,-0.056384736809036856,0.07499969851383809],[0.045928972642679394,-0.041251807795265494,-0.04522516168530046,0.015290308144629103,0.07784057917879805,-0.059865141327236394,-0.07830064268571978,0.06306683117142195,-0.010164255012205858,-0.033572781351162026],[-0.0144604333290161,-0.04623700678569529,-0.042020049461948164,-0.00527870978592028,-0.03565154160386095,0.02634369366630797,-0.05564678216242925,0.030384565003023556,0.06319187328575457,0.01352689694841494],[-0.005809717667572434,0.03803688151284075,-0.030432426290716658,0.04105941810097086,-0.06159318061158367,-0.07124222373624699,-0.01525670512022985,0.028599670656631354,0.026222825498063887,0.05392742940422521],[0.040958959353887214,-0.06493394276636039,-0.038876649963399124,-0.05202482690321845,0.005546513639074602,-0.08084740788360935,0.056825563522395234,-0.000590765328891768,0.08554069035227013,0.05795855076804721],[-0.010212946666367684,0.014912529767856661,0.07488355985194475,0.04168337753093099,-0.08521907869234203,-0.026296631737068914,0.0744930964227078,0.019719597907465122,0.055304292797889565,0.06738421296182848],[0.034921796103326894,-0.07220961105889517,-0.030966471392083354,0.06365084129616014,-0.04744458185758199,0.06260716949499717,-0.0033682315852442274,0.03807144271862928,0.0030958658501237107,0.008696819225704505],[0.023338064374963552,0.07434210055167192,0.08013803531700717,-0.03768203449794383,-0.032562504341177134,-0.03732521341834709,-0.07665957087216872,-0.041686996368445375,-0.02701047479780238,0.0032036918450195906],[0.023858724909215645,0.058595549634333916,-0.048960576860394144,0.07870684685805121,0.08093408114788225,0.04347945536910408,0.0197877028060046,0.008729776776257886,-0.05575825703996817,0.0854435560460009],[-0.05837000667097586,-0.02615686616488367,-0.005296143407825235,0.07234839614661406,-0.07430349282065934,-0.012553928286768434,0.05116392812976653,0.08395709218822617,-0.06143747409833418,0.07588998073202588],[0.01995207693607924,0.022113835710783195,-0.02288252932087584,0.08078345196043157,0.07651477824515754,0.07470340546608961,-0.07811598520954383,-0.0745149473234045,-0.07048064979700021,-0.08121092874374801],[0.01657135854263095,0.08164789724551197,-0.02721433770109012,-0.00011184884204333556,-0.08247149138428247,0.04530854330490036,0.021038732180483383,-0.05378188041315857,-0.059557868952055726,0.061857024506238506],[-0.05784413829819439,-0.06544950944786429,0.050671271600034234,0.06954517921457926,-0.01368961660041744,0.050495718426775804,0.005441530294516064,0.03552640402642196,0.006724442926804464,-0.05068862690176384],[0.031158549755256795,0.07360568559586814,0.03158908905818826,-0.051286871286413606,0.04877928136282203,-0.06687416514313407,0.009519088967236647,0.04260816317984126,0.0169317770948689,-0.016449296181613254],[0.05544975479374259,-0.0846328742644581,0.06063467550179977,-0.03556897375220355,-0.06604840034938952,0.04010315228937089,0.08142734923531725,0.007068343872512595,-0.07202296418743184,-0.06417930746593759],[0.053423019627844404,0.011202517740418083,-0.048804169749353005,0.0772273630694656,-0.056548318059402435,0.04185423776334421,-0.056260440892337144,0.07209766053501859,-0.0435222114453166,-0.04245348395949638],[0.00757235616214913,-0.07448613277632582,-0.01208457841518322,-0.053140621573481095,-0.02170830054155022,-0.000798504032404973,-0.010606861222820771,0.050207955023459844,0.02307140431830912,0.048460311155888974],[0.04967441077480056,0.08057430660174683,0.07539338145941801,-0.04992630720563649,-0.0010992674865870078,-0.08614646856907306,-0.08459505172137798,0.05404684698101084,0.06294690470773356,0.034611345203926225],[-0.00976229606858188,0.006475605618957922,0.07971194542430907,0.05857422679940391,0.04201847901399444,-0.0721131973954408,0.07052933813877887,0.0023596862114702855,-0.053194474389896856,-0.028491019386655346],[0.08244416267319149,-0.02319908201624067,0.03011150938113688,0.07028422524746714,-0.013811333146343321,-0.03932741940561344,-0.07791122525171548,0.06133804207424132,0.04067633471900947,-0.08464847139325506],[-0.047135125302572405,0.044474096336737046,-0.0703836931150433,0.03983599423874254,-0.0036242052380613676,-0.08347940585611939,0.08157136678884941,0.02278252104676641,0.012532440582485621,0.05151590025938074],[0.05164741929638764,0.057685480917625875,-0.02564624479222314,-0.023410045796349574,0.06664296343519469,-0.017350381501823636,-0.004091364059642874,0.014790981220924704,-0.08405197607716496,-0.006547658159572992],[0.048104042315310624,0.02719522316371567,0.07880934986853233,0.03780058581032729,-0.04867327350459867,0.024889528875973774,-0.08062008835419543,0.04826789995390296,-0.014346083014270983,-0.013263337622906907],[0.0449485318900773,0.027044001068456905,0.07293124933663836,-0.07757692858597344,-0.027742688332893804,0.060103080506165474,-0.005550363087986301,-0.06040895891142166,0.0393181879225481,-0.06942443301265343],[0.03140739030441557,0.06800973135695751,-0.01741187911783118,-0.05788747636620674,-0.057940113527546355,0.06081477834355378,-0.07075041435396694,0.051265730262916476,-0.003179684130642721,-0.01412372119190844],[-0.013166631469541404,-0.06343271972403322,-0.0014043811117943894,-0.018911649377108777,0.07277720873177865,0.07230456802915566,0.04677396380657059,0.0315263251121988,-0.009573562856115173,0.012576934286727168],[0.08153515946766868,0.03349990891529017,-0.007785542193284395,0.05620553005216822,0.004550100131425011,0.02202923322547415,0.008898387159810006,-0.033849991936025316,-0.08145488300409297,-0.014148814966623458],[0.035769444722112936,0.06849064331241969,0.04665153448628939,0.036495703267759055,-0.028339166166690688,0.04483034412050038,-0.03708795232460363,-0.08550644982684902,0.02526750609619967,0.014479974980025859],[-0.07571179987138806,-0.0031180820723246266,0.06540960593042724,0.0631117190453567,0.06618825955228219,-0.07333431499924543,-0.010373821792856619,-0.01309299382715777,0.06129254197907605,-0.055282297848591996],[0.03765831789509207,0.038740237448957826,0.06980885059237446,0.07378266555140262,0.06555526655740504,-0.03060369623784768,0.03133400291079602,-0.0627465948496662,-0.0835430279337128,0.08419504891709981],[0.022162848218115816,-0.06072680465447958,0.019151511857068648,0.04778983459158101,-0.00579878217715403,0.07691675394433123,-0.007147684732034837,-0.04208530050683296,-0.0010362480904416438,0.06524879364969152],[0.005236837077501957,0.0035415220499573075,-0.03497960934696173,0.06287264124457392,-0.051027568340483824,0.085536383887337,-0.03292457443973912,0.023404810775710286,-0.07828805328397845,0.007883332803123477],[-0.03570769334919482,-0.02721892750042177,-0.0024955200625291774,-0.04218916443961771,-0.0715920755859304,-0.04928175733698803,0.06130870049912898,0.07312267855718796,0.018453733811984965,-0.004590464030488586],[0.02703521495727268,-0.07878897151587246,0.010513746617173261,0.034500904400169424,-0.08615293676025895,-0.025554426591621694,0.08164279078218781,-0.051830780800031645,0.021645010564145417,-0.05820858546921159],[0.01452385143192049,-0.08202322762944389,-0.08018442798833444,0.005574705463289281,0.07017646993465299,-0.038444115412591455,0.08204480037069259,0.06457324617773269,0.0306828647762305,-0.07986582699563413],[-0.017665479503462575,0.000011224840998511065,-0.0276834128728006,-0.07508583362275054,-0.025205450361094943,-0.06758149084952994,0.05507197832985633,-0.07175636401786017,0.0542273885680451,-0.05043092140192335],[0.08606074699299923,0.0392275107106034,0.06213922823386059,0.07079907995112808,0.030540127464428274,0.055779275485506846,0.05934462164269355,0.014541358540410346,-0.03235019707328051,-0.07301930978798797],[-0.038427656388044226,0.01686485514000348,-0.04758634788075418,0.07548319583928678,0.06317280168207351,-0.07041704884943974,-0.009735690963861107,0.08078325174120171,-0.06913401637573958,0.03371555577104213],[-0.06509239209283929,0.08402193737568411,0.06772818446644643,0.007718058844161338,-0.08200965788360215,-0.06049980796862783,-0.05398839520859296,-0.038697662704021335,0.00021265514629337234,-0.0234602524854456],[0.08430258184312359,-0.033615829770424266,-0.002658911548789375,-0.0356058241862968,-0.042471777500309074,0.08285904346792541,-0.0850492232383396,-0.059624695522870724,-0.044954349383265216,0.05417540320622022],[-0.050980978844541835,-0.04276763605711468,-0.0049037827792566685,0.000016110522154388907,0.023679928800888345,-0.013348343533725715,-0.08446701867216148,-0.02877370165123371,0.07999009013157937,0.039226561138225424],[0.08413566683747367,0.019991031871218923,-0.013173913038651591,0.028178558545773433,0.07409124677103465,-0.07311605396911533,0.018877831634585424,0.08380958703750707,0.05689680140575107,-0.010527032706818776],[0.06292715677249605,0.004692134380233137,0.005111209453004459,-0.04184239069829986,0.051620064793715115,-0.019634722259262535,0.08628831664808922,0.03035104884443285,-0.060133706702075934,-0.05238182082676893],[-0.05712262511777935,0.07923544987623987,0.0035570095884379233,0.028895825912426495,-0.06000451808202094,-0.029665570561653754,-0.016700761203920417,0.029279449463995133,0.010672578889534379,-0.0047292898177157955],[0.050990133500243284,-0.06280465301101168,0.07130631501280468,0.04554861671156987,0.07410483229185905,0.03656721330901164,-0.0744036249469777,0.02604463969649802,0.04363264936063238,-0.00604188846381544],[0.06582179919117218,0.05347397264371667,-0.07394958430046436,-0.0649743748917274,-0.05956290281065307,0.04123882847397098,0.030348072757428166,-0.04968719469475423,0.03491469350365141,-0.08105849539690688],[-0.031180493339962742,-0.047154718609534366,-0.0076570696415912826,-0.0366141596529233,-0.0433509562543872,0.023991819205514464,-0.06648414628869868,-0.06927004724252452,-0.011490110233631806,-0.062082108448573745],[-0.05829535160173746,0.002493495735855056,0.013319760891467997,0.08021071703048874,-0.06638893761680136,-0.042861293847581625,0.07424809609427727,0.08408041875794903,-0.035474834551811336,0.07890016894765708],[-0.033087410783185243,-0.020118322869780852,0.07039900243892769,0.022505049340220226,-0.08351972435411911,-0.08193263720816112,0.05427719716994964,0.08358131994947507,-0.017069447991035533,0.00869896668992888],[-0.003543629235009532,0.06675799139214869,0.08074385068945675,0.0048119262702673304,-0.002301111994041302,-0.05352416826970724,0.05597017098232701,0.06934509007905751,0.01577112653567367,0.06507067306970415],[0.08013644814723367,-0.057781786645879026,-0.08002508467792646,0.05434286445233161,0.03839678169620042,0.004754867483554387,0.05016512630884423,0.040421710274512995,0.05257684157756895,0.0816102892712548],[0.03278294224068515,0.08209549343855724,0.017889605078861934,-0.01914575674996584,-0.02883601166164928,0.02541232726959665,-0.07227839664842929,-0.03149742586986725,-0.0419024656954938,0.04722203350075027],[0.01564965561709443,0.05491091145552271,-0.06280982357055041,-0.045912185167488635,0.05314495496813093,0.04756291343767391,-0.06834460418029692,0.04732624016229625,-0.02473073470652131,-0.032314528516616224],[-0.04913938012130374,-0.06985755802843524,0.05527053442525065,-0.07637219170972881,0.07744161760732166,0.07468857619164873,0.003557761136752449,-0.010264748372793883,0.08317234950977795,-0.07897643734237475],[-0.028177323630458724,-0.006718417118089584,0.011767235510103904,0.015481527325484024,0.024419062006716216,-0.014600174842663224,0.06746314434166986,0.02545074140695551,0.001672105533373075,0.034542211320923846],[0.032315882086309325,0.08165470615546971,0.08324700438653382,0.00034933095704171857,-0.019948139655295516,0.026118604571813794,0.008400002610848042,0.029901606519708343,-0.05377648790960694,0.0722251371672453],[0.08510074874011675,-0.030327811733629466,0.05914803287350237,-0.02513655080192869,-0.02231446291571257,0.046676241385258777,-0.07387424758820033,-0.06768261439463948,-0.04402067525486676,0.035602991801102074],[-0.016558881584194718,0.0020010083258204248,-0.031118329947201123,0.0371935036585299,0.04600497640040402,0.05651161256232076,0.0006217520733125537,-0.03860630499772709,-0.044540194099387476,0.061733557260916005],[0.0019432337399922228,0.0008723679880342922,-0.015949717267205107,-0.025550776877356768,0.048451831429061676,-0.06999512694880573,-0.013407302771987345,0.05254151159920051,-0.08278537873133496,0.060444678304606175],[-0.008427647838325225,-0.025325436502815504,0.01747729430564901,0.040722794224235,0.06468156487232926,-0.07716297138921274,-0.027235815170797012,0.01726082270418601,-0.008258320916494935,-0.06139778889793637],[0.06919963976046681,-0.06530207409950525,0.06898468165609004,0.031152894978819734,0.029551848111512402,-0.01372780877508177,0.06721769041895981,-0.0494782820083825,0.07654719158227194,0.04406659406988889],[0.021739863039871285,-0.06552051374931053,0.0011815769814569471,0.04144576769445779,0.03170641219098952,-0.00949678309830003,-0.07671553468344974,-0.013972653725765602,0.027650532590110313,0.07866928575310106],[-0.015430469169346192,0.0164400033709603,-0.059584110591969046,-0.0802298743345436,0.06784447711030125,-0.05945295519502171,0.0672023700032218,-0.059725848149372575,-0.0003806385166483378,0.06371641586063004],[-0.03607824507269581,-0.07664816404849546,0.055222412905353735,0.05437375390628524,-0.052522984264393634,-0.031165334624402068,0.08337110125375224,0.031169323804122462,-0.030196808145716687,0.037841135152949665],[0.04687266516977523,-0.07974265001572255,0.08358312436642712,0.039200498032710834,-0.05636452129413931,0.05897335243765092,-0.024529614317854394,0.046084690771846265,-0.055572515623041295,0.014724259960177039],[-0.08380670922019222,0.04926190219346488,-0.07628062637193142,0.009863467301346976,-0.013653053485497016,-0.05613087747487393,-0.020301867499173648,-0.002749536516308715,-0.07825967044283846,-0.05508885093325348],[-0.05755157284245786,-0.0753766271083726,-0.04744972667518411,-0.018176002207809225,0.047785580359920976,0.07308791509561224,-0.08356961052694034,0.028159829852902038,-0.05300355673523416,-0.05709127902047819],[-0.08034912984667085,-0.06422001831642227,0.04144728750573798,0.017507255445900025,-0.05976389363923994,0.07766356292693916,-0.04722501899620753,-0.02595844525394521,0.043789065152832235,-0.03740237072673373],[0.011335746691268772,0.08385807764146036,0.011259564046548473,-0.05224468427593494,-0.06153510682775566,-0.030253055386786007,-0.038113497266177514,0.054119363906823925,-0.06078910340704824,-0.028136410060851366],[0.0029205851439430552,0.010016776511073869,0.07591753897307896,-0.03668346747374317,-0.029944319911425245,-0.06311613516344883,-0.07180368900983775,0.04063699072473226,0.022043486579148314,-0.0405314527525165],[0.054357972528453063,0.03963017727243673,-0.03732399657900397,0.06704360664516884,-0.005348497341325267,-0.01958970168899725,0.07896127906348246,0.06657734132010251,-0.07356235978939346,-0.02984367399451833],[-0.008434994808731042,-0.059095595147741334,-0.07783551575799821,0.005781761339719513,0.07078462641349567,-0.08530986481838232,0.037449630697421604,0.018522363367776032,0.08354839675631628,-0.08258624114333885],[-0.04290035254727819,0.02410566861516547,0.04243611438333583,-0.02780705184672802,-0.023801621831198605,0.07516916733072196,0.07097987224539579,0.014634938843670384,0.002619630042733745,0.03133257747718657],[0.013122669641620538,-0.04642951750202912,0.04933245291431443,0.053363539619174144,0.059947557118436245,0.040756933547735796,-0.028166077248608937,0.04035789768626716,0.033328061795101116,0.02520651498240639],[-0.01947917659304199,-0.01917001268385525,0.04652639553728946,-0.010658779411497968,0.03521191955414976,-0.08282028311064121,-0.022213211789942067,-0.00730824968915611,-0.01853739267893291,-0.05139034676778925],[0.05009143674655506,0.05498674830181302,-0.03889322781970275,0.07222287810272782,0.06348471929608854,0.045421203695581586,0.07678656238753218,0.024390633867492975,-0.05997588901793202,-0.023833226254005885],[0.0615702578276143,-0.0359520153156334,0.07975048875540364,-0.04154671382293091,-0.05008397609083231,-0.020997314031270572,-0.07105452093360753,-0.05254576594620492,-0.07257777029893828,0.04789767484106247],[0.002383660233731391,0.03520085084053445,-0.0085540762672075,-0.07523463508915636,-0.04748920623782595,-0.0452934951451438,0.07353162946890954,0.0068349466563905475,0.06777347139352777,-0.023084373107775794],[-0.08031009559497132,-0.026006271714090687,-0.020955698259087885,-0.006980304915872829,-0.0008227921698039098,-0.023517533914945724,0.021814308287491424,0.0423663990007859,0.000793081066020801,0.007626339460501688],[0.05791499693088156,-0.08505987376053394,-0.025752552055772218,-0.05709176882366048,0.01904315917146486,0.012023585661101052,0.023288674539314935,-0.01590172059225685,-0.055598853275168066,-0.06296269005005932],[0.051300681744526566,0.0528133097830053,0.0698338384647928,-0.019082985748288386,0.059259135032604604,-0.02282736909739176,-0.052143114569624775,0.05307508932722904,0.07640855003052813,0.03210771973637255],[-0.052183193537836285,0.041937377613042504,-0.013267550394829741,-0.004364937719751216,0.062059425960238224,0.0038753478861316415,0.012904289329674842,0.017485837455688824,-0.012221375685648017,-0.08353499857562831],[-0.0557604386919818,-0.057334896078633645,-0.020280195787351046,0.05982606589038306,-0.0428984311043333,-0.0365761733710839,-0.045820131960950944,0.029940485157900015,0.03964425611242531,-0.052222778549282575],[-0.022996641859124603,-0.0469034879547847,-0.03137007711447122,-0.03245431153908675,0.039941871485431324,0.05101270827761853,-0.0017057907062573568,-0.011253290930630502,-0.06677350687943286,-0.010675731101411096],[0.03403106530162321,-0.0017312652070692325,-0.021079848376916496,0.013296087488858951,-0.0350316896643748,0.08288605197959739,0.055978171767775836,-0.08652686127848028,-0.03788676139094215,0.07108624033004549],[-0.029681870632933066,-0.07275448130677367,-0.013447523973708797,0.07381364844950045,0.024246742031533014,-0.030817943263029474,0.01960483211335516,0.04384698936178624,-0.05589581402406971,-0.07000689439457003],[-0.05744585100523872,0.05788711441292613,0.08391988569954761,0.02356796393131616,-0.0848234864552268,-0.021767192487112993,0.044319166479372535,-0.06929149403002657,-0.06388790742973077,-0.060482496154650164],[-0.009671414358070701,0.07773658221866142,0.062428183261028614,-0.019050215367309775,-0.04745893218514869,0.08560956791598709,0.002222427453258069,-0.06891976221970084,0.05316872155219887,0.07492051722712617],[0.03101563964469095,0.04784174646773792,-0.06554237241930976,-0.003408753859742486,0.047973008329244254,-0.06339309689844538,0.0016820999289521438,0.01607413410735005,0.05991537468858266,0.023065028695272827],[-0.05271854141065558,0.013074705738509745,-0.06968076774210907,0.08666834168897822,0.0363773409533413,-0.032808757201779275,0.018041784484790976,0.05393075546574744,0.005798307495893204,-0.08654317652468374],[0.007195589863647364,0.048583714259240796,0.028508548312484214,-0.030116176733251662,0.050485319410182805,0.04724245588828657,-0.05091486760728476,-0.08041540491311348,0.04254891301485533,0.07734842743214657],[0.0326694132420462,0.04953514776912302,0.0006253278164365106,-0.0131371775969846,-0.06815455816894256,0.05840269701069814,-0.06013930244786407,0.03550732136919575,0.04877402593785077,0.01569687526483074],[-0.0001427876316614507,-0.025376010268158125,0.014511749243628039,-0.025456811083807894,0.021886988520716022,0.009462746504777242,0.0012347307242507877,0.07688645728212695,-0.001633685145801922,-0.07685606114552394],[0.04467095480364275,-0.06367212145765412,-0.07923728746717609,-0.025211050356512214,0.018178903195457147,-0.06764227963689211,0.05625140448313076,-0.05483498247257597,0.04766434911652087,0.009529094999847734],[-0.07137112564462944,-0.06443658944350528,-0.07394355867437416,-0.06827423949424732,-0.04391439236008757,-0.04628936074169989,0.08488023382240034,0.015229803777263837,-0.008845852735543364,-0.07173009978784187],[-0.05171046890403176,-0.03033942651959802,-0.014761101282778105,0.023648318692265635,0.024983032634503674,0.026457584030143047,0.041411502248935,-0.006266991419649523,0.03973525558459104,-0.04120463126189246],[-0.008602452320786519,-0.050230043209387364,-0.037064901119833814,-0.02653560353422741,-0.050953520757997216,0.03653668510363868,-0.01093008094865458,0.048023641751336915,-0.060148093619556225,0.05134155880388008],[0.0656524199181478,-0.07845850292269824,-0.011139385843069394,-0.017395214338977588,-0.013346854557112278,-0.05671812534597346,0.0060136726481745395,-0.008307250468706284,0.0015159102728515422,0.002617896490160143],[-0.07432125529239514,-0.007903391879266683,-0.010313527795741531,-0.06472126491696982,-0.032085404755496025,0.052732101119398495,-0.07308664521680137,0.03631657800339236,0.07459984666699435,0.00969829452628447],[-0.008232318992833637,-0.02823599656579403,-0.08003240524412067,-0.07316511073833391,0.01207627032285051,0.07424311004336351,-0.07161825466030425,0.009088452201936825,0.06488799373528584,0.08635101308892659],[0.07343705554742358,0.023474593353249668,0.015620847226475887,0.03842813773614856,-0.04159290118745793,0.058966730046486227,-0.01025829082771118,-0.08544091289220249,-0.017928880923982524,0.07531803410471846],[0.059346776712726895,-0.07363091540239382,0.029730786506213747,0.022781226703113625,0.035253186180727356,0.023812971326236013,-0.014560282048458328,0.036385884332071614,-0.004639721459281224,-0.04550117993048757],[-0.0017497367843721107,-0.05223870136117649,-0.06812081656161789,0.07633258684370303,-0.044503359338270945,0.06112841311320172,0.07248262090816987,-0.006235304850653753,-0.03371523040499122,-0.019528162443083447],[-0.053392142314051726,-0.007717399524902954,0.056759747875642946,-0.014092788854288454,0.050156102716567424,-0.0034124008294729447,-0.011862022417127,0.056647224326681594,0.010826857171873608,-0.027930403447325003],[0.06503186417651746,-0.07662541484023513,0.07871661493403245,-0.04783503956738351,-0.06446935523540127,-0.03762501413482363,-0.0681587723516485,-0.002507538146889643,-0.009401579023104206,-0.03937250395875566],[-0.04246701327152942,-0.011208978519593488,0.08350157344059003,0.041676114264357356,-0.053109796719854226,0.061607671347980814,-0.026973981957712494,0.0449484730700499,0.04328178119160794,0.031000324479204422],[0.06977141440551263,0.030331775949087883,-0.0779634832051039,-0.06744473428547672,-0.0606798645147845,0.03551438602528581,-0.05866074610167779,0.08632811383418959,-0.04660755738942856,-0.02263162068423935],[0.05184833831645633,0.07335855306697131,0.07840684969250158,0.0610539298998127,0.03954840318412031,0.03183478995822907,-0.03230138290958027,-0.08335938757140592,-0.02130709814891113,-0.035971464949933224],[0.0014893197002944503,-0.01723604452118549,-0.08288231751859602,0.06381023304686093,0.07885732295422515,0.04759827562808769,0.02156865667927818,0.03482626638081206,-0.0681683784871858,0.04768107192509427],[0.06757734910259361,-0.01452874549134403,-0.057498870128086035,-0.06472010962471512,0.07698280443372119,-0.034940782029903424,-0.008852458883248454,-0.006138435962109182,0.016036851852556017,-0.03972305718846893],[0.012844658600728864,-0.043358871956566236,-0.05157716578081313,-0.029376473052079154,-0.037592707295981895,-0.0626994366734113,0.08431101901769256,0.05212543751467688,0.02921470061443461,-0.03036009008456516],[0.05893094802246193,-0.04152414934179393,0.009749175763004464,0.07413482766263715,-0.04029242976121917,-0.014397965192705017,0.005675668809574291,-0.034082769484163805,0.0059388799786217195,-0.07387401717336248],[-0.031020510300732933,0.057934901964526,-0.08156418867225032,-0.010917385910934413,0.049336628974192775,0.01266704788037716,-0.02512570122738049,0.07281661613043083,-0.05791675379253314,-0.010613523290746357],[-0.03146711403998338,-0.06968299661281599,-0.025860037744677752,0.07144128627851662,-0.07161411500813993,0.08152521708584815,-0.044796578095945734,-0.06447425530996448,-0.08599194553998643,-0.054012768563940966],[-0.0763176032735711,-0.027608462722154073,0.020030629383142498,0.04735128546951381,-0.07639707416648366,-0.07464802039993532,0.05898894321952608,0.07245234511771992,-0.025056505486005562,-0.03484441968151563],[-0.03274179155853676,0.06400754063124639,0.06410653483483156,-0.05778848709589407,0.08325913656077427,0.04558887067345166,0.019876532495866975,-0.014806143375557135,-0.03953724769828321,-0.04160478009680668],[0.0056853522053192385,-0.03715813066812528,-0.02697870364572995,0.021396457962153642,0.02143295854637549,0.011378769681497494,0.0647680804392245,-0.05817535315599412,-0.005969824206515456,0.07442928894435527],[-0.0866008895614329,-0.0009791738918890902,-0.03804054132703315,-0.011047593554730145,0.025895356133133138,0.053022362839258486,0.06962484150787795,-0.0005324844258118022,-0.0495900714708961,0.06241924923966097],[-0.010736145615058937,0.0710956533463831,-0.07382730054554766,-0.035096054538699274,0.0011785271901129657,-0.07503058908397552,0.048629414512128266,0.050711434692894436,-0.055063431557028836,-0.013349324990445638],[-0.057184550062538,0.08045338912206856,0.04463674253331293,0.04157303769301404,-0.024742909499414746,0.058802567179055604,0.027961245275698154,-0.02352966133301003,0.01619366782901782,0.0762124434471794],[0.06631969779536273,-0.03445315022788186,-0.0550102954525521,-0.07622107358686482,0.08244468200175348,0.004735523959660773,0.06679081970779507,0.01130768566252606,0.050056197297267624,-0.011340585040516687],[0.06120008150354955,0.07644955160950476,-0.05027156638780616,0.03837502223024819,-0.03379524834294169,0.011107309115624714,0.054280507930967226,-0.06388076317513418,-0.011869841628464106,0.07442819551102484],[-0.054987027709516856,-0.032159483050273434,0.08079781843352693,0.023366975520307087,-0.013846477282014408,0.01365324228656567,0.0723067977449672,-0.06458737510055194,-0.022540415485922893,0.06533965083158144],[-0.004030813316222848,-0.04332251395984699,0.07093429211926644,0.013210713348608141,0.012448012491311666,0.059051302357134156,-0.039901563795873125,0.0345669012919777,0.03379801357875299,0.015469614380613575],[0.06071663354127041,-0.016637689590083507,-0.05169844278685683,-0.0019651127456510598,-0.024015763509730906,-0.03963353261338033,-0.029561320372568943,0.06803459871892278,0.03668759551246803,-0.050080209208495846],[-0.05453427324897737,-0.07601829855571499,-0.03424495641034104,0.06581931471692212,-0.05817897645775392,0.05137430300402551,0.07873744755897813,0.08177221560937867,-0.08541831861442803,0.015630523670899094],[0.05693474678250937,0.02702023226035384,-0.058509183560802785,0.01546274973643015,0.08216028263572273,0.028694957975132815,0.055272253314061354,0.034508815344605925,-0.04411841805892125,0.013974778404424584],[-0.06766030199318213,0.010888495455562044,0.03881203574416994,-0.08558422144497513,0.03723442184826592,-0.0813891424500033,0.04208622223482561,-0.07209942011908486,0.0006420342188497297,-0.026571158351846737],[-0.04835545528186974,-0.04282792195545691,0.055296399025932946,-0.08001603690500372,-0.06535586805944378,-0.04169954127756475,-0.06462402478821491,-0.01953538735147667,0.05289370142560704,0.06182798212161167],[0.029292674179535183,-0.03207781524371754,0.0030003925392413505,-0.07157786695323598,-0.038473064319106486,0.05322247023276075,0.041542974168743585,0.027729525174327432,0.06742314297764393,-0.021252317284445807],[0.08671575254763408,0.039729610467131776,-0.08035105467900755,0.014936975790814322,0.04671255512139552,0.0690569982671945,-0.004351109464445127,-0.027283764688968815,-0.03212094268201627,-0.015606399775678279],[-0.023887879027865724,0.01443053446060523,0.05519947811705686,0.0183944051802704,0.04583489978287436,0.07795148505107988,0.06512180002556317,0.0696781413731164,0.06549329358957412,-0.04448689119226205],[-0.07519018050992576,-0.0005870209340121946,-0.04996678801992281,0.029088052899878217,-0.014341237181242722,0.0012963908522167222,0.040126504857994544,-0.08368253369282615,-0.06227966515478743,0.07799308791763077],[0.06069749283616438,0.0775943751634231,0.029570797056912373,-0.022322766397310068,-0.01653582729947148,0.0654169625516762,-0.0323753490301642,-0.0760281551199264,-0.004310194021132016,0.005805686881219116],[0.006138831532396458,-0.006900548550007782,0.024402501034559335,-0.053869342164759575,0.0445394852074017,0.017499471082256024,0.0777751038080321,0.02621107378580051,-0.06169051999595311,0.0701206606356414],[-0.07508703901064295,0.04814275735638229,0.0538321951278225,-0.03600493047288573,0.006364513921446033,-0.030124704578325952,-0.033073666146375705,0.04743069927240054,-0.07924991519929102,-0.08422390278200917],[-0.08616796541882875,0.06940526147173623,-0.0683383050694095,-0.02443372748849882,0.042835048105154816,0.03264162148369251,0.08029149263858548,0.06745941843401815,-0.07606969001159479,0.048282499421191116],[-0.030409345218227413,-0.0021749686161286613,0.02689405887799194,0.029407163351680282,-0.010635712008818382,0.0188554818845246,-0.039811958255280604,-0.04160256839305334,0.05283926329005667,0.062291271788879915],[0.023840332674353384,-0.017415641655029332,0.06703516553747729,0.08108161503853745,-0.08672532263703642,0.03445786800424261,-0.016949122402179773,0.00190897147029373,-0.005561516989230436,0.06271980801242608],[0.017630890513942732,0.058867083842414736,0.07168170741254834,-0.036672556801195105,-0.07701025143411988,-0.00473128361857425,0.011587435512978153,-0.056551354219456305,-0.07173161261174177,0.040405692428367584],[-0.08175259917906466,0.026300902235771778,-0.08476614162575942,0.07993576063693306,-0.018239898878415636,0.05470970839819034,0.08223625290501219,-0.06258813342860017,0.08521239974173297,-0.026669058451125743],[0.06348770961796216,-0.056241592721337344,0.05790512567101033,0.0016838952772078308,0.05047840270085427,-0.07992054831705597,0.08583329549241159,0.057609599914385384,-0.034996000903722055,-0.035123480125172996],[0.031086965631969582,0.013832098164417522,0.048281475922203165,0.06660982252191877,-0.08303467626481775,0.0805779883296234,0.052356560974950395,-0.01839260088481115,0.0851784041338888,-0.06128085930514304],[0.05658656738487128,0.06815077803456643,0.06036470609404379,0.004916646621483625,0.02931420125739438,-0.029869533147370085,0.01967038720055274,-0.018748681831198516,-0.04680403904480302,0.08270235753974114],[0.08526009370266208,0.021345598084961642,-0.03179828855783952,0.021551453454804206,0.08546712830924494,-0.07468538035619318,-0.06403488263470836,-0.05193587649985087,0.05761377329610262,-0.009805416918222884],[-0.0588661183525447,0.04578602696373982,-0.033800359138753046,0.012602970216513201,0.06010991202453356,-0.055588094557255906,0.08402259513139296,0.059459260523348684,0.06208454151439616,-0.0023884028882895925],[0.07758014845627415,-0.033270852034961836,0.012814825515996303,0.06850419248509163,0.0023993373463990497,-0.0012352731897638664,0.052011930103658344,-0.019089193778342645,-0.05882477516038828,0.029203020805574104],[-0.06531454599535061,-0.010032008395785205,0.05974872134947673,-0.07356890218435537,-0.050717156251121054,0.0855982977097097,-0.07712636517962815,0.022609132500946524,0.07856097806203527,-0.08476679766706662],[0.012259377922003142,-0.0353210757616594,-0.0587443386320873,-0.06631326310585732,0.02199051367415321,-0.04259733406332455,0.08116525737840541,0.0591401649459071,0.04960535337940511,-0.04017547415283025],[-0.08208924529892947,0.06538985612674922,-0.008978473213520188,-0.0817872832812011,0.020676177387814285,-0.03673838034480145,-0.02828835435955083,-0.01110789333044275,0.06445046290587067,-0.001766665943452858],[0.07629109424075145,-0.021131599780926394,0.0786079860677342,0.06986386367902545,0.06513462115849669,-0.011520363103119005,-0.04910152867648319,0.026021064287636383,-0.018097517768369514,0.051517759968787186],[0.04338784692236938,-0.0597642580327241,0.059289747445577634,-0.00763951300480821,-0.07932736229200267,0.05415381267448349,-0.061138262613460406,0.0015275736466967005,-0.07173545282150699,0.02264995909546845],[0.013437788355607175,-0.04322911298546817,0.06998554361467915,0.021743757806151745,0.06254364668557477,0.06827839743102207,-0.005991896254237863,-0.05949466324440017,-0.07688478795042923,-0.036199137642477563],[0.027789239126020743,0.07894170310233736,0.07771867161065832,0.05212032956236945,0.07500392744767406,0.042648023335795315,-0.007117778201619837,-0.02507089536656701,0.08485189918103772,0.052186000384919995],[0.055092029429207406,-0.027922330958596413,0.06409488894927037,-0.013312811088893803,0.07574752222032788,0.028245923057233877,-0.08198958959833177,-0.06634308117481849,-0.08082689015569905,-0.07322263351830198],[0.08166949058057668,-0.05469319144635623,0.035275599476690886,-0.03336283859072157,0.07686699382069659,0.02553723526606133,-0.07094809520668528,0.06511123963223805,0.027145582180323438,0.02142349567059043],[-0.08509197252852752,-0.0829499459596846,0.07964544096556209,-0.03651738887173348,0.04600259085673114,-0.05849024084334741,0.01795134109260646,0.003475662844279942,-0.05848732920401287,-0.033407885725784604],[0.01564248592878298,-0.001286788096672778,-0.07415015403392508,-0.07719065499245756,0.05714465115819092,0.0626880544403014,0.025607325709385065,0.02785224545483081,0.06875350322048968,0.07082517528895504],[0.039096669697854025,-0.07650171756405741,-0.018383683843601506,-0.01686620503251593,0.07263844955576373,0.047994010271266124,-0.05942598620533163,0.08463514223924071,-0.06879495343986654,0.0028095707572156348],[0.06073290756339783,0.023407484229078485,-0.0579103225740821,-0.02938297968448865,-0.0077260175375655354,-0.026217324170492537,-0.023318171259652742,0.047963497052052634,-0.00993940477952139,0.0005045437983442341],[0.0761695281668979,-0.047805814561130644,-0.02807680849795622,-0.06181859884272044,0.022313368527033584,-0.06775973292257245,0.012976174748080771,0.06201636433564217,-0.04145249416281714,0.05643898656031532],[-0.07062424454285679,-0.024323393137124283,0.04131350943796247,0.03731328556151864,-0.03891682649184501,-0.002948645046094739,-0.020974228897380834,0.011998689490600789,0.07386194242808461,-0.054755686778352415],[-0.0500435468564066,0.014793806418825536,0.08439504488667934,0.0645002616870311,0.07750921559844973,0.08661681953401448,-0.028766361405722557,-0.053278096743153806,0.04197429752700396,0.040494347472563474],[0.005108096597262829,0.007022917673491183,-0.01760867376717057,0.053003224983870584,0.04156353098352847,0.048952960563390074,0.04841778383525744,0.03483472524915121,-0.02753385925479057,-0.04931565037291891],[0.018544862748748725,0.024835478768063232,-0.07659709706605601,-0.03476663764055263,-0.013694754826468092,0.04583008117186743,-0.08229946659204405,0.03453759755321181,0.08047976442188975,0.002793940046162957],[0.07073432482706718,-0.02677087807255426,0.023978577249343005,-0.0594585104509595,0.02408772089340519,0.012210363557178763,-0.07059832081569961,0.08606576421185433,0.02827848924628809,-0.0012626677909781253],[0.05692094682298804,-0.051668915755682575,0.08001700663265413,0.012632120121644358,0.08257853371059068,0.03430273535203304,0.05350202816542765,0.04947199204101216,0.050029242155333775,0.04755812780143029],[0.018191416068817773,0.05423143084471865,0.018580276428811326,-0.03886605167922426,0.008460497330832706,0.04453956512449797,0.06329505296095331,-0.05082379766694502,0.029167667278773873,-0.04183084372937853],[0.011316423434585804,0.044135546497328426,-0.005512131973039652,-0.04113260506762001,0.020032188973379092,0.049425941927004585,-0.015157824633434083,-0.03205841620513033,0.058136117726892256,-0.07131608190851275],[-0.06654939179576262,0.07641796839300066,0.045843969761664216,0.03706234918992132,0.0862411841467001,0.008918788047008436,0.022965311875316474,-0.0538170066666302,-0.0819293809869077,0.02008814181899604],[-0.04648878138739134,0.07362285226448889,0.06500002120194492,0.06339098908840099,-0.08159944031599345,0.07399015996158878,-0.0003795876892697114,0.04119715348182873,0.0330690753117433,0.0614742959281952],[-0.0818166757025684,0.052098436403655884,-0.040294455321317195,-0.0572669272767022,0.07278593067766564,0.05536708164281359,-0.06141965342145025,0.069573933684553,0.0515271366311085,-0.00395770954920574],[-0.004865090326379273,0.009632274816740088,-0.05357518556779356,-0.020053433135721055,-0.052508509094714134,0.04452363917289881,-0.08039522552402055,-0.07833206425037594,-0.08179748478747975,0.0491845448092188],[0.008849699241252229,0.05490365268931871,-0.03235328749185458,0.03144546027212751,-0.05418811151024546,-0.061005298242048214,0.008150078271938088,0.005494434386771607,-0.025892239755371485,0.08356563234584119],[0.025666750025705204,0.0072321207675579285,0.06338259863222814,-0.03206919138650133,0.07278527812757013,-0.006614226844814677,-0.004486513978852982,-0.06480642219614302,-0.01898442321935806,-0.08583837625853831],[0.03379642443652915,0.04292041642518252,0.03734419170109084,0.0740857534955599,0.03526582374038477,0.0011172157755580392,-0.0009250766220285644,0.07420514276818821,0.05157102995233501,0.06384750509509676],[-0.015890353391071074,0.05945262406096927,0.047107690275424,-0.05889541127241629,0.026124236951143215,0.014745772508974922,0.03815569913256267,-0.00848262484598794,0.07538275618604434,-0.03685779908253893],[0.015297740255821299,-0.07302853962250888,0.07696525576180652,0.04054767189653774,-0.05362969785725219,0.057926244004945976,-0.04387016182767911,-0.07826437922230145,0.0033544638568372837,0.007536834186393684],[0.0031517870608745724,0.013870131965246946,-0.0017666129314683754,-0.026643530825578,0.06748692145083929,0.005579008264284507,-0.04555346681704068,-0.06285037057727805,-0.010351854896328352,-0.01147188640936378],[-0.07819029330645812,-0.05389519136101854,-0.01374326776509295,0.03527276518345167,0.014194581419257765,-0.00516265747860134,-0.017838035538532776,0.0614876077186689,-0.016976746661198486,0.015031931316768388],[-0.015742578626340736,0.04430815032068891,-0.07334278041894077,0.07814166554293622,-0.004071281268611837,0.02847448740507652,0.003908509935339408,-0.04840363133671399,-0.02940763319577607,0.08175413629245398],[0.07937770575228054,0.014867890301597048,0.060769227287244765,0.012814679252299288,-0.05486060674577343,-0.07597770559969565,-0.07261542984210234,-0.08169200160998513,0.014113109011690828,0.03744142791446424],[-0.002761590403527775,-0.08395637066964877,-0.0715489938003276,-0.029801586449700997,0.07792389977840411,-0.030309927628759635,-0.04451601012939526,0.036691019816884995,-0.025661296426098115,-0.010437374403165264],[-0.06840571213314152,-0.06054652424432998,0.07206283454845186,-0.08674478805876457,-0.019785039958979983,-0.0038390007412596183,-0.033029100644975065,-0.06067120607595694,0.014761177086518487,-0.07442388318980823],[0.07990140035685842,0.08001380186081325,-0.001182847896124939,0.03804152529517957,0.060855271567822694,0.08245835130509557,0.04007895895456928,-0.06470687819479674,0.013151770555626385,0.01009390723609778],[0.03259012048015532,-0.018781921128238538,0.04277347909882376,-0.013579385441513048,0.08155440026188912,0.024730111271683383,-0.073501959336996,-0.07548844807330006,-0.06220609605898235,0.02221547950411608],[0.05647650210740038,-0.08048599659056965,-0.04856877158976548,-0.032921933681695284,-0.07198573089526997,-0.04535097418659855,0.023746236815555752,0.0747698232350896,0.06921944491376461,-0.06241926815044292],[-0.03175909088581398,0.05447990315437437,-0.021352120004327665,-0.08052478273049499,0.015976724978728735,-0.042880499685841796,-0.0042605716599792565,-0.01195410953961848,-0.011368367543004895,-0.0651863667508511],[-0.009320543859178493,-0.0023981968631840017,0.026404249941242602,0.04591456204325389,-0.050864943922087326,-0.006677851767967646,-0.08345147147071974,0.023243548686114918,0.06191307834212442,-0.06279471071250095],[-0.004202364483238907,-0.05225214782879308,0.07749573514157551,-0.015818628156434242,-0.02666735669979573,-0.0006093068974708932,-0.030408083589332405,-0.006984313981420534,0.06329910237909639,0.04525964968575946],[0.038860646161015894,0.02076206328129869,0.025759179102725613,-0.011568187754369533,0.07388194622600269,0.05704137268908893,-0.049140959779039955,-0.01459521800960964,0.038938520169196744,-0.010754959573984549],[0.020006776823849035,0.01647383761084717,-0.0682564403053285,0.016091970262714098,0.012783474175991627,0.08183723941896151,0.06432245666030134,-0.06760058895722232,-0.06706373227829111,-0.08375576248214407],[0.024314077768690517,-0.018590723902142364,-0.05357091553880597,0.07159301095523829,0.010806078990569998,-0.03904469361178668,0.06882035838407166,-0.06862107537334926,-0.04579416917255231,0.03968074436212671],[-0.0778220221464611,-0.03830636198737757,0.05829019493480181,-0.00657492093400984,-0.009931913469943363,0.044634091552220895,0.054012676755485906,0.05042885479131762,0.05590579810137983,-0.07550325515186515],[0.030310493379590048,-0.06342090569570888,-0.043563268715495165,0.01346286825335083,-0.06978395126777735,-0.015468371883221047,0.009740049827306113,0.010607105159343322,-0.06218802403260115,-0.06503381602896918],[-0.019140207729583317,-0.062036118858573845,-0.046131218586195205,-0.0029861552792808804,0.06693255454223371,-0.08241701935400417,0.01311670090336002,0.030632158711612553,-0.07725072931901969,0.08215090115712287],[-0.026650545331572975,-0.03200955617321777,0.010097679899648868,0.015205611805913177,0.07562096709869173,0.07845290779408262,-0.010441784601441184,0.006240012496774153,-0.06115735270067097,0.009576366055063817],[0.06407182497798533,0.004495119639107023,-0.04121098600657133,0.06915874485158571,0.024495049750175038,-0.000634101039262841,0.0586768216464883,-0.07513728989275845,-0.0086333980844676,0.07709669413539827],[-0.08353269810873643,0.00211681899135395,-0.04590497971817846,-0.08219840253658209,0.005577462972822175,0.043872575268419395,-0.027538876959241253,0.07854242079678248,-0.01820523313024039,0.0695366281052355],[0.06762446279077913,0.006906678456210555,0.07671128674169603,-0.009781567558745236,-0.05585578157970521,-0.017053280619688305,-0.017576955908222502,-0.06791475520779724,-0.08068910285186282,0.08496945363552558],[0.0038798162951084736,0.08533966191840708,-0.07220946350439125,0.06598324064700714,0.006601905923932408,-0.035321583732744875,-0.05768513150249494,-0.004420563901788382,0.005730547629888366,-0.07254525990271232],[-0.02923493803977433,0.03871675772796887,-0.05821354821867803,0.06348569719683,0.010632907109906775,0.07259814494645048,-0.04070838206219767,-0.011315344854188392,-0.04328627706437724,-0.04094725279820462],[0.02537994622329326,-0.06197315645584073,-0.07243591246152148,0.015580255364663467,-0.08390461577958432,-0.05064889245884923,-0.0644642374048088,-0.06775088176999608,0.04377598786890169,0.02067287301181074],[0.08124511986900909,0.05003176873572826,-0.08045926759329015,0.049828656872722615,-0.01989481942819675,-0.04947387217812788,-0.017989488501179957,-0.051148225626003914,0.0025865018932116762,-0.019674351974520096],[-0.012331747033102011,0.006359956919878909,0.02023674172404001,0.05813370904291562,0.0549899003111389,0.007132028278510075,-0.06249763232050986,0.03230730006960196,0.04602795817794447,-0.048370920024586504],[0.08554868289892092,-0.08440006817626472,0.0869273684394388,0.030392975349003204,0.018960066219989358,0.047370819428357025,-0.039229530315996776,-0.024108383742172876,-0.04050908224085751,-0.009693347848413789],[0.08294164726652561,-0.07050154334468889,0.01445327540553823,0.015163731838156697,-0.0031177228948986724,0.0523276004133805,0.047223000156870865,-0.03314992704514613,0.04415878624392319,-0.015568304909997],[0.057943798170944,-0.014022417427603392,-0.04068387538061391,0.05163496838969506,-0.032459508099822496,-0.04639906919827844,0.043560289261942664,0.022703268898783394,-0.0576809399562946,-0.052809350579461935],[0.057172444657718396,-0.07787632135386258,-0.03281923235751515,0.05138305647455671,-0.08361402958738001,-0.061079305839573765,-0.05633871762691577,-0.07903493311279233,-0.03195333304109137,0.0672100718143982],[-0.08277360603350442,-0.08492109960757051,0.014633817427908619,0.06688188440124629,0.06406299521049857,0.01296730943910894,-0.014391647851387399,-0.04869949318968718,0.037945576862360816,0.011645544448569939],[-0.034348158968115036,0.045323316164710026,0.029861914779180987,0.05714189306742107,-0.0016493218597362774,0.055522362325857944,-0.013352318733892296,-0.07101873412217144,-0.0130762756479125,0.0629281210213519],[0.06298437924354089,0.056349357637835856,-0.0023370347863394536,0.046542239860352747,0.08572037072186445,0.005215249560380053,0.04758480401656551,0.029641995900885704,-0.02323471516503453,-0.06370550638105922],[-0.023662638239574624,-0.016597097109109366,0.06152292967474052,-0.03954917866478732,-0.03859956369415243,0.06871333414188407,0.018049000787656547,-0.06770963823283764,-0.037579338612803964,-0.04189955026264778],[-0.07213753266390983,0.03885392327754708,0.05852095823277517,-0.038492643498821304,-0.026691513899514803,-0.03456583133075141,-0.07697607470293477,0.034351913975333354,-0.03387961319497393,0.0010997455810271978],[0.01351826291317268,-0.045466693518400735,-0.07116367741403194,0.02681013153279324,-0.06584640767261524,0.06112811853195352,-0.004734517487354983,-0.014194410419106587,-0.019850479757861653,-0.07203321587359077],[0.08617822209797249,-0.05080038405667617,-0.05486337879192343,-0.04085914071915655,-0.0628346794304323,-0.02347138839318874,-0.06790240222453825,-0.017493224140478117,-0.030047226561942156,-0.08420557959622248],[0.001114675842078361,-0.05837881254248731,-0.04632267911774045,0.007123772194950903,0.0785491584576768,0.06941121242597748,-0.07144297859597405,0.03462003530858555,-0.06608682421575898,0.016516119065735232],[-0.011832972105403128,0.008785182290358018,0.028146490459602866,-0.023853521593947505,-0.03532897142082793,-0.013718109432727069,-0.01982364228699239,0.002280799499321598,0.008559108027777193,-0.07127537142169621],[-0.047146009235821795,0.059957935593256045,-0.010580473309254684,-0.06435227632243379,-0.05709786082754934,0.046304443317708666,0.03392700705364804,-0.020440143941923117,0.02405857123423351,0.05373070713262723],[0.0057868539575840205,-0.0829350803512034,-0.08643536779077447,-0.026691251038334106,-0.02260346269276023,-0.009447862956448894,-0.032830885714081694,-0.014123626347415694,-0.0636689354773416,0.07262276335299],[-0.005363489561873075,-0.05569602823861234,-0.022885273272734083,-0.08129664006032863,0.017795788622492925,0.06250162821964086,-0.08075141416959228,0.002647013153965219,0.05463817117137523,-0.04758426540537404],[0.08190436607574822,-0.08377333091709475,0.06661406779846482,0.04746380423878607,-0.006526828866374124,-0.050425621142991345,0.08030650642423542,0.03133591047317692,-0.07355659502424118,-0.08401639402606899],[0.0423874732954439,0.03558475771400292,-0.050405442212205144,-0.051193653132429885,-0.01749848093796462,0.053382234599779116,-0.03545039540082989,-0.014539182713117327,0.027115511815410095,-0.038893783649854144],[-0.07606224547831605,-0.04063662943616636,0.045583638266497334,0.06869705164237694,-0.06554719129718882,-0.05840110347663813,-0.05725362438425324,0.01282004657784934,-0.06757055323966935,-0.03584003374583848],[0.08532840153010074,-0.012072990687471155,0.08201644804549707,-0.07874981114245863,-0.08138318447029212,0.0690455149534743,-0.07803701603243106,-0.08343477972359561,-0.05746579185237142,0.07521013491983516],[0.07173291593075323,0.013921379185952848,0.012400788267129204,-0.00947633401210829,0.01969994666392416,0.08346216110258903,0.08671393020454271,-0.009614845002652736,0.07879963217675542,-0.03974433054511887],[-0.0495477161635317,0.07125751653476803,-0.07192413369492208,0.06263320190090543,0.06758070564280683,-0.009485844878087499,0.07213658994085892,-0.012743169738789889,0.019814042546619906,-0.0383914203529641],[-0.04668343985412828,-0.02227581306301439,-0.04052819694251173,0.08381602073174033,0.005999105550091741,-0.025998131394711452,-0.06827463988904128,-0.08385785232601241,-0.025900921059910473,0.007790170933950721],[0.0569048570681463,0.052104802711328474,-0.05668555659852635,-0.04201189254248695,0.001371815752572364,-0.020749077358695453,0.008486623968846141,0.07314578135299221,0.05109326590136698,-0.03771727275028533],[-0.06898203661182967,-0.06973545782504562,-0.08079722727480894,0.05916160017552993,0.04972474290797679,0.07419613100903863,0.07493426607551962,-0.06397838027398148,-0.009354241909898073,-0.04499156793365384],[0.00833568280734577,-0.02985186918680756,0.048341777045391165,0.013688144635098931,-0.05527692800453312,0.002580716026772331,0.05590474552198835,0.0706586285453395,-0.05671800912487461,-0.018222864361527605],[0.08635257837754101,0.016533785257609887,0.06885110330138133,-0.08593491912619414,0.04982347675571122,0.06333045866530626,-0.013949032317296925,-0.032138556208002,0.05929476278904075,-0.03813562312867086],[0.04610350966689833,-0.0807717141770446,-0.06817495241938445,0.025036426910052145,-0.023742831338682727,0.029517891077930195,-0.03576382943966855,0.01819912269929541,-0.029791682433220175,0.045263546289549816],[-0.04531858422597796,-0.029764497247287885,-0.0842560972600057,0.07463771603989067,0.0210462176036334,-0.015298936225662293,-0.0766478815143688,-0.02136233215476667,0.03600284987272545,-0.06639693249839113],[-0.07608359187167209,0.00976845262679342,-0.08125909694810964,-0.032405274048882646,0.06237837373492683,0.07439872564989392,0.06340340162247968,0.020933055964171582,0.053611069864740984,0.00995480787377652],[-0.056024194924538556,0.037970191045169174,0.08633721962067425,0.0041007219904640735,-0.06321691728545002,0.059623865748331506,0.026631459799824814,0.03603294858687778,0.028542241836170656,0.013315650678187352],[0.06800084828992078,0.06931070812350437,-0.029845718875974328,-0.06033255977156189,-0.08090808118500685,0.0030944762814790194,-0.07261393617682535,0.059064997948519854,-0.004055158988693686,-0.04239299094758998],[-0.08176373661083151,0.06634317022503258,0.002407257610466673,0.004552800805276702,0.07051663932005406,0.03022470934837712,-0.06586680606073103,-0.06644413731199386,-0.06375159342043633,-0.05867431439272707],[-0.06961209336972918,0.0852308945016326,0.04229551409325322,-0.035641255392186696,-0.011700864907062222,0.0319894893290633,-0.041480480437571285,0.03352559344502133,0.08103877745884716,0.06503865170853529],[0.05713354047082972,0.01095790076728173,0.0704928661420838,-0.06457481920670033,0.016427603739387092,-0.07336238467422235,-0.018056675035342265,0.0036083933918306804,-0.03866918569057109,0.0839069937843209],[-0.08196832155574801,-0.07521432201814393,-0.0195475682205018,-0.012999705958160385,0.010005201803355693,-0.02753186188829116,-0.07276411743099347,0.035032989292264435,0.08363314214613626,0.08230159857189406],[-0.04090967205269528,-0.08057315801961953,-0.08204792877388078,-0.043457247925068346,0.045287347700517344,0.05387195491411559,0.08216130302266428,0.009715678846250256,-0.023230398215971157,0.003539355193404106],[0.030775468618317883,0.020715009041315485,0.047723303297547454,0.023687343882221795,0.012256283496504275,0.0788884815632861,-0.04085912563826543,-0.0019115392624777655,-0.038881392425273865,-0.0808488577417384],[-0.043745632405636156,-0.0286400293670504,0.042747542019850815,-0.05501766646234771,0.013310876997775486,0.013812422273556571,0.03859330041170181,-0.03683287195996097,-0.020010442262443404,-0.022021717304032323],[-0.04402767060900889,-0.06313646536675944,-0.016850288871398042,-0.051509951942016956,0.04971131687788588,-0.054826057483027234,-0.06703982793761862,0.036445301828301996,0.017331933173224068,0.013201922091966314],[-0.05168888658660248,0.029208447598614795,-0.07525874241119129,0.027028804792216116,0.07204129118579747,0.053480587098434285,0.03663094372585583,-0.03809345994174765,0.0000828841367396943,-0.02011631830145716],[-0.05511948184813039,-0.046099846652355676,-0.015564837470225523,-0.050318741537358165,-0.07165653215091472,-0.061063001555034704,0.059594873625793604,0.05917824044090417,0.05420827584583063,-0.03531413804402847],[-0.038951439462204175,-0.00864551118756772,0.04350731843474759,-0.05343271291634273,0.061064861295910766,0.07780766695454991,0.0637727681320431,0.02022848661741454,0.015455853339646483,0.07529118878301747],[0.037965439735460876,-0.022205056092613307,-0.048882719218612626,0.06825667351398654,-0.05680505289455234,-0.005765985263692833,-0.05684336553440093,-0.02814662385459503,0.009355479157072091,-0.06004248356171064],[-0.04924884925166047,-0.017293098069094126,-0.08245275463766281,0.03239946615576425,-0.031608034810941515,-0.08248366634899594,-0.0448628373556719,0.01978337810269358,-0.07888374542336803,0.04722437024471801],[0.06217878829351339,-0.049623951285738495,0.05467878653286504,0.06996053271397171,-0.025533772691731946,-0.06435528723143118,0.06569808992639764,0.0864816155793145,0.025803893977445938,0.019241348837610348],[0.07555388796158274,0.056335066692458136,0.08436791284120967,0.07411088419746556,0.00611026383992784,-0.07382701777003166,-0.026276999470377288,0.01628118395546481,0.02956905802170004,-0.05905097037546425],[-0.009568048448280742,0.0672236299185105,-0.006295762853981354,0.015989476112070272,-0.0026535629535152927,-0.008807980405193608,-0.077570650929366,-0.07304321372705963,-0.022417813571803377,-0.05079174077103382],[0.016240626277847836,-0.04979572180648621,-0.017365764102472758,0.04665600020775609,-0.03715552867293674,-0.013952721251302244,0.06074624639620918,-0.053028831101645246,-0.08172260906294315,-0.02575711548964016],[0.008309475951085818,0.07466404874653337,0.015643670019796954,-0.019932944290334723,0.06284669387323882,-0.04135537472448244,-0.041238112154247705,-0.08158197545830977,0.02891415876959702,0.07371505936788697],[0.06179748978879371,0.031488156024786995,-0.04151456593678162,0.07309490403833796,-0.07944501700528522,0.03676228862802711,0.04233962802986363,-0.058466114031880935,-0.004870207987983988,0.007837862859745498],[0.052352878525299795,-0.006111465100749669,-0.06235102346810349,0.06829681078086505,-0.0682903237588656,0.05472299147369719,-0.08396936651598366,0.05002920983207604,0.06019034479862226,0.08389882039890367],[0.013871622210008261,0.005829739228933303,0.06423871975079895,-0.08000288221340111,0.042087922224442076,-0.06556616831760115,0.047979353469184666,-0.05983408252598271,-0.028334255081274594,-0.05052331068927187],[0.085509630998339,0.04628247493167495,0.01857729169385826,0.044239746599009144,0.08687404277469712,0.06413888300689122,0.08438685809743482,-0.025764706508889984,0.02732187588625405,-0.0016294442153521882],[0.013313989089697068,0.0475323238987041,-0.025178888356190122,0.026778307702181287,0.03389555316259156,-0.02445014124738812,-0.0032413307603562647,0.003923823780117575,-0.07738398896961213,-0.06308113430332217],[0.04355903343112863,0.02031419978798403,-0.035373170487061005,-0.05975035433829032,-0.029262082270432234,0.026443291184615844,-0.08451021948103084,-0.031194257843555312,0.03431335925795402,0.05640291798733055],[0.004191053940034356,-0.03908463872902473,-0.06586896511900923,0.010979085438717992,0.07161293587638992,-0.06401235839416977,-0.07024836828808996,0.050496483909579865,0.0001556655143613861,-0.08087811680567616],[-0.07655881795991945,-0.038988018578824946,-0.000382823159625692,-0.06025414381969375,0.08667791753952406,-0.049398555606287364,-0.005986725043397742,-0.058218243487227,-0.028030263957764097,-0.02620397992564214],[0.07789143702134463,-0.06436331564116697,-0.07531427520775853,0.022601534940626514,0.037480183937225034,-0.07889190271964229,-0.012001104647639205,-0.07690350557583982,-0.003710596981581993,0.017284967621436984],[0.07253981339946461,0.018332304488708887,-0.03315041486404388,0.011057775274264242,0.07778425010431553,-0.040347463519544643,0.08504354751792562,-0.04684958301010653,-0.0246656467474212,0.01933411692518601],[-0.052146575415153294,-0.03961242814973632,0.0749931302859412,-0.056223821504080326,-0.003233494331295231,0.03811783309160127,-0.01682193663689259,-0.02412449453195714,0.011247556302795378,0.07346991861638616],[-0.04448068105542521,0.025467270671818323,0.03319465402775998,-0.08583822065588013,0.04729299439604251,-0.032160776532842016,0.08255684044449899,-0.08230109347596562,0.02634585455667207,0.08409897202691857],[-0.0024407839372200396,0.061797531710974546,-0.03457169095110336,0.02193862149211505,0.02238100714442369,0.033632738178665605,-0.029274255138624194,0.08341689848892694,-0.014731135420950656,-0.0734706546557159],[-0.04068407921425199,-0.07216775562050805,-0.03671252979663961,0.011831434843526861,0.004410436725935746,0.058421446558679896,0.07814425523452653,-0.06371404744543956,-0.042479247267139926,-0.01101836932278584],[-0.03103770688894194,0.0427349622151606,-0.006186134750531522,0.07745522497407706,0.03967385707406493,0.058700397605781884,-0.04409277835843108,-0.010805538434515524,0.03483046668352674,-0.03456724772064814],[-0.036715858649454834,0.03714319570431941,-0.02192892259812744,0.059065207862815744,0.019486362945187824,-0.04827685384774577,0.05235526259223469,0.0831584618513535,0.054974158481346985,-0.07916087322573462],[0.04519097499838223,-0.07699818649665563,-0.0409179982653491,0.07023959116728284,0.04041792987061252,0.07675476783118682,-0.08133115344642215,0.08117969218799315,-0.08328023077553147,-0.018262365792285365],[-0.039499150829437814,0.027244862727784425,-0.023127596387146607,0.04558484919326075,0.08346289236030319,-0.07111984239708774,-0.003633932818145433,-0.06427588751985433,-0.0538244140743034,0.004763820878157424],[-0.03672200428961093,-0.03422953105466334,-0.05709508019201444,-0.046517632248777696,0.02891253889312577,-0.030809906058284875,0.025136214098129772,0.0792103291287978,0.06090828894854919,0.08591024267168926],[-0.07575872020903018,0.05690986858104419,-0.046931486739751234,0.009676751804006095,0.002581389955391339,-0.052937069679122505,-0.03140515301688766,0.05289279463145749,0.06667117879954462,0.080768818586198],[0.03490320038351025,0.03129748338185523,0.06877312226323154,0.0664175987438601,0.01091570878279799,-0.02879083124763772,0.043608167530325176,-0.06591686019940679,0.037042702879456615,0.04452297743793476],[0.0834493861714056,-0.025846963874997055,0.004248216653855899,0.02395773744624334,0.036047867576341014,0.013324283747910587,-0.06303712052180446,0.06810741318589483,-0.08685177318722195,0.005230598140972348],[0.0013163091731508841,-0.05391349009719343,-0.013262895596896418,-0.018441107692014166,-0.02553859499515608,-0.052742766155483595,0.08515076292335791,0.013133081894301207,0.07174916197061529,-0.08267012981069839],[0.08314974088940422,0.051260611993108524,0.03237282103923256,0.05283892329669107,0.07546751778368066,0.007437524328761963,0.007452855121637375,0.023742488761401545,0.08529265863050883,0.07973391156463835],[0.060455695823541905,-0.05917919071708462,0.04996639393684418,-0.0850113270598447,0.03841314123683079,0.06625511359912875,-0.06293537128420097,0.06639807097076023,0.04045404102098063,-0.018473766975390077],[-0.01345260733594307,-0.0706256549679245,0.03683230065954808,0.033424942426806936,-0.003485542977233011,0.04210744728733368,0.04312095651666087,-0.055604822986027924,0.06898891772396773,0.04409035904795999],[-0.025843959495680267,-0.08392870127427213,0.0036492362899178815,0.040600760369861266,0.03679972913228072,0.0792422975203031,-0.08513475407627781,-0.07744214678252602,0.027270867571369053,-0.04883581446410654],[-0.03840128820359242,-0.025937366826326705,-0.020030677561648308,-0.0007351546692767608,-0.07753606607482019,-0.008799557535154379,-0.03933969095433034,-0.08330245978319825,0.07576575994295293,-0.06448778511875435],[-0.025337783515325493,-0.005514367947034027,-0.04476295678420409,0.08247000841359459,0.040039533487464446,-0.04625803814635243,-0.04180638742519579,0.03897611492637504,0.05184868042811641,0.0005403471361172252],[-0.04945629341662495,-0.027292223700826353,-0.04316609987591558,0.06766498027979773,-0.022628005156012043,-0.014579737743232096,0.07214055848865622,-0.07840727088002519,-0.06680614869803793,0.03797567944091515],[0.044021900210090475,-0.06528428982936642,0.003398954678436747,-0.0025574422434371524,-0.0005180050992862617,-0.02406927928695754,-0.008208595057601603,0.06622621577308752,0.08161040184131993,0.02499057463058066],[-0.06047753373271232,0.03458928457026918,0.010608271587589174,-0.059129240536245756,0.06440403773370945,-0.011397062756612564,-0.08496219277237284,-0.001933163390583928,-0.007840239328777518,0.024233459666424415],[-0.029328489954748377,-0.06556925170421446,-0.06289341562521263,0.014845124808195193,-0.04982212880347547,0.03469323518874007,0.06830220444824403,0.051567296567964604,0.05232049845691439,-0.03748654773187377],[0.03625345106100722,0.021413639520574596,-0.062039565057277535,-0.06326589180896207,0.06603070299267785,0.0703808691335698,-0.04694048113090894,0.03991169049930057,0.015263967328495637,-0.08286028922129397],[0.04259669619771131,0.059800709415857606,-0.052376600226775545,-0.04003157387881046,-0.025085389333292157,0.048098999646777246,0.05022700554948084,-0.023645751957347527,-0.009542054244440837,-0.07594527523521663],[-0.03120549103007847,-0.07293834011010729,0.04879226956953331,0.04289508241432188,-0.08313324807186766,0.08549618092311129,-0.003072536907213666,0.013544389279387753,-0.009509491805281683,0.055211338365775076],[-0.020959516204125825,-0.040242981052397056,0.029182659287785268,-0.07050291730950788,-0.004491312106770187,-0.032102128994545565,0.048340845103951036,-0.011316366129140026,0.06553821887855021,-0.02204954245466724],[0.05514854733870439,0.041234999257146965,0.06079306534285364,-0.04645692333482251,-0.024495558415496957,0.017702590165610446,0.07192577609916542,-0.01579998793935776,-0.04401137214003542,-0.01704223506587038],[0.07454003316400531,0.06964705886998948,0.03149880490920602,-0.03559200388508293,0.06064441319767527,-0.014973604216763081,0.08486172885058621,0.07700022838670231,0.06684073266164223,0.0028085130462552205],[-0.06988196473775526,-0.0254139715289459,-0.03576897297662077,-0.04355016245969498,-0.08213510694707109,0.04239297059126046,-0.017881578254196062,-0.018556887568583855,-0.0210617344703498,0.05268741429300344],[0.0742983167132584,0.002467266041405236,-0.04288914777295635,0.07054963874552383,0.05178758300542052,0.06912007099814371,-0.0035027378902395268,-0.011892386276841124,0.07250592471942066,0.07332951769627868],[0.0557255772526066,-0.08412061146545366,-0.04958397588788878,0.07071827037788148,0.01934135476582062,0.02602331418007546,-0.040683755599905905,-0.03790782882101442,0.07687032975402316,-0.005400191715753136],[-0.06509015634474101,-0.030495286691762984,-0.007316289336680007,0.03389917577678424,-0.0746743415286316,0.0548831438703446,-0.0339609520724766,0.0794109682206956,0.027147850461030923,-0.055074886492240044],[0.04777282854958109,-0.08162268750342178,0.061701078083814115,-0.03676061479999432,-0.008362394085774577,0.03861231211510022,-0.03674747140809446,-0.033265327408300634,-0.032662249379562386,0.05286341687853169],[0.02036824651504089,0.07518460976311855,0.0844364049677698,0.012509878235648614,0.025466402609817113,0.07283199103557683,-0.04203997570835285,0.05169996061506249,0.002226361243276867,0.015219849351620171],[-0.01782645939226042,-0.04160772193720667,0.008350436608963188,-0.07891933535728861,0.027544146853453744,-0.012512877807934364,0.027009159877231237,-0.0752676990485443,-0.07552572095035047,-0.06430850273232395],[0.033640765717069185,0.004068295337348107,-0.045131355827400195,-0.04608720392928836,0.034649307605756755,-0.08540853882040622,-0.021712165379327922,0.033317433377981515,-0.07060821738490725,0.002270253551792542],[-0.005339630523900893,0.02202684356281201,0.03739092623397104,0.05829956959343999,-0.035953295934506024,-0.08438451417544714,-0.03876712150422789,-0.014987611788188332,0.07579589021539287,-0.0020186532168063875],[0.0196209571819584,0.0866705125812007,0.03650537429085607,0.08508482946699975,0.0660938364048507,-0.041357688137556955,0.04214753847508293,0.08594936675474599,-0.0797899477341966,0.07589530176281553],[-0.04752176671110176,-0.05264256180207044,-0.01929160377849032,0.015195175276112888,0.08477264304638879,-0.07566579837061896,-0.02098793269518423,0.0160938841261329,0.013587475609549357,0.060522436041300975],[-0.04452065565959334,-0.08483759288885469,-0.07885328910862356,-0.0480095922643248,-0.01860692069393792,0.04985242415099017,0.008850839054376267,-0.0681408343456998,-0.08486663164880272,0.012215960498735356],[0.02684632356148263,-0.08459894068557487,0.08690298834232699,0.007161200641681104,0.06747597934204752,0.052250626846822135,-0.04629561961642933,0.0845540890796819,0.03902762993764977,-0.07408831308071565],[0.08281425127282757,0.00020129750769040666,0.03456024743562798,0.0313478405614159,0.03342387866569296,0.04071176227463488,0.03339212030245858,-0.033163434679440086,0.006592818304036352,0.03515782168121727],[0.025737842359943086,0.06294856034437013,0.07842582365800757,-0.05785208802211626,-0.01236142687457717,0.06873050814733656,0.027618325580857694,-0.012560233404011634,-0.06792676704981683,-0.01476940589915822],[-0.056387615971875485,-0.04693782488256907,0.002763162470254446,-0.03189089566397045,0.050926516306179004,-0.003533610396184883,-0.046901126967293,-0.0023360691131117384,-0.08443698079602423,-0.04740445216200752],[0.026666115068258306,0.0457856602055024,0.07454412670425328,-0.005101956883108993,-0.02139906247934084,0.05585967565975383,-0.06515603249668782,-0.020914736302245857,0.0436204738374453,0.0035349764372199083],[0.07083396308401035,0.06057536545303299,-0.021515892027500927,-0.034977139257728496,0.07832414945932867,-0.08215169102469218,-0.046778102281219903,-0.07220819571047556,-0.0421718794928547,0.08634106444391287],[0.06331023971160962,0.041092980817443614,0.0484017736206816,-0.06683398512530148,-0.05339340949899862,0.012573111828830003,0.04141659383991153,0.015387229839728428,0.0423937497080282,-0.01803362459237179],[-0.032320057778976154,0.035962610845812815,-0.05356029959303218,-0.046968483288060185,0.043387550086075255,-0.004466024676116995,-0.01829780172830607,-0.05592932502587576,0.0014081263632714086,-0.0549699623068197],[-0.028010811458192626,0.02044771579612928,-0.08247396306596076,0.002507507738866238,-0.005485425105452316,0.02914412447321446,0.027731952707123447,-0.04297759105924637,0.06509023023680446,-0.011826613827783133],[-0.0802009726616286,0.011825544989456066,0.06471365120525832,0.008618111862555511,-0.07884479293819956,-0.03012357658450747,0.03179148126475208,0.05418282814662656,0.08556657971192402,-0.05080256428907095],[0.015580821350580476,-0.04439051539214672,-0.0739639013537195,0.021905033349377045,-0.03915531003007681,0.013287640141790819,0.08504845201016875,0.055793919282893095,0.08306784061979489,0.0541921667244564],[0.05814608201188634,0.07552416974759885,0.0077851501640188725,0.042864876381642075,-0.031234128789637036,0.03782522236367766,-0.030273584266677533,0.024078415914844303,0.046315986979476365,0.03590176234652949],[-0.07447197560697358,-0.007278218318538046,0.003604765532786422,-0.07641306062184028,-0.02641837427210235,0.08558534022997505,-0.060524673284615596,-0.05825726175453986,0.019009666625763144,0.0017233091582206234],[-0.03421049813956399,0.030446460299895714,0.020972344999100154,0.04177372722854328,-0.0054760563873156864,0.040691159585519804,0.049328970800713495,-0.022270496014524688,0.08066700294683099,-0.005728170133603452],[-0.005971856532321712,0.027672567691555322,-0.08626038536860607,0.07320817986084141,0.059024704627197305,0.0441355093965449,-0.048292248130725635,0.046569581402296584,0.007408124879597799,-0.01932169363026079],[0.006345147359537076,-0.05544523636524465,-0.02113312788132861,0.05612537779178753,0.04516525617683148,-0.07269943728317688,-0.037964470348650844,0.08406665966793025,-0.05723707285386523,-0.061458999200911676],[-0.08215024817161795,-0.02538180613445406,-0.08223097851408959,0.005843377973360903,0.036891829489127545,0.07980530765141014,-0.009837667112996759,-0.08088198261098142,0.024838008922694804,-0.08626874432502014],[-0.07850963018077563,-0.051743841275109295,-0.052139993357834646,0.03726554886216871,-0.026204922178468072,0.050166941652051406,0.019681719551779872,0.0699773022679708,0.07457464394944516,0.05732353149955846],[-0.06667435328508625,-0.06980780391713967,0.030598919248341155,0.08271216110466681,-0.01093965871142838,0.07810346597469583,0.04500987129222589,0.08568330749227226,0.0009599060953616595,-0.05627094514553481],[-0.022770132545000862,0.016673469186221146,-0.011150065361945585,-0.07657478555102248,-0.06917804858648872,0.06148529596875854,0.08681494507792617,-0.05962359717284349,0.0034507368450738263,0.01566819063084883],[-0.028929817039814898,0.01946303942167038,0.02955758319212186,-0.012586592008412056,-0.013101390536731969,0.05976274998177669,-0.044536474239216466,0.0285736204571507,-0.07407387610295342,-0.028485437218647866],[-0.02313243486649992,0.04045723423627229,-0.024798612291308836,0.07462074550784822,0.015080929040838562,0.08183947323747692,-0.05697758338641036,-0.07065099787792793,0.08145446497731068,-0.016912310152410376],[0.007008496951267457,-0.00659893959074237,-0.07454021894732826,-0.03396958510047232,0.0757597338108209,0.033947466552631034,-0.036977627952647196,-0.010689126324379364,0.02652903713305617,0.04017747876367775],[0.02395607655007756,0.06379821007627659,0.05879518245462434,-0.02939930273208747,-0.007667679263277258,-0.022502269915955664,0.05704370109832296,0.07609068232051117,0.07342097681345744,0.0038161550132247146],[-0.016798412976585866,0.05484570262519359,-0.046368858638397105,-0.029304821641189076,-0.06084792381768997,0.04207724439517577,0.03680625900291652,0.0770430545301656,-0.037871691518419376,0.008609407133376795],[0.0535691135803984,0.06028929649431353,-0.009991586475180197,0.08614355817078159,-0.06376281513145407,-0.061661976253414616,-0.011725281699636436,-0.04216535189541464,0.0012793180707197788,-0.04331458135296414],[-0.07136606112020794,0.056884450746280235,0.07149627219846616,-0.06441841858760697,0.06046252871988031,-0.03363176860449505,-0.019160272764707262,0.03417574883198299,0.01635572885105245,0.0069134543331508536],[-0.0407946711872399,-0.040921079477084156,-0.08373929509462912,0.006496838053806103,-0.013925546738966052,0.07491885055332323,-0.0803057330419258,-0.04375501502546936,0.0469711523309054,-0.004745318290708164],[0.08067115089424795,-0.05281587951272435,0.03665501885078619,-0.04304851828625433,0.005965545217942167,0.08011631338503283,-0.08665723521178144,-0.017729888522229828,0.03043536031225158,-0.0671326764568553],[0.015511269642443565,0.054516453558365596,-0.0065030287156153666,0.0043490191406042045,-0.050502896672814906,-0.01330848169021269,0.07134028841771073,0.0035178123654729665,0.049088158014145566,-0.02663055664720139],[-0.062468958572118996,-0.0695796314425833,-0.06215543915205405,0.06369353838516362,-0.05772915485309518,0.03578718867157722,-0.02751535771534131,-0.057063699360332204,-0.07295065484654521,-0.005651625697771598],[0.01708008415243631,-0.020127151436357987,0.07627065667574343,-0.011320195946060846,-0.006737502053912353,0.025360397635315807,0.012918212618006741,0.044838123895889787,0.00478075449751425,0.052536676098502016],[0.007948349693988735,0.04798404171810228,0.02875699194910597,-0.08003661966148426,0.0500599284138874,-0.07824179191744841,0.07315225280116405,-0.08129285501294808,0.029753228431525627,-0.08123820176717354],[0.04826385295653671,0.07517951130814501,0.0005823862387625139,0.08144506062706275,-0.06897943531683495,0.004753202614067392,0.030666528078160143,-0.05617244034033204,0.08130352756065895,-0.03525034106206474],[-0.05008762268661506,0.07184776545372626,0.05065089096499745,-0.0307213908853744,0.0358438967113025,-0.04448380263715534,-0.05036902024718853,0.007030389929026548,-0.054559185751408626,0.06606193715813188],[-0.055205664922397125,-0.07085204022308186,0.07215313760336772,0.07614713559354244,-0.07927606016295591,0.007704468491508756,0.05663300236955626,0.07012704027796357,0.05250881069024413,0.06732046553399354],[-0.067939056749449,0.0828029441698355,0.03342926190190397,0.06605118684124958,-0.0234203343715101,-0.023438978570097135,-0.0688294924151252,0.02526120317732955,0.061713053827059855,-0.05665734145494611],[-0.06763036801121494,0.03352743181596435,0.08555357504435404,0.01324877227216939,-0.07947222079788675,0.04802249427204555,-0.08435821577710913,-0.0026863898398523794,0.06238677713045318,0.037426201314259694],[-0.06862560031626896,-0.014200375648786095,0.041390247773605365,0.08290608656773499,0.0023069586913978812,-0.084243781000999,-0.008392990028572855,-0.05457379576623318,0.08684574958469815,0.006657511445229428],[0.025332798744603785,-0.02855782872630628,0.035348143262027884,-0.06806111276501496,-0.05032588646484687,0.04343580763050306,0.036207412127341576,-0.06421684150082121,0.023299244028267385,-0.027518569971566667],[-0.033133512369973896,0.02563185960969877,-0.06700362676868951,0.04813304684795952,-0.06749425653366115,-0.05704593125652372,-0.07273713724619867,0.05789365495277751,-0.04181700901991641,-0.07276543923877488],[-0.06540832045458424,-0.03825679622428819,-0.08148559115671739,-0.005010199149715663,-0.056948180348647806,0.025548452241175162,-0.037182346284843654,0.05790663714269839,-0.032696013087943746,-0.014643493157525292],[-0.05555073182032291,-0.05631175771657554,-0.04681888552702552,-0.03668775342557211,-0.002360848314436975,0.03542520331242417,-0.08267039193005153,-0.04094897107435896,0.04275919243965548,0.06538726029518346],[0.07522099215282338,0.038741716435141904,0.046548546539385754,-0.011650259623955772,0.025995824893838185,0.05096126873780149,-0.08507019777481835,-0.02728525551102845,0.07330883524586473,-0.03261617826390179],[0.004197976320207297,0.08464878291200328,0.08210080264221492,0.030306824653331288,-0.08075262118558298,-0.08072149088727887,-0.01092560210826532,-0.08065145003569157,-0.07537500695360705,0.019388850732481713],[-0.006410757492961744,-0.03884357541483914,0.03252416017509134,-0.06656635904120473,-0.04053429095680213,0.04918530294110454,-0.008232610159516707,-0.016566124831858,0.015341692894568257,-0.02766251086309219],[-0.0639459453279496,-0.012703977145155379,-0.04702284257715139,-0.02962093499564581,-0.04643109792805866,0.05805966942138985,-0.07969266387814414,0.0478127116448637,-0.0387220872041828,0.04366937478391045],[-0.023658820356432186,-0.03668278815726547,0.05153082262040104,-0.07705809820860449,-0.027871177159668532,-0.011081584408516781,0.03880718745751288,0.012983869988377833,-0.0772135734730705,0.03371838691947383],[-0.0019690080275494154,-0.017942730416864117,-0.044167647738078644,0.07318107577580168,-0.00006316274943646283,0.03855129224722012,0.04040883637867487,-0.08331235989814831,0.026472727613398694,-0.012850351282786457],[-0.04535114661622416,-0.030986748977940265,0.017765951444448022,0.03302945393685493,-0.05333509630057966,-0.026872239050106626,0.07055559132733735,-0.006272770548737025,0.001980713781400703,0.06584224645565678],[0.06362432646557653,-0.019501412367807378,0.020402725987780937,-0.02571290546281127,-0.0662575885364909,-0.026949684354883166,-0.01568796463966761,-0.06634517300729789,-0.046380233760663685,-0.02843762998726098],[0.03342799728764706,-0.028600290072292978,0.0826596730921027,-0.013236196580326182,0.019792255943386503,-0.06432643004543065,-0.027238132991204603,0.06280069059360893,0.02758034440397185,-0.04055953767483685],[0.058570359891988,-0.05427306852200201,-0.012079195959683639,-0.06924851957369679,-0.054003671227445996,-0.041436137356075535,-0.06781849031216804,0.006885542759296731,-0.05320694669096614,0.06086504267617343],[0.03325988878364852,-0.047947149952543636,-0.020996636225668358,-0.060192056703791096,0.08179427408888273,0.026124568711010265,0.019356452364659424,0.02112266912163506,-0.03715328214715646,-0.05860702051095096],[-0.041563928502413965,-0.0194388296714416,-0.0560362162598038,-0.07911654176873904,-0.010779109996068847,0.07856333793678738,-0.010069750883976908,-0.06380884991818786,-0.021098624998016957,0.08136594580453144],[0.045024815072143454,0.0031793261515540155,0.00024096435281990847,0.05496081391667618,-0.07443040551866165,-0.02440464102578349,0.08347101006887733,0.007217588960638788,0.01628188244676998,-0.017731755752721498],[0.06801973103982395,-0.07456576446667176,-0.060333291583573145,0.02377961900084387,-0.05686441388943457,-0.06769205139456029,0.013791307009778472,0.05883188466467759,-0.015889685728404254,-0.05406171895135341],[0.034774991451951925,0.015109181556028861,-0.07307030183712823,-0.08155769995820035,0.05522561736257112,0.06070280623275395,-0.004192733876362667,0.020225500643763175,0.07855638360248907,0.08295107768043486],[-0.0744548838465538,0.04649152774194859,-0.01633199796712817,-0.00350988111107714,0.04763872341689379,0.011720322437149114,-0.046803723681081974,0.047620933554265665,0.026511735171257753,0.0507377483536709],[-0.042577184503709765,-0.05179044471013728,0.0004921652480980587,0.015556279894564415,0.007934626212484003,0.014090475322254215,0.028281375904465264,0.008118564587427504,0.018990978703741612,0.054381039425737576],[0.08660980644259622,-0.05875052511193038,-0.00494392824080786,-0.08411530136930967,0.007469049914744216,-0.03259493062672013,0.05453449757263215,-0.047579065906735676,-0.056044187525700576,0.06963631397311495],[0.07994519072133968,-0.03644327328390984,-0.03060895010418771,-0.029529298189400865,0.02532630931268924,-0.06986400168621937,0.07677847707161717,0.08239370091982803,-0.030663240364130512,-0.06535286285066816],[-0.04132340019445788,-0.08226223385928734,-0.027292997639044178,0.04490947844782578,0.0545401717414121,-0.011792231924816071,-0.015391697588731781,-0.05402535776001196,-0.033794333674106676,0.0540633844647955],[-0.047197058440049296,0.016620105402415195,-0.07518540258569952,-0.040361902113346455,0.057117214658479215,-0.03195226250947627,0.05773637337429663,-0.0670420032296912,-0.0015716613566733734,-0.06671539260740572],[-0.07423951463977076,0.01864837563505195,0.06590715781866999,-0.004960650760070892,-0.023689987682292468,-0.014535900527397394,-0.06959474968218833,-0.07096585827758835,0.021279697158533784,-0.08476080054976984],[0.023941889453474488,0.02401922583149066,-0.007702820087214957,-0.038110163089156636,0.018558561295240014,-0.04864714481841326,-0.05888960295584132,0.031213768524461213,0.003374296272484076,0.030359233467486618],[-0.021904414387985488,-0.041334653252571,-0.046895669395715225,-0.010647664698552606,0.032645551221209546,0.027454987950136178,0.035498584135401384,-0.030625197422113386,-0.008891265116256236,0.00021894202778433014],[-0.0660796539036602,0.012143257208832678,0.0726074988024765,-0.08186740417123256,-0.010271169505067138,-0.07650895101043989,0.048474739626864854,-0.026351485975105123,0.02772547881065257,-0.046379013473216574],[0.0244798189611133,-0.06430760573805609,0.07449227040116052,0.064810211823536,-0.0416124499974161,-0.01039956663999611,0.052460261279015985,0.08377403299161795,-0.030892175905348047,0.054341909298800145],[0.007669368065625196,0.038581437148882236,0.06736143668917458,0.0862794331209761,-0.035079036411378946,-0.07802978419188518,-0.013690710294023897,0.05008187904760489,-0.02771178314058966,-0.04073726138350708],[0.054471386198822636,-0.02143183857007469,0.08306184603881339,0.06055317402132682,0.0397378351335147,-0.056086631204620624,0.07763001041938061,0.020475069502203153,-0.00856778552837649,-0.08173876186635445],[0.009816429205397215,0.02279702263508386,0.05909778949044822,-0.040808463804685835,-0.01690827152372619,0.07316655584730894,-0.02147139309385189,-0.031805023052548544,-0.04983402405250636,-0.03345628417400741],[-0.06595330369606374,0.048490061791577305,-0.04191771841749907,0.04798391754796985,-0.04016443847757295,-0.04664335144555697,0.05336636339569609,-0.014990574261694312,0.016775469569751525,0.009512428722540947],[-0.031800785022571686,-0.04046761123936766,0.010756195795673107,-0.04861873493848489,-0.00923195581186187,-0.0013315333577650218,0.07316101749997125,-0.058089921743150724,0.013006825327168306,-0.07432812670510444],[-0.036475541313389356,0.02565736923001201,-0.07403200503452295,0.05269951298676692,0.07501836941677914,0.08048660974993502,0.07944097037394429,-0.04678375284952808,-0.06273833964469352,-0.05393713065661005],[0.055324068617408545,-0.028891537909158327,-0.01542212215320865,-0.006270394138969085,-0.0652330176741358,-0.008186398528743713,0.07463489400517481,-0.061703205188805205,-0.03570150519976366,-0.001945907697926491],[0.0744419027718227,0.021665879522549156,-0.035510299236067834,-0.06354717082341846,0.035916813835760286,-0.02009787362520586,0.0625119760381348,0.07029269717862141,-0.017914463706574887,0.0626454916671505],[-0.08223935740296835,-0.022337278679599032,-0.0031676890087568438,0.011174458168164189,-0.03760948081338327,0.056337716654738246,0.004590366002444904,-0.06269578015519647,-0.019961455639216474,-0.05807101130046817],[-0.039702968178136754,0.00021922097049870137,-0.013610767284917016,0.06323904948529366,0.057231423500927636,-0.013853830227899544,-0.046924850060252266,-0.014395109933644401,0.06988539555427142,0.040399480622941214],[-0.06491921177583002,-0.07794449167667669,0.04817546528584052,0.03848592961453831,0.04371507458926277,-0.08039622986845366,-0.032244895586514694,-0.009334369429444364,0.009646812883974426,-0.06352059730900045],[0.04952231015953479,-0.009475888936963328,-0.055224419164861434,0.03169266928782771,-0.021251139225533233,-0.03711862371130421,0.04193313816332539,0.011607758812553895,-0.045495765625692415,0.012482478277516793],[0.04795004577519055,0.07002708937771157,-0.04085487919623864,0.08340260252864617,-0.022771235107424737,0.03237623893264713,0.03587716306161942,-0.07351991995462424,-0.006984467822016879,0.016564561528348135],[0.019948660054595307,0.04929091711628375,0.06916508217103579,-0.0026105588142954633,-0.05966498831690753,0.02840729397366336,0.04354375915945252,-0.06467328660315363,0.003692429135623676,0.07590341305816839],[0.06681646270948327,-0.05292841979059202,0.04271272360259418,-0.02086106162036354,-0.07884888661089096,0.03652347975282064,-0.06217317881027562,-0.032806699554924997,0.0683115071538857,-0.035706214932794786],[0.0542120450545972,-0.07080502875695893,0.0850617841448695,-0.023313245531260324,-0.07344665156480208,0.03337289550860997,-0.03111019104621473,-0.043213493711184006,0.045205987550097054,-0.05891613954772246],[0.0541873701387206,0.07307669081603338,-0.06861881808508187,-0.01528967058650045,0.06832904329317449,0.006014306718560333,0.05231247646942544,0.07080784731622863,0.010977260212687023,-0.04638813108259715],[-0.02129889540896908,-0.048828713880599325,-0.05506780424702421,-0.01826241725837055,-0.04377052798162734,0.0018465337485103345,-0.05445510570480561,-0.027264235544093657,0.027696540880507478,0.0775170688302673],[-0.04243233529075365,0.08066933878045779,-0.07521779857857293,-0.00640457014790187,0.02236933376841181,-0.08166980626567225,-0.07830354105856109,0.04682586077059367,0.06254777185620544,-0.08222297752130583],[0.08003302098900492,-0.02056837174208319,0.07648508956952979,-0.06136526977557666,-0.0103184199608614,0.07965050662925188,0.046257476887023447,-0.026927503970026558,0.05126317825659721,-0.023063885684798585],[0.08411321274017505,-0.02952269508126698,-0.03154975173805207,0.012103688338236385,0.012694204892703023,-0.028617756444432763,-0.06444928171461524,0.011001317386994836,-0.07357467885584296,-0.08575630338930117],[-0.0400238153845764,-0.06131494884566231,0.04785558288875277,-0.041874174110541146,-0.023086766205796305,0.023372737935901444,0.057430693858311316,0.013177301300534947,-0.045728165007782255,0.03714681681183714],[0.017218213978866415,0.04019865918314125,-0.06725242123763221,-0.05762847621335901,-0.03057249722378852,0.07060037373209799,-0.035938205761196634,0.020305679003467414,0.080470252735696,0.07789673470905042],[0.010386764728885237,-0.05643892302340449,0.08365519141650951,0.07317062839727567,0.08641000090078813,0.026278412398464707,0.0665194195569574,0.012538022446233324,-0.004836624819595806,0.0007229093014416432],[-0.01519509713847371,0.02191805745928145,0.07223196893509914,0.08038733700825546,-0.005996858358466944,0.027507603375638137,-0.054922397554828174,-0.007847992993716857,0.07635036445424431,0.06278744887032162],[-0.04009957514516101,-0.080308411551764,-0.066764412817379,-0.039855149979150704,-0.02248077082649952,-0.07723458487462595,0.01948502180434855,0.05598925548281533,0.0451816044279906,0.0714993308038005],[-0.044027010830657555,-0.013672993788073726,0.08157572199520113,-0.0388922503752116,0.07394600681536576,0.02235482893837404,0.06502515662064107,-0.000335902649939962,0.057205732973753226,0.08313978769063532],[0.06227865190200085,-0.06930111489692986,-0.01300411898927166,0.010536353924973207,0.010971933605410406,0.03823929454566216,-0.04266944153951564,0.03580634084044884,0.05757038489761407,0.08334195485312534],[-0.06703393169050174,0.007214122074609766,0.03013221565169416,0.0011953348140778808,0.07981023421930164,-0.007331552763681082,0.047011717418424775,0.00041290534789818756,0.022446429682356342,-0.04920237004652881],[0.011553649172760028,0.03281112996442724,0.0007439784215147183,-0.0832059107099982,0.04056650343144616,