[{"b":[[0.023597879604469532,-0.03893578926391989,0.025365320569818522,0.022200836795721726,-0.01954003109013605,-0.016936972888478775,0.012711937189925995,-0.015855757637738874,0.033972009156960276,0.013456258771804805,-0.032206757262436984,-0.004489351408464125,0.004188215081862334,-0.02915018635614232,0.001399983357771133,0.017994908442112486,-0.05941871775979429,0.0026587609442057713,-0.024607667333602215,-0.01756952954343055,0.034443636704916625,-0.015475581904886472,-0.054024882784878776,-0.037605661331379596,0.029530437860917098,0.052858029236436246,0.027056891982908796,0.003208311076343928,-0.0012063759881230489,0.04161620811739982,-0.011641637729323414,0.00924476333693586,-0.004021122994810885,0.018478122898892585,0.020073718256895075,-0.00228772000378594,-0.01696411938282928,0.04197111904736406,-0.0009437555907836439,-0.009667104871533546,0.04527596120190695,0.030989193058903776,-0.040327717963512186,-0.0007772777629209812,0.058560187267931454,0.01713883890677895,0.01767738988022548,-0.02698023610925244,-0.028525350659979885,0.052420309634543624,-0.0198124921810716,0.039501946806421835,0.009899653413834444,0.0012103989627073142,-0.014542036401080503,0.011973685008653197,-0.007564622839540812,0.008020980797794935,-0.028766365426466396,0.013902658217800085,-0.0069601006531885895,0.001026210861311895,0.038480220743051456,-0.04086736875734297,-0.047402978788115446,0.03339572238969645,-0.06510724359083128,-0.049928510479552046,-0.046510480262010816,-0.02605736657629579,0.01571076631128026,-0.0019580537662975918,-0.021280817164844736,0.016211529579192394,-0.037237419348477845,-0.06304490772896529,0.0030099024284606342,-0.01448779009885864,-0.005683297289957671,-0.019769310131351456,-0.06946777586948831,-0.010170256410560512,-0.02025210472749394,-0.03598601158655448,0.03239587637125707,-0.0053207187557131426,0.016797728867872865,-0.01118690219852622,0.0028663459077026706,-0.035422918949576,0.03411954048891143,-0.03245831917485161,-0.04261250632214457,-0.04471622072252558,-0.06184912482644473,-0.058992550986900934,-0.07112831211356786,-0.04155058206594308,-0.034070473033272604,-0.06799839979876227,-0.03636791511350411,-0.11862187577746916,-0.027868416890781005,-0.11965261794252348,-0.05457646746940814,-0.05661062169648909,0.01637830795147732,-0.006588065000350476,-0.03363965824828753,0.015909989504714794,-0.014661294116825619,0.011476017088542345,-0.0428809435698347,0.01879967632223206,-0.03518520023603754,-0.02774835182448156,0.025199053645245065,0.034016585265604214,0.05996590069316135,-0.01726855840398719,-0.012931029410187695,-0.04819054416865768,-0.07683915307275024,-0.11052484031569712,-0.10298326565460812,-0.08238980404023535,-0.09416741625896372,-0.07945207984706404,-0.0648273497793628,-0.06698475236967998,-0.015732647723595762,-0.04079294879555971,-0.001986642947561045,-0.02077771727462349,-0.03965260779223843,-0.04741675227144095,0.006636230239514531,-0.034642332395924645,-0.01506898165798504,-0.012948849505513966,-0.012125851172895115,0.02361799932648266,-0.007543878050402078,0.04805511784330965,0.012385084232534826,-0.047293679903956595,-0.020866987201956445,-0.012290799348289479,-0.1251716713767968,-0.06996417422866497,-0.06575062541223281,-0.16869110325819217,-0.10147310753219851,-0.18977500575901954,-0.14332891088464453,-0.1682847522544434,-0.24003858596833264,-0.1364094690067479,-0.051897756788433745,-0.10920853115460954,-0.07796211824675045,-0.05151475375502216,0.026888800185289018,0.029225186078494884,-0.039020031390946314,-0.016509863556930036,0.009341824271298168,0.01624866591730816,-0.015673646777517418,0.012620461871469386,-0.002996056663495118,-0.015450896289790858,-0.0017448461770784595,0.0043904339220068225,-0.06858881387388173,-0.05328327597461602,-0.08009134678040701,-0.09218843193355351,-0.13087481080351196,-0.12213761025445043,-0.19293709474721413,-0.20825984036956832,-0.28340448495244874,-0.2763100421513237,-0.20753100990239218,-0.1410232466780824,-0.15500187185643646,-0.10932186653137654,-0.032243439368869885,-0.07948234304208521,-0.022570903343324615,-0.09992285952881096,0.02684965655949698,0.051201112125673465,0.0003042127067930195,-0.006922711634296318,0.003606647793829096,-0.01703148621928672,0.002724788017831061,-0.0101116654075057,0.03623721060603338,-0.11075736915925502,-0.052827006082671095,-0.1094733536198825,-0.08163675763420515,-0.11129585139978311,-0.10910622607825762,-0.1017747845430587,-0.15871489994615753,-0.2658889448616452,-0.22750531839885157,-0.3157815631923463,-0.2706940523552139,-0.15396462521282403,-0.12464638651862672,-0.07628070783247425,-0.10812736111898542,-0.06634828272688752,-0.0278318200564246,-0.07207674368780916,-0.009353732577830485,0.022012862751382967,0.05486501686530477,0.011631434028340966,0.014508432371589611,0.052637757168673756,-0.011527898190503042,-0.042077510036741456,0.013197703765518376,-0.06308306340393628,-0.11049509239596496,-0.04080463951499972,-0.08285645698717606,-0.04912864184843479,-0.12064288684341819,-0.09241616694180885,-0.17097004520366585,-0.18529532782870184,-0.15317759188094554,-0.303685928504977,-0.16090503664453767,-0.14088534182810436,-0.11654597413924962,-0.15632521665007215,-0.09242056189130239,-0.12670738556623193,-0.008827536094461606,-0.08125134598099232,-0.0644798481294654,0.015398902846823976,-0.0012592302996271005,-0.022941933511797172,-0.01617798050620848,0.0414756867633242,-0.007004793676636092,-0.017147883881601995,0.012944107375319728,-0.06508720372747878,0.014261431364675899,-0.041280219119880286,-0.10408559661417252,-0.12961781592758814,-0.14506580260564844,-0.13858286813466986,-0.1294094071512429,-0.11000499911395989,-0.1935655894007562,-0.22594311970862252,-0.2253598219889905,-0.21717802659249838,-0.16880669193993664,-0.20507268720645178,-0.17065561107455557,-0.14259158903477606,-0.1258483741757063,-0.06889996212356524,-0.0748853078724892,-0.032069080412154644,0.019294883366773347,-0.03676116560291001,-0.038188807354409965,0.01602002372866853,0.014356304467267761,0.043938929002344355,0.03287896156291468,-0.08833835778783948,-0.05850036738900587,-0.10283700413168455,-0.10279824455250626,-0.15908950422853171,-0.18881645712547457,-0.16686913807077136,-0.16457772061568404,-0.10700442443715596,-0.10949371935191346,-0.1670840649919251,-0.1548305464946811,-0.18624714429526143,-0.2660264910329664,-0.24979153712044744,-0.24966719315198793,-0.15900490411193122,-0.09930099115386992,-0.06577569814071323,-0.07953874928789341,0.020760273269912134,0.032027947889131464,0.025773174454151646,-0.010285729617099643,-0.04067863592117894,0.05895342441865405,-0.006482602888570951,-0.022681265766716613,-0.016369775197760682,-0.10155667154836098,-0.14905305022070348,-0.2359844520964844,-0.19091071835617965,-0.14913731902937305,-0.21894131968729985,-0.23036650516362409,-0.1230714271456237,-0.17659455562884951,-0.15222220707062725,-0.19535290443590375,-0.19953952554037419,-0.25890365515883,-0.16665881993194326,-0.28326591846807647,-0.2810251953672405,-0.2743984164257697,-0.1933241307839642,-0.10669260010743833,-0.05541870867686768,-0.005907147687493743,0.009018746740729831,0.022530674594819656,-0.05822282839067522,0.024896319060926365,0.011943365464286634,0.04033729510986742,-0.06091977654172318,-0.16645236483909295,-0.19797362185124728,-0.15589057777521878,-0.2315807137972286,-0.2238402599163359,-0.2008270237392218,-0.35200379041806196,-0.2624637978338147,-0.23949322117860042,-0.2746754104706781,-0.21828066810402494,-0.26586317458726555,-0.2742675082668594,-0.2073005954380586,-0.2110096815292754,-0.19648645158925132,-0.24226694352603212,-0.2238665245940532,-0.06121386336217867,-0.024476864223114958,0.0048685658746461585,0.010203215083313554,-0.009594475331513443,0.007120662611458118,0.038571394063781586,0.0008321017012743429,-0.012324619363881687,-0.12098084354261035,-0.1799119715225722,-0.19323997075623475,-0.2149112362650182,-0.16652330233173906,-0.1781260727030563,-0.31286994437102383,-0.3048225151334792,-0.357962916794473,-0.24095636600616632,-0.1900227096740082,-0.2061030146629615,-0.20208775041432678,-0.20062387382167288,-0.16918774404541684,-0.1433392871825339,-0.09985091138740156,-0.15016458526116733,-0.23563194732042933,-0.048805609691470665,0.0301061564390998,-0.021666775547173153,0.011083932900117282,-0.05387074220998255,-0.016037203872019547,0.04576021097469105,0.023983725390148758,-0.02790274540403153,-0.033835173077265135,-0.10139954364432045,-0.15288338131470566,-0.06834371726703187,-0.13744596285785174,-0.2632478220017988,-0.272907105390051,-0.2836629746991168,-0.2893849414848728,-0.24871777201405865,-0.19555769787733773,-0.28846602191688614,-0.27287160756191803,-0.1898846782053197,-0.1287412281159711,-0.07430466677937587,-0.064758712762428,-0.07971171223417967,-0.14760030032383714,-0.07273302491251503,0.029234427572772396,0.01507760896446946,-0.0006025769645292428,-0.025774472378179047,-0.028636518020126123,-0.05209516103798625,0.04019753090114503,0.0004915799057685338,-0.06423303253278066,-0.15547277735809378,-0.15627254583791794,-0.08022043080972688,-0.16132678985380286,-0.1691691642276391,-0.2243549667967021,-0.21252682644326307,-0.15769417026468455,-0.24825892329040694,-0.2521517881222785,-0.16101042524578044,-0.19620523430372408,-0.20814955021600168,-0.08741736618723857,-0.0669410852158842,-0.06221081381785724,-0.09331669266033263,-0.024530771307415218,0.047391680568131665,-0.04982754463531469,0.00019006575843079663,-0.00965526782784442,0.0214378236667122,-0.014825670981687966,-0.01502575310455347,0.019626741691308798,-0.015750477450062278,-0.05812191880551602,-0.14105545169691308,-0.1090080240703984,-0.17703152860471513,-0.14872207371765842,-0.24446124019190515,-0.2096342268532571,-0.2268231238752847,-0.2477966779965317,-0.2119952011451311,-0.22031260718737025,-0.17026467641292153,-0.1776303951133426,-0.13605190808015208,-0.06474909306576002,-0.12496169430591746,-0.0815364769916725,-0.08937237822699319,-0.00024888432195054044,-0.08141350339494532,-0.01867241634910483,-0.014977656023104689,-0.040673263953658306,0.011670098649794652,0.0025938941133667494,-0.03957220033833155,0.005775156685130951,-0.03283752977852085,-0.08697982885722906,-0.0213865737275667,-0.1882654678397457,-0.15797420965087758,-0.2579901593297852,-0.2784002020093014,-0.243480027573309,-0.23754427408202225,-0.29585841757935355,-0.10511899070517522,-0.21524066602286365,-0.18691913205615515,-0.13851509669895556,-0.08693213073755929,-0.07410154455172008,-0.09675708958924288,-0.05259164118756309,-0.04896912773580747,-0.01424573110006375,-0.012686251227719986,0.01847895307089081,-0.03963370895844649,0.021082069914736372,0.05859097952368999,-0.04806200848962851,0.013068346683255804,-0.03316555165056057,-0.04030225203607457,-0.07832771041657681,-0.08229131372310981,-0.2068301286421349,-0.17675813527115808,-0.22034943058946263,-0.34754724004232185,-0.25912940938708234,-0.1993575388406779,-0.15033625201377185,-0.10165591681132201,-0.08314753567588408,-0.15704348556002357,-0.11672682500661935,-0.12036213508935519,-0.07362944772081649,-0.0809203976712265,-0.03230734215727266,-0.014293378982185526,-0.06981120473029939,0.0024897594634077586,-0.020523666101185452,-0.021528377034309945,-0.013959980440975076,-0.00339233149778579,0.00241263866880497,-0.06871501888232295,-0.04053141105840217,-0.06461737994016632,-0.06720169230393971,-0.09441103076481867,-0.08678506553256807,-0.17576278633992196,-0.1645061586611365,-0.2742150371896905,-0.19335355631579118,-0.1271640146863542,-0.0699635882548486,-0.07732677458364587,-0.06078702921557785,-0.16844150403981745,-0.1290694932185092,-0.14651625378444907,-0.12723705538119942,-0.19231583037199054,-0.12680662211525978,-0.05282508030027333,-0.06372296080350424,-0.07988317461614845,-0.025253644303050604,-0.00013620007164373516,0.009673352557077991,-0.004061888830179188,0.041400303132136794,0.028233071725822283,-0.01633938787958836,-0.047904864267115384,-0.10493820119793025,-0.12610560783842018,-0.08813764353013455,-0.1359828316105328,-0.1516074118368106,-0.22778700798552504,-0.178430095142839,-0.1293947401049975,-0.0799173601056765,-0.11493736317309146,-0.13216946411251332,-0.16656202996332495,-0.15544836732840275,-0.17959295015760066,-0.12799841605009135,-0.11933334569973233,-0.05266636764348095,-0.05858598295265436,-0.06117016499838009,-0.03696973507014864,-0.01956339362336246,-0.020763590996960738,-0.006590210933050794,0.010437491042258632,-0.03272190462121046,-0.07641716608778976,-0.037334087601111995,-0.06253149761885643,-0.0391713274490791,-0.06392476681702156,-0.08537185216125791,-0.061456900270494476,-0.14203058791233883,-0.1597509683733013,-0.05251644105609912,-0.09677957469453603,-0.11801971857280551,-0.1329877801875275,-0.12260050011344316,-0.10003699816958665,-0.10874856636197958,-0.1261358469897596,-0.07577763873068302,-0.06953243828956411,-0.05952670716213075,-0.0268283940726632,-0.005643193213087127,0.027723956639288935,0.03140244584630476,0.075535318469933,-0.0016344735239130007,-0.02935195454673638,-0.021781506189336757,-0.021496146846535467,0.019212893169652506,0.0028787765118319826,-0.11448273193433985,-0.1024255523314491,-0.12401163101667889,-0.07022702940301018,-0.09123920081399034,-0.10066046085998615,-0.14233556890147986,-0.13177489028237951,-0.13842361260423944,-0.08597577619310773,-0.11012532277632026,-0.0667182702158239,-0.09749301739715621,-0.08353301784835002,-0.09805810224320356,-0.10667280163106722,-0.04106664674350073,-0.06490552829025129,-0.043139742187022614,-0.000125925080994755,0.03785731158831756,-0.033221687891674005,-0.009452150078683701,-0.035164802857961475,-0.0168632956914023,0.0059566748265439465,-0.030259798500930774,0.019193915904693673,-0.04348954296591202,-0.10072262809769626,-0.025201253964369293,-0.07906282863141086,-0.07891415169423334,-0.06130538396431911,-0.1288344722955479,-0.20346297216484388,-0.25964747790771403,-0.232965165378855,-0.13499480882664378,-0.10064430323069114,-0.06046608526697624,-0.11911415908596613,-0.0507152861299784,-0.05344154149729701,-0.005362954973638498,-0.03844087432886804,-0.004328400268755177,-0.045271376237941294,-0.038726741882678925,-0.004093618486215328,-0.05820499274716546,0.01629698521296752,0.016293313333129805,-0.011084041050316358,0.03463260439707824,-0.006310076333299022,0.025363956670045408,-0.019359472362373842,-0.04410925779238022,-0.04700160308095778,-0.11208955257307719,-0.09957196465637103,-0.13665102462424072,-0.12820633329322004,-0.1013132836663407,-0.04518160778171107,-0.057999808147147544,-0.1230867663349652,-0.025854677243039824,-0.06300669656047839,-0.023482689103445916,-0.0024336226706667225,-0.07124250043915564,0.021634205208590208,-0.039320609803546236,-0.0033664943156982894,0.05396924757677422,-0.0037509234402607885,-0.047810087389263206,-0.03228197958242891,0.04265812100848502,-0.04791949814383187,-0.036441778030325805,0.0401819571379692,-0.006138519490429997,0.040423505268149335,-0.028631520128048375,-0.034436572708038314,-0.0590540105135677,-0.019378089429250775,-0.05160252694241235,-0.06598648615860073,-0.06315534357436145,-0.0670382710324794,-0.03190371478497144,-0.08419538780650175,-0.03781167087316516,-0.047071633663304156,-0.08061254007383523,-0.000712825060513417,-0.06568692938480133,-0.0037069229954006617,-0.036487471819205496,-0.01737319787245449,-0.017718587246324042,-0.025426474889463542,0.013685359810233631,0.05048133645694794,0.0014631693473033764,-0.02252935835808046,0.020972611977516275,-0.015115203888920976,0.01147451439608105,0.018006728172861516,0.03135571596379669,0.017669252339759113,0.018160254709903678,-0.04415808132036532,0.010786911715438033,-0.002325296868686601,-0.07696200718719638,-0.02320952270679733,-0.02249267772676169,-0.03832186628799531,0.01743357471968303,-0.013774312369144056,-0.003652479567737243,-0.00898624263772744,-0.03821520708471806,-0.027505605230837313,-0.022074991545148498,-0.014579409705681305,0.013226148312214553,-0.009755426621132936,-0.021343723562579645,-0.002467560591080575,-0.007793244285896437,-0.04405986044076948,-0.005504549747667442,0.06499978247275758,-0.0027473037646369844,-0.057823076571266646,-0.02388189340914954,0.03227577106464647,0.011656771226898312,-0.026468745079708124,-0.006969226498479277,0.011098642077444047,0.039021993085040695,-0.00980646998598888,0.021803338128997624,-0.004253725554942529,-0.03438142165922518,0.052372133010531174,-0.045460520096687225,-0.0004893011911300975,0.020010952903827366,0.014488237785234373,-0.051784490108184554,-0.025989704029131547,0.022403783785957428,-0.025137128323426284,0.023445114873656726]]},{"b":[[-0.07902612253366445,0.28721265080477704,-0.05437700600194836,-0.06630561121108061,-0.033354796896876635,0.4042004715445315,-0.07396541711456729,0.14486146542115935,-0.3748656088591233,-0.15438002515320715]],"w":[[0.014278190045148709,0.05099978586404813,-0.07461030356462313,-0.05588687786613545,-0.023530760114352123,0.05048985080569158,0.07540635282225945,-0.020655139643676018,0.006897202991576805,-0.009289144901804634],[0.04258413651802105,-0.03422955371941047,0.01792726625981944,0.03828911286512299,-0.05917974075714308,-0.06480331459262464,0.03023739010419268,-0.0028255993633819307,0.003930401777891806,0.06579372761313919],[0.002446272598808577,-0.013994045012966815,-0.0189182117842099,0.07916801853414861,-0.06171497653302314,0.05828237914354688,-0.04597146835740681,-0.0653095310145143,-0.01287246355583453,-0.08606604210622214],[-0.07206961496265141,0.07688440963927733,-0.05244875484523319,0.026773061781182952,-0.010469038730620436,-0.03879058335548612,-0.04144478426801343,0.05260012491312935,-0.0022202991661505185,-0.07004280481607102],[-0.038921945390801536,0.0613325327743312,0.040933803806110614,0.029033249371293483,0.046386141607447536,-0.07696566324902916,-0.05303960022804929,0.05848097898508468,0.033801546152731954,0.013338182630690608],[-0.010015143234034393,-0.07071221717320372,-0.07077945521702682,-0.05006015101404512,-0.03777816994246848,-0.0632813082716652,-0.04365549679621528,0.03253596282579063,-0.016566554895643595,0.009916031236211407],[0.07965816558990983,-0.06895709013797799,-0.07184456976627261,-0.017345270072319008,0.0746749080597343,0.04817335140613718,0.004351620378209281,0.03724224544522242,-0.023278108110484298,-0.015613685835260249],[-0.07850154042675328,0.05159501324854576,-0.025468710931183264,-0.057621235783488246,-0.02997297574585648,-0.04298766209503852,-0.017115695085406685,-0.06608083484736965,0.025039217930014075,0.03662611371491259],[0.06143151367715993,0.022432150135852584,-0.04198469715996685,-0.06787971579979613,0.07429836729976913,-0.005093913681183789,-0.01521480893139933,0.005364528771084922,-0.08748866395180278,-0.054949806605378224],[0.04132968419499555,-0.06398860159528051,0.0722052805714448,-0.06618212277735074,-0.0021588441509108594,0.027151429279765025,-0.0543299851916249,0.030419799005018032,-0.02032850565586014,-0.0449666323042862],[-0.041714520387279685,0.061101713525227974,-0.0331991338789609,-0.052232512582578654,0.030807143254934763,-0.08236041400374078,0.013160169473324657,0.0376788548584085,0.04648004122643719,0.08140624583985918],[0.05358316056071446,-0.061121366643084415,0.0765993709137256,0.013745726340646008,0.0028104440499487912,-0.0333572785500586,-0.05707475719927627,0.07643333291213791,-0.06751153034572725,0.08185174805500374],[0.015072740251646287,0.07614861046722296,0.05490772726739491,0.05599020315417193,0.0045615692207596195,-0.05602213555556614,0.014252890140393748,0.061189641622292235,-0.005187355497057732,-0.049209690417137644],[-0.0012231062922177423,0.017547788870615883,-0.04470333453249072,-0.05625443597182137,-0.017084344282618798,-0.07175082724862322,-0.05250995646780447,-0.05337646586118433,0.06250399896545704,-0.07941785035269805],[0.06537386475787502,0.06089798257445671,-0.02712238691623947,0.0694920354343996,-0.022132486787761394,0.06129719860195791,0.04300407594145441,-0.027396152141877593,0.07464731534521256,-0.014514996515582712],[0.0630561063382928,-0.003547737109045177,-0.033830589781784916,-0.03083955900803738,-0.004661502209700237,0.01135058823392581,-0.0035012347770389573,-0.07166672285847117,-0.08275697797424589,0.012475714487538559],[0.015567024085196167,-0.08160754013590821,-0.001775336333490861,-0.04015660273005034,-0.054195135729050686,-0.08753811470212977,0.018251719237620433,-0.004208954970027363,0.06366864055145861,-0.007602822149510996],[-0.03152318755384353,0.0015152496598142772,0.010842220749761362,0.03817300441936996,-0.011093437015746225,0.031591117706735415,-0.06311369969887279,-0.059777093212180686,-0.01150322143254216,0.06679403922219276],[0.012501482370273478,-0.07247386527209358,-0.06980524853269268,-0.07649515035048869,0.06455415374508287,0.01408650250913745,0.07610739190171992,-0.04571547333578837,0.03390484451543564,-0.012259113685924009],[0.08420955770789051,0.04700657156348836,0.03169133743945384,0.06726140150512248,-0.047449015221300635,-0.016322797500025465,-0.04589694876356339,-0.04223707956959831,0.04398834062659425,-0.0032243835030477167],[-0.011655719824593775,0.008428003678073838,-0.005111747534168302,0.034842112954961584,-0.0432500563009098,0.07237339898084602,-0.020150906344106337,-0.07600849798727913,-0.04550277436722525,-0.01842419917154427],[0.025083257331260718,0.05028068182553967,-0.04455553280920443,0.06644980059914883,-0.06903835401349699,-0.0085827052480645,0.040551621624452736,0.027334730915826694,0.06872054335550132,0.030243625173423803],[0.02426619874721247,0.009495862296596777,0.04407425587982689,0.0853006347298572,0.04074746158517901,-0.06537803352587754,0.056826652030513645,0.07713595766444536,0.08844629692692624,0.055924323785757415],[0.057016318885246574,-0.07470007550282029,0.01915644064498179,0.0658128468423229,0.06068248886922957,0.011641818505645142,0.017453621466795518,-0.0730775926278907,0.048685137142777196,-0.03937212958228404],[-0.020496846267446467,0.02851744319116883,-0.0816384685261192,-0.028178577886868755,-0.06217668088479854,-0.00739047228262108,-0.04033284638407772,-0.031151407846433814,-0.07837961969445048,0.022995211852598514],[0.031319391267212164,-0.06747191495697821,0.015009029853960708,-0.07476481406673281,-0.019505700466795253,0.07791377747496574,0.057265123177101425,0.044938044062348546,-0.08860275484872086,-0.07265800784805873],[0.009483049292311349,0.07793542801178044,-0.05206530547020731,0.058051131626329563,0.04213857784064243,0.04867106215698586,-0.03065038058549509,0.07064898456471405,0.05349069749965157,-0.05392578209411958],[0.03966277091724715,-0.028703356022012065,0.05768556080116441,-0.0645741195561122,-0.0158410438870044,0.0063027189960709485,0.046000877136838376,0.06252663416923114,-0.0342060536784745,0.07667158360708946],[0.047584223412069075,-0.03185890787460248,-0.013372929473676744,-0.06453458164693161,-0.06687674459814,-0.04458669368015591,-0.02758428699714387,-0.016579759988544263,-0.022866064894404608,-0.07788006846460947],[0.019438434430587438,-0.019278342476588002,0.04171091408831287,-0.08038096457184307,-0.03677832852616959,0.05935611802198607,-0.03587377540341247,0.07709377342702799,-0.010003535782118616,-0.07949330772309815],[-0.0747075409329978,-0.07488760163411509,-0.022097298211723727,0.023684194074776857,0.032894819844343545,-0.012072385830779488,0.06518709671172099,0.07459020457539807,-0.027330383651759688,0.08577944494899277],[0.05566242941601452,0.050864510511206815,0.05989531479515459,-0.059818226301355235,0.03079675306033105,-0.06079031353510338,0.000012264332420788328,0.06259984708120056,-0.031975900320211734,-0.06048771243184694],[0.08452697009639772,-0.05305985134758368,-0.030218297908527102,0.03516390204156118,0.06092882421280738,0.05280822245314907,-0.07592583622858977,0.01696811068819321,0.06322009791178185,-0.07058854029658702],[0.04185279478744856,0.04158355505523602,-0.03255194441944401,0.03528680244916515,0.043717232170579,0.05619289044229961,-0.032741024218457884,-0.010374487907278828,-0.01473548267154092,0.07741459185325085],[-0.08228319566310437,0.0349034767228419,0.04540849012289434,-0.0005704625665161482,0.034143014163469036,0.06933463232065873,0.012961447055540804,0.025809458604888067,0.051199494248838795,-0.021429318625326023],[-0.007276356426757773,-0.07244333140882797,-0.004019921929748356,0.05422513425477688,-0.09637000274138245,0.054483645700249037,-0.03378804479688063,-0.03558973635580632,-0.0006648746822770236,0.0746164073520654],[0.046008178206236844,0.003926396553141359,-0.00007458277516264074,-0.06581448075519984,-0.073833004616701,-0.028699631394212163,-0.0002803696990841594,0.0040630701978268844,0.04866614711083995,-0.014818856245817545],[0.03213830944980592,0.04782103551171968,0.01978073146738398,0.05510209677771344,0.038066663169717026,0.08250778838943902,0.0588752110053021,0.08426089289253892,-0.03193202488532818,0.04826262365380698],[0.06563920287785562,0.04729561857544897,-0.036703999772744786,0.04514115414815538,-0.024950975464816297,-0.06191545102216073,0.03819855856346178,0.05287177542457382,-0.03380960880343156,0.011927323026523062],[0.03499687816780545,-0.012569788839901013,0.049010863767456635,0.04699246568883831,-0.04754128311979968,0.03631251409273983,0.007796632923094081,0.04536821704434338,0.04620212290554498,0.07860763576852174],[-0.04412745511657099,-0.05935399437655276,-0.05164292473463862,-0.06532803343102675,0.025730179433129753,0.08158583964043224,0.010036743184056294,0.08396940094851367,-0.04643606096981294,0.025232529844557722],[0.000370849056553203,0.05141735814717401,0.03578192262484447,0.025142807490929037,-0.005205722340697507,-0.02019669328706125,-0.043753772105280135,0.01685520053206143,-0.06170669798022979,-0.033764150788522095],[0.07280838233392731,0.020774723381049492,0.02669419552222312,0.03006612140893556,-0.03630571207032757,-0.07740246872083185,-0.04225206795988524,-0.08624876903413009,0.05347292241304954,-0.07878320522843979],[-0.04121652223528891,0.08543678826061317,-0.05094742211427238,-0.06295522484307718,0.013978282609767375,-0.0010654276240529895,0.061372712300154626,-0.06667643446799952,0.011837744930852524,0.04876546317728218],[-0.02927909527035121,0.02894649092202439,0.05002233876221665,-0.058367538626133905,-0.03706626820982666,0.07440599889773952,0.07116382360382231,0.04821537890515588,-0.08153820094964183,-0.0028650542211939647],[-0.08274284832277007,0.050489748361484205,-0.06854424905741424,0.05352909342200551,0.027593908412429098,-0.06045279925037965,-0.06080250568569953,0.01985347848511771,-0.0877731801890315,0.062439284357723834],[0.03662385110117986,0.015186059113066286,0.08299029949459366,0.025102426929838093,0.07247849020210631,0.047210315502361065,0.06570970910454228,0.00698813123057754,-0.05990300852760161,0.0648931565530746],[-0.03901472761029926,-0.004014249896992797,0.03597663966305714,-0.04415094420429771,-0.029311830205631415,-0.0360644996688361,0.08244450113094455,-0.004760803427345635,0.03213158739631017,0.029236205158141862],[-0.0765483284037087,-0.007055283001955262,-0.07724972807090344,0.06239049000013187,0.03916682654210208,-0.06052151683175837,-0.030172523952353376,0.00926692740889268,0.02231147280571587,0.051831440677484464],[-0.03922646768233121,-0.022237754079549105,0.05739126449007767,0.03303379061772817,-0.0745991748667869,0.07666341137536352,0.03234633504134692,0.08143921174160497,-0.07105219145034355,0.0010610983706782339],[-0.04434593626605016,0.04839156033223883,-0.07728226592696229,-0.018124146127674857,0.01017816873195859,-0.0762740503514475,0.0017145899643459625,-0.0339519888845862,0.003537559612025428,0.031922606041024024],[0.07893357481029438,0.0660173050940305,0.06578361090640818,-0.017488444388971548,-0.06150894777927725,0.015312403802901985,0.04767981720292063,0.08588926091105856,-0.0739901971993235,0.04125330420796492],[0.019310643208478154,0.05392168103436689,0.013405470330475434,0.026492486881881123,0.05485568225685847,0.06324202418416268,-0.06650561360048345,-0.032630176335226524,0.07649796256342553,-0.06993706591362592],[-0.07424873966263136,0.028710268140864,0.0011096152189823299,0.04741303010045859,-0.029931309649834942,-0.022989095070857227,-0.017590828539199792,0.008452945932701786,0.020163554059294448,-0.04456591687074577],[-0.03309639584815247,-0.07578578876571376,-0.0024742444238219988,-0.06917584959247765,0.043532201454152014,0.063919573171515,0.0398553088360897,-0.06946214949498461,0.048412794619616464,-0.005538608841698127],[0.006261647966308075,0.0638339699311927,0.023553705574101257,-0.07410175286147128,-0.07717006775615831,-0.055809550840029414,0.002542426792223932,-0.07331409876037308,-0.0603350897176852,-0.038677746487386304],[-0.06917587614006666,0.07840665069393801,-0.0357624607823613,-0.0765453085503379,0.04203205649584521,-0.03625300283714813,0.04623714868454069,0.03908041491314618,0.051988472938992156,0.011846897838118455],[0.07585589243546492,-0.035232618385144535,0.009815383585127468,-0.05941125483651822,-0.04866506452747006,0.02370510699730807,-0.06288018527416037,0.03424039297929403,-0.0020923616953641986,0.02060834198774662],[0.027123733186913558,-0.04660553566419116,0.0016826730942935272,-0.011977616694366307,0.0549639006158861,-0.0663113799366161,-0.06749040358103349,-0.0034062490436914125,-0.011359853386703752,0.014469594843972589],[0.05248531179479225,0.009708305103958325,-0.010803869285538018,0.04829927404621455,0.010422811809307143,0.021433844293511292,-0.06254513101207733,-0.07071440129452031,-0.031783698682520366,-0.046235728362822776],[0.04767496692259696,-0.07701235501579823,-0.055555647207206356,-0.016878158459395543,0.03699668830407353,-0.001231986368339661,0.07445692674037022,0.06746410637717845,-0.03384253077259708,0.05348670964005842],[-0.04734340484569336,0.025196833393715135,0.0661674756462315,-0.038165745771424064,-0.062361827382063216,-0.026025709796179654,-0.0034830102217924238,-0.030267324319999137,-0.003934319817624642,-0.026868825261560918],[0.04028694303838059,-0.02631036191898692,0.006344101774950332,-0.08253960022224269,0.0004200911758197568,0.08191746270045756,-0.059759410910181776,0.07580824986658129,-0.0012606310922421466,-0.008055636161043118],[0.010090499592394992,-0.07956815684456389,0.012311143416441739,-0.012455860536341195,-0.0721376701087815,-0.05020343393938606,0.01607617832213823,-0.03872422169186311,0.04836947027743214,-0.05815097164252903],[0.01908770098417509,-0.05614791505170411,-0.05680584224580345,0.05864274841038458,0.03858724521039886,-0.04356711531095047,0.04873635047701322,-0.07234530303170184,0.0651530867167144,-0.07101261678183649],[-0.009961242952982133,0.007415742646938639,0.05866004879537352,0.07135832530717151,-0.020023951437617624,0.00046615778861426333,0.022222179504480043,0.07974245750366395,-0.050118908969944365,-0.06736940206345379],[-0.01922549104076748,-0.052851151301116665,0.005350416040679686,0.011087111976762194,-0.13211314012264014,-0.0495100146563373,0.13866451190889473,-0.045704140428529466,0.08088048895645854,0.010542588117859433],[0.055948748005453346,0.013798030576180816,0.05850375557302758,-0.082638677787424,-0.16476045016592308,-0.06493282553408178,0.16763399540504154,-0.04766912849652407,0.04047311871144267,-0.003286341356331428],[0.06169744117385176,0.0274306818061166,-0.005552441357991362,0.009830861792736758,-0.10237004205224709,-0.04963009514217927,0.10599848970886039,-0.05677337605769384,0.06396691381860806,0.032067417972573065],[0.0010891227820202362,-0.0710843555314307,-0.037065064100974744,0.047628798363086776,-0.14519618462674358,-0.06649042769424265,0.06874102587223511,-0.035964852857188256,-0.024320917032951212,-0.05641471583047203],[0.02594367546109568,-0.017832241913889876,0.04967642620691113,-0.08119938981537689,-0.15062650858923424,0.05359132282601576,0.21157489241618146,0.0272416350199191,-0.06786080355656832,-0.02755075506998984],[0.00799259851566639,0.0012296577552943285,0.027524543945757016,-0.02098877094044862,-0.040619892331634204,0.00998722821310684,0.19653909204652215,0.03903260299853744,-0.0704175847978014,0.07522778389587845],[-0.046309200392923924,0.045417471315399596,-0.038443489541183755,-0.018994223536433565,-0.17115652311483795,0.030696242734425876,0.17316014674208743,0.011490733027103728,0.05397420127805248,0.05507481428573772],[-0.013679688515420606,0.04255015574166044,0.06617954389113041,-0.02915657084417948,-0.07744530907187086,0.07639163864426313,0.10319321672489079,-0.06691401817579505,0.023516158602667078,-0.07317004806160657],[-0.0461841254055604,-0.02258394989035358,-0.07455566168984525,0.07658827530687537,-0.07888288598709307,-0.07984221957522014,0.05945106335367016,0.028181846204610693,0.0441719711834003,-0.011127353771867344],[-0.07091175831409786,-0.08789846638748162,-0.021127789424368628,-0.08036658177898677,0.040137102063704834,-0.08323168151830634,0.12492327893308329,-0.04809506726587919,0.03222769283023687,-0.012295879802147577],[0.06154144030687131,-0.016021158023485537,-0.04207087487706156,0.025993607105670783,-0.06705830905376459,0.02380729130875456,0.11295933827692489,0.02023881400866095,-0.029267686580156424,0.06574175962150475],[0.042808831068946965,0.003916904124472599,0.05866177878229016,-0.000008815459831950718,0.06776966953595404,-0.055010865814250194,0.07445572743921225,0.0019290164868293708,-0.02886100738919129,-0.02855443401711545],[-0.03874332187453885,-0.07720087127038897,0.044885443862615254,-0.013283614559035846,0.057936953490561285,0.009420573640291953,-0.0012891060876750265,-0.039019708903136906,-0.039795305772177034,0.03652836675324908],[-0.06882485123076408,-0.07630289985028771,-0.04353433282129109,0.0689148689850996,-0.02480725688602698,0.040839595218834276,0.00267528537365583,-0.06264373122919574,0.03897735266122192,0.03597685617498021],[0.04165224224885785,-0.06533808958353693,0.01848645275930011,-0.060428451530597775,-0.06149275571742843,-0.06074202494393181,0.042244231370504884,-0.0340560981743488,0.09805063871523015,0.048695968265604524],[-0.006575901844294022,-0.02315714768890431,0.07843704201068645,-0.06822412553399813,-0.020434112130089103,-0.04058007953768108,-0.06775416443310468,-0.05641300685322693,-0.036418764237084844,0.010455029075606541],[0.07281539500149543,0.008094559009440158,-0.05032313735491357,0.01989915498738376,-0.0012238904600423762,-0.08467429962832707,-0.06934623340378866,0.06088759482996573,0.004357891061142032,0.009830823111033131],[-0.0755738368886854,0.018833684010138033,-0.04558234188418574,0.0023720701220037595,-0.046478360663146395,-0.054480894651243644,0.037418752130663285,-0.055268069976387973,0.0674445441505872,-0.003083125434713305],[0.025450002244088204,0.08890659990688066,0.05437737993366828,-0.0776094570520412,0.07221835226956207,0.04535422454580926,-0.06120626148273505,0.08730436738081697,0.03107794462264501,-0.009283094822067425],[0.04800181682569599,-0.06273733715182593,-0.02583235831375625,-0.07369684451013558,-0.030768541021254963,-0.015962764050651803,-0.059536488712334565,0.012335212255655124,-0.015308218897913763,0.00908082571236747],[-0.01768517724990139,0.01581929885655306,-0.051601431411448476,0.005359738192237316,-0.07852575007804587,0.0615400453831773,-0.016560183500677002,-0.06480310504223942,-0.0002790504854361087,0.04889119359379778],[0.08952534360272714,-0.06184004246126241,0.017052699116878643,-0.07519698910902493,-0.007602682404528126,0.038741678533754105,0.04679367307157651,0.061667122005358385,0.07051880546886426,-0.04202586380310458],[0.011332152453710756,0.019251297046220438,-0.05320379335933664,-0.050050679377599265,0.009749146395486475,-0.047191559810620974,0.019927047520508924,0.046281570082790144,-0.0453242676167631,0.050253198671048833],[0.028596416033117328,-0.0682377015520029,0.003971965503847174,0.04570990643221896,-0.030882623012680157,-0.026307871039314985,0.012898365474649419,-0.02062479748087369,0.06779167151335458,-0.07893214756322502],[0.0763590800111037,0.038746894476189495,-0.019361562006148674,0.06431447716400045,0.0006242052024486368,0.08399034533581651,-0.05119510362020613,0.075477713179338,0.05882185529040664,-0.06256871644238952],[-0.009947519763766415,-0.07948121886566725,0.06735330525435511,0.05354260701947595,0.02636427704957167,0.011620583283518084,0.0772473293962749,0.032401390184150995,0.06621661325551703,-0.004871494797443699],[-0.03323417605662425,-0.015791891298810385,0.11359478298085024,-0.025669548795074725,-0.04213224941202536,-0.06715120569398997,0.09317716441652546,-0.01637845557503597,0.03552617521248104,0.025306410828034004],[-0.01642206619789942,-0.025006174651890523,0.10664656743417542,0.029199358725429513,-0.03283498890117719,-0.11552503130950648,0.005629079849011948,-0.10531114000655732,-0.05532069999035639,0.06563529357672444],[0.044073337322982735,-0.035108916543750944,0.08351754723376832,0.09102565973768095,-0.1625062487762424,-0.0896805890938104,0.12469759381452247,-0.02538514533103302,0.04483993798795886,-0.08179396022219985],[-0.0773273534991884,-0.070266248480639,0.0325648911852089,0.017666195886426296,-0.10715279610595,-0.09834436932489442,0.12214291280350767,-0.03462215489838322,0.062424014697732566,-0.05385035527901371],[-0.08011437366449378,-0.06270118147593734,0.13277465901411134,0.09378854300986944,-0.21775706559197136,-0.14426041298764944,0.11678639031874684,-0.008828891702495185,-0.05096680903810825,-0.013892301028119178],[-0.10548748023913387,0.029444060379927302,0.06584454600023487,0.17303774761026205,-0.19297152691342057,-0.0060766005430963645,0.24148041800063086,-0.005643710316200928,0.022913108384078652,-0.037545568246881766],[0.03059999871628032,0.06716556191199392,0.1245344044175575,0.10872704524979965,-0.2577046272290346,0.000491809770322751,0.2766694394103542,-0.05283913536346723,-0.11985829293699939,0.04117045009123927],[-0.12024363958830007,-0.017361585161406345,0.030716975454945623,0.1587749076027038,-0.10848507187019302,-0.11252867676077231,0.19000269151453056,-0.058241940051719975,-0.07677278164641159,-0.027362121646354005],[-0.0182485038011881,-0.0019641979548658253,0.04339566180760272,0.01982134803557772,-0.20325084422720446,-0.010747648498820823,0.1473826208835888,-0.04728557459297524,0.01275216465411302,-0.11153157243048498],[-0.03737721259191656,-0.17377663720328065,0.024491218383125454,0.04651183949905657,-0.129211449820717,-0.0708830304308226,0.2712024915848836,-0.07432096233963585,0.03732215451088319,0.01283118267312768],[-0.08850069218675344,-0.05787373460052631,-0.06183396442679592,-0.010789541053911812,0.008868880460575174,0.028608543277356895,0.25743193508236833,0.016174195112856386,0.018368552869616143,0.014874307528856654],[0.010273104961749754,-0.15282387982671253,-0.09123890920780822,0.08724422208010432,-0.024310043141153384,-0.09387427004157498,0.2738965504384503,-0.07658056445985585,0.08609572110567223,-0.055436665132344805],[-0.039766343466632444,-0.08348751066598362,-0.0037866189581294758,0.0174282652358016,-0.002069076489558717,-0.014688409560697415,0.22445640054782506,-0.03995986247204985,0.04630184542566722,0.029962381984659548],[-0.08114885932460439,-0.13287499819701162,-0.011113272649800176,0.01675549426615564,0.04550712705225079,-0.04950589054488537,0.1884880830006669,0.023227704756604992,0.034961730562428454,-0.04854790624814977],[-0.007512372723022939,0.0014191053037824082,-0.013124003020770705,0.0047203341880010016,0.02756106908087774,0.03725849764975131,0.13945211045428618,-0.04865277314153637,-0.07326545886547388,0.03956607923938297],[-0.08373355932740836,-0.026831784760469105,-0.02588683495432385,-0.023464446064975702,-0.07110587266631929,-0.0758281110279458,0.05095519557560647,-0.05274468555669466,-0.05207212694748735,-0.05835946372929877],[0.06703563278004693,-0.038407478677525066,0.04041652992964688,0.06640682623906244,-0.06769769354901888,-0.03231599349060434,-0.017053673186938775,0.0488651950187995,0.06938286587321411,0.022608321778695005],[0.05772926302130264,-0.013331572046436596,-0.06331012572021585,-0.06269108927340918,0.03949894195025738,0.0308751972100042,-0.02199732090463856,0.07044533292695353,0.02495329316610459,-0.03827106627041924],[-0.08678925729865719,-0.07308252136749505,0.021141488140154527,0.029643877639811838,-0.07938344583415025,-0.0460040081977579,-0.0786697868499652,-0.0539941441566294,-0.04392909641052208,0.011865984226406301],[-0.08156654602338043,0.04015907316196798,0.0531023191458597,-0.0027486502412992315,0.013961392888195959,0.0034922483901805397,0.017309020500465636,-0.052015552973813044,-0.04410386034976398,0.03606421686074376],[-0.02383941712934561,0.04749982722941811,0.06725299399971853,-0.012550289756240278,-0.07061971262957471,-0.06754374350988868,-0.008287654761029349,-0.07387458499998806,0.07484190892276138,0.007091995538960052],[-0.0651544903395918,-0.002007675881681701,0.046298531497344766,0.02640206350757308,-0.01425525847480097,0.059941500657357566,0.03494144089916459,-0.04365949381663643,-0.02282148867021049,0.012276127407104168],[-0.026184447482808154,0.02450807029342426,0.011694416354695886,-0.023712886467117562,0.04949454653894909,-0.05316312504167482,-0.06634882919519677,-0.07072608320264931,0.06459709508523756,-0.02638452521141065],[-0.062259167644500825,0.01751643235982418,0.032427237952776945,-0.005676897032804476,-0.06676055784849137,-0.009471223279998506,0.014310864705698331,-0.054091537019103735,0.08010747054862284,0.01213421916623462],[-0.007138708932330639,0.07635749071494904,0.046394412395685355,0.06965041951828994,0.0506821021452998,0.020542028301541383,0.0015454749415831177,-0.02239268573128529,-0.017625707290714974,-0.07662475856881791],[-0.03366140811178773,0.042535631817970564,0.01096236705696144,-0.013449258903086726,-0.023093300327248812,0.05854315790502315,-0.009976307089778733,0.0763283523294289,0.017369398483333826,0.04193055838279173],[-0.06783939330505205,0.07905784049552797,0.0631658825591155,0.08803634678506397,-0.04274372092026988,0.052030259404415705,0.04524786918446138,0.02668653777796231,-0.08493921718066642,-0.04148012780725614],[0.012915345198621113,0.03645123187081618,0.0696864663968278,0.1030027424333118,-0.026171582737068967,-0.030542073589211696,-0.01930988939537052,-0.08568921678707563,0.007822908642444932,-0.02414523834629143],[-0.0614610151207839,-0.024073815312680186,0.15569349900705717,0.0499568477457507,0.016006958310716957,-0.07280404881009306,-0.01081567256218809,0.05018016711313034,-0.031185449749537176,-0.05929980356889513],[0.0698337244604865,-0.011269412423761777,0.1446631070950654,0.07431381257072411,-0.06355918162284427,-0.10716599785530292,0.05632621910783591,0.03741732081601491,-0.08847944237091314,0.06781119415649305],[-0.007123966180908714,-0.07982960622491093,0.07139638509630825,0.1675078523432722,-0.20650990941873107,-0.03923177673843808,0.07622294187681311,-0.0480547334694578,-0.056664661940927286,0.042890431255561155],[0.003564364780735906,0.05890508397620534,0.15012168760178618,0.19105749812665715,-0.20278058432457308,-0.1470509174938099,0.05702290198329605,-0.029250635124687566,-0.025646553437823287,0.0476940826478419],[-0.035111603719633074,0.06262968542886295,0.22310804968428177,0.1920809609746797,-0.10852928281541104,-0.11228280124956169,0.036303554014149156,-0.04278476729447656,0.02904579762587633,-0.034838437647648664],[0.0049064997938588276,0.13075320265548243,0.1748147982796542,0.1513563791142437,-0.16134446553657178,-0.032795016544916185,0.010133211675863615,-0.06503049738976466,0.09693239718717091,-0.04382215184867724],[-0.003120222506691392,0.03896857610651762,0.04890429587338366,0.027865271274550883,-0.16868833842976053,-0.08222803533797954,0.038569493567908245,-0.04833272458801295,0.11291366840854763,-0.18235501345360566],[-0.06588741890386807,0.08717308074922263,0.17257770028492095,0.09382902080157536,-0.09717845503677289,0.0031230497605068846,0.06986198622309847,-0.09608632625147015,0.08525794335174226,-0.14154870101713596],[-0.07797669024958497,-0.005134779821357207,0.07071553457312951,0.041960906350605294,-0.07007342519336106,-0.03642822314897554,0.048478054013420334,-0.11606460384565445,-0.02231549678484249,-0.13377304571448798],[-0.030432839619689084,-0.029407351275020442,0.06318607526603784,0.0026284939130697387,-0.05731504685746764,0.0444580871675409,-0.005882216225959267,-0.13159870840128676,0.023155688506010724,-0.06876980949309265],[0.022744208103890325,0.08828022724869149,0.01729350826238997,-0.012312799461264925,0.019007361203256776,0.03298048303916318,0.2491134683775177,-0.06968174288046958,-0.11628027682423013,-0.1228347114714367],[-0.1295780917772075,0.08744752200430082,-0.05557477005011329,0.0006117034822837261,-0.0028157286887813015,-0.0407977990394564,0.3179078509003316,-0.04218483559200069,-0.11884046961437815,-0.03747100807700421],[-0.02715799529623977,0.0834726920226568,-0.09552835186914473,-0.08203448219623477,0.00913081764219951,-0.04660935800335464,0.22172940469382996,0.01970207155247499,-0.10672605647470407,-0.10618868101811246],[0.015547019878988431,0.036087914999640654,-0.04618664765912299,-0.09559260841355882,-0.019376628450635168,-0.010906289458397889,0.22144683269540757,0.02596836941922522,-0.013325831002806656,-0.032616658436569336],[-0.01823490977892638,0.02073296164140214,-0.044462827821634965,-0.0694353692532257,-0.06734397878202164,-0.04831014469793595,0.19100974760737088,-0.003608171487595629,-0.006944152303657902,-0.020087438350015082],[-0.09872770246701196,-0.05342293324472722,-0.09343973026709633,-0.059412562891969764,0.02235242636543662,-0.008963531148031022,0.08727763487463111,-0.07292380149311412,0.013599016762706513,0.0019196243537633797],[-0.07398712246441785,0.012411529726112204,-0.09674679828113059,-0.023000095675417,-0.04964208681138227,-0.00974233861867069,0.06810431256291063,0.06858463324489654,0.015608091567332722,-0.07826575121140163],[0.0034575097530639776,-0.03614297650363212,0.0192537004620453,-0.0780187651199916,0.07016817073094977,-0.048582548087717566,0.02481848627536353,-0.018069617441433785,0.05398498827549282,-0.06863480236851947],[0.0699030050735905,-0.054319319906004845,-0.05502269397718466,0.0289205878665986,-0.07987709467827499,-0.000512375969683544,0.051668077023260456,-0.00607257967401308,0.037727040160471924,-0.06550094788368734],[-0.0783286277195188,0.02068757221549541,0.02365786484222438,-0.0651622616483432,0.05260439422285517,-0.02685352968668242,0.03147248579175187,0.01800861873961139,0.00763393484037704,0.08166398041794126],[-0.06901160102952993,0.011550658888617128,0.04616186927684078,-0.019646043177006647,-0.003642347055545406,-0.07856338912546282,0.026297998750681048,-0.06307086244177973,-0.06725237353371229,0.017225379102211107],[-0.017546819156460478,-0.07207959352174458,0.02578931966490715,0.06861593982438645,-0.051119376585567027,0.030197177395341425,0.05287607953226505,0.03479677873244685,-0.06706967272071562,-0.04484509957630419],[-0.03366829354093892,-0.017299250777470417,-0.02036207884260335,0.013052763757745936,0.06243887680798024,0.06385498433146428,-0.06996403383331842,-0.07257823741640212,0.06107834465331049,0.0072161534787234674],[0.03699423020483688,0.009315960110017724,0.0048948915203993835,0.006061067726392762,0.04805716599173646,0.04758788272646634,-0.048243246729681596,0.046381502336143174,-0.08005396269848057,-0.047593790942631074],[-0.09023902464785796,0.028971142543324196,-0.0771506851763497,0.0279191342095897,0.06894421987179958,-0.00519626548867465,-0.062334516953686275,-0.06950632910417007,-0.026882092778956982,-0.04655617288238478],[0.04465640930992662,0.06403044414036976,-0.017371588288066585,0.09322063560293228,0.06815382193167606,-0.12222698502318435,-0.07781817179686856,-0.07788106704301635,-0.0027577514169739243,-0.02018589913902431],[-0.10339929153515126,-0.07303567501843158,-0.017870805190969424,0.2115609470314926,-0.06088016486444513,-0.012152792715769993,0.011102770975050165,0.03143816623204974,-0.021042369739567593,0.0076975868097559986],[0.009968591708605876,-0.0019120017820691555,0.044295877651296,0.07759398601831449,0.010003268147936471,-0.045242585381686296,-0.05204499675363069,-0.05131914226976031,-0.04541768197253946,0.014368128069209915],[-0.028642600698647044,-0.1517810443656895,0.10851135346767947,0.12418089526655673,0.08159995044661447,-0.08305937090771268,-0.011039938636141649,-0.11931379424486191,0.053521346987221996,0.025146747665847746],[0.05157062983037078,-0.0897112949921023,0.08380527403189264,0.07334763338805209,-0.021114145078262925,-0.03390826686983788,-0.015930810971167622,-0.06708888137455378,0.020501120662263388,-0.08676237456963642],[-0.027912033378999557,-0.11026336511890125,0.2914145990570048,0.10673405808432705,-0.10609902912492106,0.032177768352676696,-0.04930889600267477,-0.06182229847845386,-0.061426683713061904,-0.1451675605024816],[-0.040131950534036676,0.10349699367601058,0.26047745658290183,0.13579647980782777,-0.09933897069945176,-0.0734750297882652,-0.07205135175257038,-0.15663388959480162,0.14683983003603762,-0.12244867262690941],[0.012243694113908568,0.08477586146696886,0.17760171277029885,0.15512383656412473,-0.1331331853225561,-0.0021962788527440397,-0.08488687469993701,-0.17505641883236317,0.01627569575032592,-0.10096417860083332],[0.01095311828411906,0.14190012538619923,0.31510345797892836,0.10199554069008959,-0.13850501553843805,-0.0760223066176155,-0.11557726652679143,-0.19853798270738804,0.06494766656876722,-0.15985121966016191],[0.10107769591830934,0.14882989341821296,0.20203228527776596,0.033776623092181976,-0.007273655153818422,0.03934413657501884,-0.1676566120687689,-0.177609119064702,0.07421265136813471,-0.11457141880932682],[0.10198405428109272,0.08455183803467124,0.17136598115432644,-0.0394534930737599,-0.0009257873370723967,-0.020743007958225416,-0.07791793755639449,-0.27358490355566806,0.08785944964842493,-0.31327188413686724],[0.09028097014105133,-0.0412395241500398,0.31933915281545394,0.017160796508946523,0.12740880951471342,-0.07455186265007249,-0.050804239115301686,-0.10131844274922792,0.1938885196355317,-0.321333012925219],[0.13073012065527634,-0.06354669011805672,0.14490995594199907,0.0021196028347580066,-0.04572414076343285,-0.015649166651041442,-0.01442088983459369,-0.13770440230122108,0.060119115415643395,-0.28329278695985866],[0.025351028788986922,0.06184106573760193,0.1593223744138485,0.01193298452472075,0.04833870875206745,0.08797204819164856,-0.0187197253991816,-0.10496478652391608,-0.0443272520997188,-0.15413053702480833],[0.08233810359515929,-0.018708568278152066,0.04657764811096177,-0.10093066866304909,0.07505536388338731,0.03155438517532297,0.06508974100534881,-0.12853728141340176,0.036419209948051215,-0.13395637738102356],[-0.05792565596194511,0.11932900320029348,-0.14405657698535382,0.043095009082961835,0.10443208806748704,0.03949786068763334,0.1522932970922169,-0.08076528978342391,0.07753118469540005,-0.08027300365362179],[-0.08510480116206895,0.08150529144889557,-0.07234279948551768,-0.027153882396343938,0.04542673585123422,0.08344235353797244,0.0706931084735955,-0.07141979706043688,0.0700886338891231,-0.05989039073656591],[-0.03502591345315658,0.14486977029815865,-0.000638665863615134,-0.10071183386355419,0.11306676071033914,0.18706602331241098,0.0743524344882562,-0.00014066294740179957,-0.06649150783428683,-0.03308334685789944],[-0.044483756482450135,0.036297770180250925,-0.03688821404811039,-0.0951192430370672,0.1192432593383093,0.15332897866352263,-0.03178064960202968,0.025488560433015596,-0.09266836680655281,-0.11091683872523513],[-0.011462873588559755,-0.04288080614991082,-0.1015891035142051,-0.058583875716383856,0.12334568523668507,0.036050119830192705,-0.0018487388527574562,-0.08770182379170673,-0.002301257012879085,0.026261418377765938],[0.04262119509679202,-0.03785485758205595,0.0326648053349754,-0.011412584421853254,0.07147603215069166,0.09530400225166083,-0.05010358054260516,-0.08447448701930303,0.029643901739564354,0.05545685628096101],[-0.0008202362517479071,-0.016166687947511964,-0.018447078641891174,-0.06458545114567607,-0.04540111204078952,-0.0260641669601226,-0.014371461646067445,0.03638123774681399,-0.028399707293623785,-0.01633282976278052],[-0.0364018211635393,0.02248493887280266,-0.05320741170188608,-0.06346734998447852,-0.06352557246563142,-0.012627378657760265,-0.022099305602403325,-0.0636033729905373,-0.028577190229091012,-0.04300198257170582],[0.05613439818751747,-0.07012083725051949,-0.007544109725448085,-0.05229760764242267,-0.019557628608607807,-0.05539468138662163,0.013819363759213076,0.05752041429202849,-0.03706872508642203,0.026734275037062993],[0.007670655797520579,0.07833927049281543,0.008089917523818192,0.04359910564192887,-0.028721670564177987,-0.027117924513728017,0.06109266997628542,-0.027004786640017906,-0.04910693902121891,-0.0005462916317063568],[-0.06296691333720393,-0.05048580220030308,-0.05532731771089636,-0.01629519112482839,0.020044705066028977,0.04423213608016505,-0.026362069720783553,-0.03739029933772391,0.04171772515142731,-0.022072093898362614],[-0.004932068875478047,0.017726772631937546,0.05283248379561314,0.08089728185545847,-0.0018446894138558962,-0.07342642448922429,0.031713089522158296,-0.05174670589609605,-0.04074822771191909,-0.06563566108063705],[-0.04226679638541266,0.043963394269981575,-0.04365788388416223,0.09949228156129819,0.09442368890845979,-0.04669765804096672,0.004502606191933195,-0.019391854561958393,-0.05040296097822051,-0.025077943991750885],[-0.036396484451490824,-0.005921989754246678,-0.08686048115256918,0.11342095936314153,-0.012183697430426113,-0.03834660383635663,-0.0884002927862166,-0.03237954745533165,-0.03285494287757196,-0.1266978171398305],[-0.0867603322027369,-0.022779911274167466,-0.013144550620408006,0.22976192949023097,0.08517316457812284,-0.11228516124683247,-0.014448820844626589,0.10316013334780907,0.044370211807830455,-0.13087869152239492],[0.04581125545136611,-0.10268177440346993,0.05498931324154324,0.038420243868746054,0.09438877582601496,-0.10296603580716704,0.03913681679803236,0.06455385518100847,-0.06913429047536951,-0.06608453736188129],[-0.030764567877305252,-0.08754049179915087,0.17002579506510776,0.21427914044496632,0.08302884375843494,-0.04416029766120884,-0.04601896457118778,0.09066001763244433,-0.04063815150894466,-0.14097622257262638],[-0.12454697056931965,-0.09493806488016159,0.04708685793099074,0.2486288923431657,0.09863325536880847,0.002635040795235466,0.0033723118212555924,0.0012545170657593907,-0.01297055903927086,-0.10439501526841932],[-0.06993618870968471,-0.20523262461677116,0.11135231517932523,0.20996823278771953,-0.07121470226599956,0.055055028156127034,-0.122006398675673,-0.032242031971245845,-0.0030190874725130983,-0.12018787674688615],[-0.03983752863048529,-0.1699696879803358,0.13822308642829234,0.12302241884868703,-0.026339396728873817,0.09001773835572408,-0.05685249346168115,0.04173385744868362,-0.013801384612164212,-0.03115952681715826],[-0.015559568487312206,-0.07703811481556186,0.08406592418023853,0.11515598015621191,-0.1611869276598564,-0.01725118762471258,-0.1875703305519616,-0.0666437966243296,0.060700923042646994,-0.04202400247915657],[0.053226734470543983,-0.033036996158977074,0.10424191976886174,0.12581974092931575,-0.18695107813484743,0.007469470462719197,-0.16041347739741704,-0.16573703417033803,0.04777561629862414,0.10496927488196989],[0.0706746099474068,-0.08839078767485795,0.06358440798156827,0.10335636400076131,-0.11435262793883101,-0.030871987432051683,-0.09746816133404239,-0.1759427862355608,0.22085535264011522,0.1938049799004089],[0.07781718960542379,-0.16170619495794003,0.18113659336750157,0.04264185250038774,-0.2427646926729492,-0.08986670508484718,-0.13142997085089225,-0.06413263853724165,0.12255675568963689,0.14036817890673164],[0.15106158942066306,-0.048327581710800815,0.1132279661411391,0.1059220095518833,-0.11434490026804855,0.012523917565896173,-0.02290451033424753,-0.037123235564868816,0.14735578124921472,0.03870514634200811],[0.18432510528765877,-0.07941204108291205,0.04836324492264107,-0.061906930082973106,-0.1085232152138039,0.13995461015777078,-0.05445458599926614,-0.04249437167096521,0.08122636671598893,0.033270002925886645],[0.14125494230662783,-0.1628046093871276,0.08735911846547202,-0.0013061015892184124,-0.010539114348399433,0.16188459087651985,-0.05596266066127678,-0.08846461274399575,0.11512745067272669,-0.018012549727670357],[0.11316685244943021,-0.011805439459769149,-0.14186219606833228,-0.04252574094694947,-0.08562849514028067,0.1083999919246671,-0.11429815102280301,0.007489170840185032,0.08002990755005013,0.012974127715527174],[0.02920121272404509,0.058967393410611184,-0.013400784417800779,-0.04223110310592406,-0.026978203372049443,0.06480508111516921,-0.012797926961318196,-0.0065938383496352585,0.03237001618126571,-0.032430465766285256],[0.03614344088922351,0.10109238084933889,-0.029784789824227418,0.0463269337872973,0.1430089075458972,0.03986652605727298,-0.004663995252569781,-0.09901202594820904,0.05143946879213213,-0.030561035711742235],[0.09685152785024354,0.08911187711717522,-0.06708146290309729,-0.06999956903276466,0.18167032038230707,0.05779051976725239,0.0070290500321224065,-0.004485330945755646,0.010537044407556059,-0.10987386730666297],[0.09459291689936221,-0.04753521829191039,-0.06551228331541491,-0.05095711357432597,0.28423489455585055,0.12094706452326719,-0.08863558271641006,-0.07568598742006233,0.10832279587904331,-0.19324148062500793],[-0.07490671173767618,-0.060380276022971024,-0.020168639402822316,-0.003167759124822338,0.04254508498358389,0.21998820716018463,-0.07794403219658777,0.018850510422469616,0.06106586397066446,-0.17036900313207964],[-0.09178159110456013,0.03604366523550926,-0.056834860692079624,-0.07346817921144928,0.08308935745543651,0.11173076199971683,-0.06507110932217815,0.06464983095787365,-0.017501725569839297,-0.015101413543593312],[0.0003739884299879695,-0.07973539905288171,0.0340560207015836,-0.06247767141550934,-0.0384439932543359,0.01984238204470133,0.05896134917779761,-0.011156184497318316,-0.037842276339682644,0.0009008227757176612],[0.024165872550268894,0.045565319513789726,-0.0461754439821246,-0.05937184331171193,0.05984381790265191,0.028513123122666614,0.032707048161785525,-0.0336947240427406,0.03655267208254068,0.042516150934410246],[-0.08385500704454721,0.014153239050926154,-0.00857329209685326,-0.0029639000989840924,-0.06366910142067918,0.02344586759222361,0.02423647393167446,-0.08136870933809215,0.014596066878801741,-0.015346663582133309],[0.010282483436039247,-0.054212788298195196,-0.04431301611022785,0.0672101667201786,-0.03861013291423531,-0.07763116596606778,-0.05905419159417607,0.06396276573193108,-0.014936426708751758,-0.029090862418947802],[0.06220156940743522,-0.027180637004906513,0.05982802695954743,-0.08287711814975893,0.0510589059393726,0.014139309170485193,-0.016439632665523733,-0.023446499602410575,0.002244346917709222,-0.07032492200214183],[0.014948680997086558,-0.021583405098501627,-0.0479195012364441,-0.013651445121285135,0.08850380148699903,0.02805086836133714,0.025186538699232566,-0.014537245059974833,0.03391721911923977,0.017000218175414136],[-0.05218421548130369,0.07878819368299257,-0.0013566002155873844,0.0800828424737699,0.07411682966004209,-0.024697660310002797,-0.09721268430009018,0.08759205078362756,-0.0859526865702896,0.03151621808582508],[0.022257464953291343,-0.07544903762401581,0.07283835402598968,0.2317064822611162,-0.015957685678272444,-0.23699416512635374,-0.029253830871777478,0.11426890737797453,-0.028971628437376697,-0.08361192730918929],[-0.037776647734423054,-0.05463817673511343,0.026143155194270136,0.14867642637181466,-0.02686701141584551,-0.15315952303578054,-0.1033838872904422,0.08442405807582011,-0.04949925360386888,-0.10245791503608088],[0.006900016967797336,-0.03089679067231536,0.05003095860019205,0.14991857942343062,0.01309330895830724,-0.08191207808115646,0.003085851589317884,0.14026501335341046,0.08020117462562446,-0.26116272399049034],[-0.08426650863759788,-0.20404694388515485,0.04156923107123391,0.017567824054958055,-0.020910198778346777,-0.029819228367694545,-0.03622514950816244,0.2220708875313789,-0.03700092745039407,-0.1490489736783182],[0.01364080462395379,-0.1552620416441539,0.07957620938745423,0.13526039088559383,-0.03494607587378076,-0.011059326245209826,-0.08691491272008409,0.154641546679332,0.027588892972599796,-0.14416420127366836],[-0.01823001293713166,-0.2447007491909486,-0.015127426169268507,0.10183216342827084,-0.13624139071927413,0.04511952998616216,-0.09321104444269286,0.10706669197679776,-0.042942219513889865,-0.026653939263177294],[0.02389272802353707,-0.10600401250878673,-0.011202196061205068,0.10346699003192716,-0.0070328540628532155,0.0590529116599467,-0.07993638815091413,0.19603768284413048,-0.10967231298674185,0.01511242554031731],[-0.07283578581392043,-0.035166996811021214,0.07631095194524683,0.028330686839617793,-0.20487940660202777,-0.009160139955852766,-0.15541904733922293,0.0032072867459664763,0.039429690560669986,0.11857742232542919],[0.008394235127318121,-0.1528012119308316,0.05642225801177301,0.07659394722471488,-0.2703307152695484,-0.12301448890203123,-0.16525597444787396,-0.051262056235133954,-0.03423008292482301,0.2798833670907793],[0.17418421448938873,-0.1622049108280322,0.08639429429449927,0.0960315503512006,-0.20954009492176023,-0.04589939958450998,-0.050562985932824295,0.015089280839447432,-0.09759937542442054,0.32293446387786023],[0.07876494398003782,-0.10087566865626425,-0.05840432741103111,0.0987706459619542,-0.28912095987294,-0.03418695103308794,-0.06248607060377956,-0.09255922687033388,-0.00063532813337017,0.5123480456593299],[0.10391428835676665,-0.10590437428121745,0.052771222605077425,0.04592730652506688,-0.29818441564422005,-0.03206157961752782,-0.10890775234405878,-0.08126216851738116,-0.11757685770503787,0.42447650929398606],[0.15350525642924615,-0.16994601795846104,-0.09101213487186516,0.04334807652765926,-0.09819207483437578,0.04822037836761946,-0.2235211913266808,0.1371178702584618,0.04091218078829696,0.05492465691658075],[0.17054565538707567,-0.059086567715015775,-0.11133184958608092,0.036955961173341316,-0.10365138560445891,0.12496402467675033,-0.10145335940081365,0.04831522675369917,0.04815629043321905,0.07385703543610209],[0.07827423894412787,-0.02154830502071746,-0.038832086054591895,-0.05071323298152495,-0.11349486205905146,0.2666391959691617,-0.14448955115257575,0.1801007118698045,0.02597546445659946,-0.006975831962790646],[0.13857544503432928,-0.06274849118031953,-0.10906991967986178,0.029634825099415486,0.0699010129090463,0.12723162682942557,-0.2243193260327925,-0.007698374330535429,0.020228900161186295,-0.1653251620262106],[-0.047910374363697626,0.041224966088551904,-0.04525934902216609,0.05428542865297323,0.04219939518800501,0.1014693081802395,-0.09757503753009472,0.08152609143897424,0.0980256914241603,-0.027986517589552652],[0.08104498340250381,0.008458566894678193,0.04746397489749619,-0.0788257524858093,0.17909122255099566,0.2548444948610386,-0.08465658886428414,0.036439683453683376,0.063828947099177,-0.13076045067808434],[-0.030929621129410657,-0.12126439863469289,-0.12334993466831409,-0.12310351758811051,0.2112441117661579,0.22093068795254311,-0.21376629040865947,0.04067718290719872,0.08459207520928928,-0.22905549293321253],[0.02995533316183793,-0.08746756594904338,-0.03919484554427243,0.0020522194212881455,-0.000057416182774432274,0.3809322919200729,-0.06499369444369824,-0.030369694397103606,0.08507220518825803,-0.1824241980292947],[-0.09402918745255312,-0.07939638288787886,-0.031040122806402247,0.018786042642044018,0.004408117152754322,0.18429228620577168,-0.1101227206375404,-0.03327980342961388,-0.008027832874848257,-0.11038026255002498],[-0.08272130573214442,-0.04942356902693578,-0.06479591010382243,0.006189292184952228,-0.0718062027346731,0.07803271719457612,0.02916032217778202,0.055380038160314574,-0.07627041273114846,-0.09677980905594069],[-0.01260414779825595,-0.02887032794944902,0.019191223539314555,0.05172699773931554,0.005427167227241852,0.06836615634672581,0.025851209766475786,-0.025503955411070398,-0.014320892266605632,-0.01157921336635965],[-0.0395084466652702,0.052534293619744786,-0.02546552270131466,-0.053286226912862854,0.03170647781573387,0.00861236730844072,0.010699425795593657,0.0454423784363475,0.010141937604089959,0.021707640526358218],[-0.051909085440067164,0.08626578449919449,0.022310066607629207,-0.06297786548884714,0.03865949350091591,0.03629179562001088,0.07306226493247335,0.018171641961949755,-0.0853667412775583,0.00617279707591296],[-0.08236749546568406,-0.0672054170416238,0.03830714042182998,0.02336298995413706,-0.00896580876026808,0.04889342398544875,-0.06779613487945915,-0.019925170715438548,0.04564061292107686,0.05665853932616749],[0.0320253531764303,-0.041699914091399296,0.049270872256209554,0.09285810419610108,-0.06125157533295678,-0.05400634588814501,-0.10345552924735739,0.12834727586613176,0.0785818896932453,-0.06794567045834289],[-0.09205095036616089,0.052636069220868574,0.05432115536068342,0.12940430846118287,0.0803333338680314,-0.0544384019507377,-0.008510423611008821,0.11726021059720601,-0.030246909347243126,-0.0965525191356398],[-0.028284716757355652,-0.040762876519149636,0.06987287376778767,0.17837138358685184,0.03181417763004252,-0.08280397122288997,-0.05832338361984676,0.1437284502056889,0.08652156282787335,-0.09820597407431998],[-0.08643841763536673,-0.10932537617468543,0.06911807129607901,0.06285855165355662,0.033792508403428456,-0.12687308767273892,-0.03678164859722156,0.19344325799675308,0.08405840110923392,-0.07876921622166247],[0.04142548346691199,-0.09360099978641512,-0.0047889730476329525,0.00291851611084094,-0.0037999856599629156,0.046224775039422364,-0.06167588494523503,0.1820543809615914,0.007043123641604211,-0.1144266117431554],[-0.11933338597278419,-0.19280123958061307,0.08222168905391122,0.008424602316677104,0.02882555541746712,0.10868478016548849,-0.04109769795801273,0.1718822880325416,0.04295389896178601,-0.018270736506761268],[-0.04659260208364187,-0.1293609238923505,0.06417654201854586,-0.06437753694481063,-0.13745532944267908,0.1744975012108975,0.00695585491899018,0.20214267190665655,0.04069475212664957,-0.08493267257544589],[-0.004775459924897364,-0.14077757744582867,0.10051835139818811,-0.002431919965970369,-0.06311685715753619,0.1351302881714652,-0.04401760279241664,0.12797222560932822,0.1408577498950818,-0.0037480797933854256],[-0.04934756897749465,-0.14015572832383705,0.040759201508550474,-0.09469606871447192,-0.13623613672767537,0.16450215662435969,-0.0807978325824212,0.2508581812048548,-0.004570486286223972,0.013075714109223579],[-0.006582914027887738,-0.12233738014678905,-0.015098417890343715,0.014021709112130028,-0.07127056198970193,0.012744724605255612,-0.1779418285627433,0.1727798045313526,-0.0012330726133502508,0.2918189581914751],[-0.06130645909929897,-0.1054633175487091,0.10009794221180159,0.014542242149820625,-0.20280703802724703,-0.12901702755682967,-0.09827933650920215,0.08283473329683003,-0.07986898136731412,0.1842949060295614],[0.006116151869900055,0.008420440093757465,-0.010736012649963104,0.18152215231040975,-0.23401205390037383,-0.11426640237277912,-0.12036871667028273,0.06548960865750539,-0.11062421115013453,0.1584752452756475],[0.13133957144142763,-0.024575341033844175,0.06168418295127116,0.2670324771596168,-0.3389576940124745,-0.21963515283124901,-0.13628432789049502,0.15763283597130306,0.0021026225127556628,0.271895140352239],[0.08680838289709514,-0.012981134324313822,-0.006624373986240225,0.07769387846777573,-0.2181513044472771,-0.10888755635697196,-0.12123311786600642,0.20925610682693127,-0.10820079064320712,0.21209473766371104],[0.08657125417085774,0.038071575488074126,0.03530098704727536,0.03429541116092917,-0.21396895864366355,-0.04429628864742417,-0.2826896506609091,0.13481207135290602,0.0008257149372361897,0.09772441123962275],[0.17986994583446256,-0.019683629122561278,0.0016145592744080386,0.061078682282825605,-0.09193040706432763,0.062970535562683,-0.22013626521516838,0.08747402893110359,0.0037457789577740007,0.08330842197827344],[0.1495426468468595,0.012252209628015686,0.018647551588853832,-0.02572562648485074,-0.09695850437952949,0.07957596370350367,-0.2865948590923545,0.05877346570803957,0.153624523230994,-0.016896480682557218],[0.1512338823120438,0.0010094149392539762,0.0030386089810354793,0.06304085166464671,-0.02879116388136408,0.12208560760233969,-0.17746816798915893,0.11398216068548853,0.09727378328152686,-0.07469386240433114],[0.11944056585014988,-0.012278151416646246,-0.04650459248585391,0.13399331856030877,-0.03841514483523698,0.026686207572534114,-0.21308997191603754,0.11426117809974509,0.061442227629055365,0.034387031708328776],[0.05293166836401241,-0.023819302657215505,-0.046072078006092476,-0.021713198981014738,0.08121200103040124,0.2839114962617698,-0.13433046222905481,0.08576774844410658,-0.001571061341650417,-0.06246506627954426],[-0.0498192474141527,-0.10979922988466574,-0.05711385568012619,-0.12856274801037035,0.1000783670699299,0.38610312475606334,-0.20024657942364016,-0.010201125449653249,0.17544917205750807,-0.18329300826844688],[0.11514462808295489,-0.16044918063273442,-0.10860918529825872,-0.10811418264723183,-0.03584449302427627,0.44459413050400504,-0.20242262297760563,0.026104835836314906,0.10169014534036376,-0.19920681761091907],[-0.04432434567074787,-0.1198434886159426,-0.0631875021787104,0.00020515837456347102,0.037254532530543095,0.3416788610369698,-0.14516659030409296,0.0016686525043541095,-0.023509041626672007,-0.056395109413198904],[-0.05083364073358461,-0.04946614343092316,0.04424484131193096,0.0412875703231879,-0.05460513651911457,0.048002367442443294,0.02664727548348097,-0.05830021904116475,-0.03665854621616302,0.015149677915593079],[0.026791964168066146,-0.05653547701711181,-0.07093340911675464,-0.02688355745720947,0.06277007034667055,0.05356416387384803,-0.03673075154824322,-0.04486677804348451,0.05786354154310294,0.06542371289127177],[0.044576689926170615,-0.011886902735338791,-0.04356483750759246,-0.05422425284354009,-0.0668957157783551,-0.04841220296701191,-0.06843110475895572,0.0421444497124649,0.016174513583835582,0.056493887281845984],[-0.06985115461788007,0.006783389070551398,0.06607058166314152,0.03667431363473991,0.017172372506257465,0.04605681073331009,0.07920981220190329,-0.0016998114051480823,-0.08517599705964614,-0.04976114674690494],[0.04115113957463583,-0.029433773190923995,0.06359664499284422,-0.06456954247464979,-0.009365493425193607,-0.007631223645515981,-0.06961017930271507,0.08016675287622013,0.03983482190482288,-0.045332026599665155],[-0.04915983433962005,0.04436139171298827,0.026736742580878155,0.1136862357398844,-0.052262223488985224,-0.06507535266040256,-0.09178740353398537,0.11064794843807639,0.026780554554174895,-0.028951676502233986],[-0.08618189768897701,0.0711931352713568,0.09029816369517561,0.10032525967650112,0.04569722401371696,-0.04292949916527255,-0.03225827076436725,0.1433644560966623,0.01220652989920285,-0.007837026229624783],[0.008693602772968143,-0.09195609646571996,-0.0384658244500578,0.048863774282736444,-0.019155821689741427,-0.1618123877494596,0.03132251361939367,0.10933245622524773,0.019365067395107672,-0.1341165416199876],[0.029745853802465454,0.00864878424069497,0.034883001436136436,0.002192916495341377,-0.019769265003203727,0.07365078544926358,-0.09767776967342219,0.1648677482648009,0.04448457163242596,-0.1855918840771932],[-0.0805256823659321,-0.08396494992257278,-0.02249318732844638,-0.087163780934332,-0.06855327022273675,0.03015353512405342,0.02182417375061033,0.11014923871840364,-0.007778412380122878,-0.014848409472685196],[-0.03248904304575662,-0.12249853522231925,-0.06409351644112661,-0.11756302865618155,0.043342850246404364,0.11591202167169708,0.05138600317298546,0.0975907976654485,0.14742838341695172,0.052398464137396655],[0.052600362226377796,-0.20934730578849578,-0.04254339130581408,-0.128316843312255,-0.09408466412814964,0.09034773786377345,-0.0008236340559562485,0.17924720927448687,0.0329084624196259,-0.08636790710335251],[0.05097164775708271,-0.12988158723460003,0.079138026587048,-0.11353772599632668,-0.05672769503249689,0.062155768444026135,0.016858113822783696,0.1602259784290547,0.10909800288730591,0.003701862324011011],[-0.041488788776531824,-0.05034876895863702,-0.03738232836455846,-0.33167308665078193,0.1005351596837707,0.14256077620426733,-0.030220182283080287,0.11421194114327766,0.1413160694433072,0.03792965655302678],[0.06898534416012891,-0.20657476875429318,-0.07055140794342443,-0.15436297280388261,-0.10308607946271528,0.0537559497429543,-0.05331708532768662,0.10038019256324437,0.024557443935703353,0.1219754910670598],[-0.01496470861645035,-0.05984502981475684,-0.10054206834834407,-0.08294426836736214,-0.13184132755760922,-0.009394858305607282,-0.1362235863184872,0.16357537273913553,0.014599513049152373,0.03196285083355133],[0.05026984307269363,0.10759964916470002,0.0022338274379462507,0.191884852786521,-0.3529947912989375,-0.17017731952963341,-0.025637290935182473,0.24962670151260424,-0.10278613520867713,0.15543836734138583],[0.08472762926731792,0.17267796565233523,0.11555828207889506,0.2640088395068623,-0.32523663172584505,-0.26142977378096927,-0.16143894951989776,0.29242387218676363,-0.12259472168358003,0.005482893007449489],[0.06362311530322724,0.02983229751486935,0.05508089374297096,0.15872819061352136,-0.273456789452464,-0.2530083124711171,-0.24955859805376854,0.30378912245235035,-0.10212356416889407,0.045312365341595974],[0.09364080961464466,-0.09480244352121653,0.05518251757986853,0.1591745935854471,-0.03793722121907295,-0.2629402844486278,-0.2627762368680233,0.26608585567103804,-0.07963675187894795,0.02135546837239411],[0.10720010126614082,-0.10934547465870871,0.04926567677395406,0.12810365068006058,0.01928500681486904,-0.11038461676014849,-0.2203339595794206,0.20454790302925013,0.0392481122548033,-0.029667648369433676],[0.1723301370828535,-0.0542901384506497,0.05257104680124499,0.08950386049280566,-0.023201961347202385,-0.048129724533306474,-0.24735848678107852,0.09649657008764982,0.1350366791206401,-0.05742906225055211],[0.15311493607445104,-0.06250401153160855,0.031728653428921894,0.06348935253878911,-0.1141734654064563,0.01562619863819047,-0.22324901379657433,0.17091831524195933,0.09590234947432649,-0.026931384234391762],[0.12466543244261764,-0.10117910710503134,-0.07370082946029255,0.09004583206458876,-0.08229764648784033,0.07959053097453908,-0.08150231745113526,0.030508297958278682,0.05818209556427892,0.05627157589276232],[0.08773846066438216,-0.17410301453758875,0.0012906365336191484,-0.0430505320422119,-0.09334081724281461,0.2257077454936451,-0.19965929801559146,0.09585444607134752,0.09615705541482011,0.03733126219557806],[0.08404419231886952,-0.09509708219673153,-0.12682802868580037,-0.04140016933132343,-0.06065594779751864,0.33432627329593934,-0.08221612869913313,-0.046058099167441406,0.14809499408084587,-0.10788833799206832],[0.11375941308335938,-0.19192795743924898,-0.10527325525402197,-0.03103368056658888,-0.04974273587209881,0.36878481365234056,-0.13603204645790717,-0.0003314844494823365,0.11178378176315147,-0.06997449502255282],[0.02363777952214819,-0.11722002589003494,-0.06940195566987059,0.046925771565995186,-0.07704653580162756,0.4406148040561901,-0.12282716785688244,-0.015427989317779674,0.08340154017184984,-0.05063450854162973],[-0.06858564783608616,-0.07625245889112635,-0.025477230296892212,-0.012568733524029766,-0.03524975929937851,0.12451329095972974,0.02856420700215041,-0.043216072655617346,-0.023335575228775843,-0.03630768343256067],[0.048557582905669215,0.007657119225460416,0.01967239983744168,0.05305019936353806,0.02842221079667673,-0.05208164414994786,0.06716739740260516,-0.004962137124938814,0.04261158391843089,-0.01783569913051686],[0.06305417386914364,0.011130404945339227,0.033398207285683316,0.008834006382000057,0.004053672231491722,-0.04982326129641942,-0.06261764567483707,-0.020218638266933233,0.04445621229076409,0.05948024780607694],[0.0779647817199262,0.015534671102633277,-0.024050933151513874,0.029838737038413266,0.00035397139609404923,0.03815125882107157,-0.07313480792115169,0.0530751128171068,0.0028429755153840607,0.03785832427553503],[-0.08660038652506541,-0.060258909926540774,-0.004265083863335714,-0.04579903367161748,-0.07815859881943268,0.06951244036173655,-0.06021526531320872,0.014245427259422782,0.06696446989821728,-0.09350013310428287],[0.0395592561972869,-0.03864098100265299,0.015007784651396813,-0.02244261292218173,-0.03289490054728416,0.0603523440157586,0.018860936575902487,0.09342683966700434,-0.0720016197570132,-0.013868479235297278],[-0.12509550072660292,0.012737382303560725,0.03602351228135089,0.0003254223759401294,-0.07873955468219672,0.023910485553215077,0.0015393951583761347,0.07410511076421951,-0.01754812052438775,-0.04944559905347859],[-0.04620769880419378,-0.08887578792947257,0.004207012414297738,-0.004515124841646182,-0.06413640714581677,-0.0722615197733988,-0.037239750957327344,0.17610722331564516,0.1359573030796596,0.04126445319898874],[-0.04682851685232776,-0.041579087729834444,-0.011462164158755618,-0.07966719021111243,-0.03662032765914446,-0.03021300054961001,0.024801463653814554,0.054733666595593526,0.11606711175853272,-0.05989545593159145],[0.017190306491914793,-0.051131970455538675,-0.13991024316363873,-0.14980405902237354,-0.015113975338662537,0.21972284022332367,-0.03462881106225101,0.04926783536591152,0.18387665528040814,0.11275405740109343],[0.029809821156356317,-0.09439285360364164,-0.14179386969643942,-0.14972098429445696,-0.13714148435619478,0.1440698688257774,0.08093402112401069,-0.005922144609351979,0.10906319759319526,0.033864585346027085],[0.02795944624509132,-0.08233862253126217,-0.06858094500939242,-0.20938194607641356,-0.005846609099912459,0.24844918638460423,0.04794953623960612,0.1162256828503757,0.21015177063580487,0.05387075315833929],[0.03958463045237668,-0.1549806279113727,-0.1539120519896252,-0.22325937009430546,0.08952884298517905,0.1980834692399542,-0.09241670820504637,0.020900899716148048,0.1675061030530117,0.19125777627898438],[-0.0393931368923163,-0.13936219878566286,-0.17624551798538915,-0.269652932451272,0.05611179736641004,0.1415479130500161,-0.028100028843957292,0.135442337357027,0.09031260031981751,0.1053090352315051],[0.030928371162401023,-0.03750264168488455,-0.11979186729672922,-0.20634879696669906,0.12400897746792822,0.13009192370127473,0.0684377053756729,0.11886574590866626,0.16430698748632178,-0.02556101207463488],[-0.07593822878677847,0.0221339451438967,-0.1646366400436476,-0.06133623188964184,-0.1189830663426308,0.12244775947874777,-0.08198352094296317,0.2546954217118259,0.09670002411740432,-0.02232739446370475],[-0.08069524721835937,0.2541530247296847,-0.1387078766266856,0.14141217267695388,-0.28138539990848266,0.021918232377156947,-0.07631746080914822,0.2822256610441742,0.011067142051263164,-0.03868064654091397],[-0.08674546260657583,0.2055630954333588,-0.10283152959201089,0.21055254902867987,-0.2672658881447359,-0.1338472069608598,-0.22443764630066226,0.28317215927963424,-0.10086401406769134,-0.025067578259945395],[-0.019127356971623002,0.09027100767186423,-0.003129258846543675,0.11574929520912221,0.019642076783499954,-0.23632108748158012,-0.173252175279061,0.29445475076231303,-0.13730487746093117,-0.11969360482467142],[0.03476313653553537,-0.0526469644070436,0.12853770275943383,0.14375336684904103,0.02127528663636442,-0.19540077932180672,-0.17094698920733614,0.32499556517993405,-0.06409015622293829,-0.05226773091915191],[0.09691389969469068,-0.11120275752355419,-0.02135492035369292,0.12386390088906671,-0.08776769228819296,-0.2536009560216414,-0.2006588223771073,0.24334936323782105,0.08454685683645569,0.07696280944487235],[0.05015240082452538,-0.06516791612457426,0.09438939628912604,0.19009870354902217,-0.12100017278323708,-0.241821065460265,-0.2102312781598419,0.08580569213347167,0.06040233883674144,0.11858110090362148],[-0.022502919983827394,-0.08620635936608946,-0.046016299772860945,0.18416173719702114,-0.06226718215901073,-0.3147141012276126,-0.16713238146824047,0.14243021659813956,0.018539999470663978,0.11670823701085402],[-0.003608498448594114,-0.01144516953734672,-0.009374110353926483,0.06878055279299063,-0.0848065548241835,-0.05668747179072062,0.013690851488984922,0.04602252021950591,0.12605735574439078,0.1464893158115538],[0.12144452261255116,-0.11734526261765775,-0.025448128965649183,-0.04898262942301686,-0.012882799960128578,-0.028583977753858944,-0.11575391507452804,0.11777538932740422,0.05577265386122711,0.008973137586549692],[0.19872061382545395,-0.11613743639056825,0.020772061950145682,-0.09461914281820247,-0.11095384590501953,0.0313945302994402,-0.00041097035469827106,-0.013212913572523835,0.047663079793880375,-0.10459806234066732],[0.1204860169745967,-0.167583314296053,-0.12062002026768676,-0.03845725415742687,-0.12725664055031732,0.12314705525361516,-0.05810527649686294,-0.04059816586224824,0.10551248121482248,0.009434223370514746],[0.04943116285051047,-0.013754839862775885,0.038784258218977984,0.06064476214857637,-0.11858859926439323,0.3069382795105776,0.005607055154659447,-0.013847282558356216,0.010295181081766422,-0.008849872608367806],[-0.03402497240882018,0.04078197123621936,-0.07203524320445451,-0.07128519220713059,-0.041433884965648975,0.13701695004268333,-0.0696435041588982,0.03998945072272863,0.062432503924543255,0.013683736003561821],[-0.019392127341056865,0.019281359994522813,-0.00802220102379028,-0.0064999659608366385,0.024778488838207303,0.0457643994254344,0.03845474307719172,-0.05059298846549131,-0.06061705126987697,0.03162058971942961],[0.06171728325541361,-0.01451719383654888,-0.016070485855793397,-0.045545454613511456,0.03373109055617425,-0.019840042757421645,0.039362059008902155,0.021291012187076342,0.020443396970991012,-0.056890351839510925],[-0.08327770594459406,-0.011813620139027583,0.035842574517770745,-0.04856661146245513,0.03242432939436798,-0.03825833108978043,-0.030270414625411846,0.0033158063497480037,0.08035978325000503,0.046092968067750664],[-0.014586996152756899,0.07202656022980422,-0.05127062675644087,-0.04112980993812912,-0.022129444792888312,0.06390542742275104,-0.049201892173891204,-0.021447574630106058,-0.08285374143539319,0.05038575264259787],[-0.02910379818811384,0.039252679669865405,-0.07324023582999377,0.04028988932191875,-0.06667534728223383,-0.08751501979939184,0.06744450120610836,0.15613791164457402,-0.05311927099050671,0.003380003009210034],[0.030497181223806232,0.013310348641442545,0.02312976708636531,0.0880014425767852,0.008552951416063841,-0.05050470699472898,-0.008884149549246196,0.1860896065593241,0.009615213151528992,0.04694396234311823],[-0.025376255341066543,0.01917093728784578,-0.20332632530748435,-0.14049100120102526,-0.14570076359269918,0.02315123233639023,-0.03506814761959459,0.09521257807150965,0.03596086274642457,0.013976151975298336],[0.14328180874144522,0.06970933299765916,-0.16409636513639386,-0.19321086978933041,0.02095941480115759,0.10626422170851467,0.10163584482497193,-0.02444199866449238,0.16175981057377486,0.12341925580338635],[0.03284086441226499,-0.013836872681143541,-0.3545604871828222,-0.2998442664292439,-0.053563509833700444,0.1081810678031738,0.02057846990079518,0.05804979096553438,0.10261849220044972,0.10815058388852179],[-0.02380946661739867,-0.12194550085234067,-0.342200113681082,-0.358849587707189,0.14070563458994134,0.1911329604159626,-0.08603973334833194,-0.05802662341548103,0.17294284178646624,0.10641097255833985],[-0.003509964657650492,-0.021265690755424855,-0.27570775679677156,-0.12101574601432236,0.1874420869164271,0.10757800161074327,-0.010341710191146361,-0.04108354129423195,0.12768645451601068,0.18720954423871464],[-0.013885892672181726,-0.047651209845736314,-0.2222166545554629,-0.2303538774880479,0.17922212666441809,0.17304010443797035,0.11166235772154949,0.07499588317291506,0.028692473414774645,0.12684127121666403],[-0.06921462426101756,-0.1692250356795872,-0.38920637945798636,-0.10920413826988015,0.16632254096036633,0.3280569163513391,0.03941432872462773,0.02064485290522473,0.14430847950857095,0.019371288733543903],[0.019659245942800878,-0.1828212882645241,-0.46960713759579553,-0.032559732465613084,0.10166640177291682,0.27985854872066224,0.13228423863192337,0.036620848651489075,0.12151920504649152,0.014100377512530364],[-0.02598194713402104,0.11009760382509642,-0.4438913788589092,0.03290619464708132,-0.11761922337269647,0.2663026257516008,-0.010683757595117523,-0.009261799353582224,0.1288561565356153,-0.13745193494891353],[-0.12711167876679016,0.35701363025250404,-0.30131902347204453,0.22006611993148498,-0.3535562228801306,0.03725055806066569,-0.0726722566526395,0.08838704268267927,0.05054749234058502,-0.008442463216715415],[-0.24502212227190134,0.27717867755477693,-0.22135630216712418,0.235679961863233,-0.06652253558520621,0.025488652751785974,-0.10827604783324277,0.12919028349999867,-0.05652971177506094,0.004881654560446206],[-0.12172232772894262,0.07155119517524282,-0.1398270885964548,0.15481337670648154,0.23627175308192688,-0.09786106424622217,-0.1875929026313817,0.31152780892218956,-0.05728788315223449,0.05085422678534943],[-0.09906592278915169,-0.02420499879794402,-0.04806323300581843,0.1541674597639059,0.2140988050547376,-0.16813602044284867,-0.13018873442581302,0.30570613620758064,-0.06139798902836139,0.02192544650122974],[-0.06429100090985662,-0.1326516333823906,-0.0016096167129373898,0.03345797011168876,0.040662857650020326,-0.26676349891991996,-0.11079355196820198,0.08187442556494652,-0.07826997961431018,0.24885210335304914],[-0.05442047081768007,0.0542528575138151,-0.02582504618274055,0.07070397223709039,-0.06672347396905651,-0.11706907707804941,0.02461200758406525,0.08073245974108298,-0.06311027471069529,0.26044621460521533],[0.07624792107542541,-0.039542223818069676,0.0038547140178830613,0.014678017121080616,-0.11143250632238222,-0.29690020540592615,-0.050093720851068564,0.0755763769687486,0.0882284594613631,0.27149564464279585],[0.06017189027625555,-0.03646391734065636,-0.045775176664170636,0.03635651860626485,-0.09730935502264053,-0.39343874216617225,-0.00704909168008101,0.08838601012914028,0.18720360977860923,0.10384836710265646],[0.2297594171721288,-0.024076123886563897,0.03489433882380151,-0.04279080023465959,-0.12725455818834755,-0.43438612489078654,0.08321938601717858,0.07027803935693035,0.1630482449986464,0.12171434496606622],[0.17756281659889822,-0.046299829561512365,-0.15258249876522406,-0.1088274224393008,-0.027737955590019382,-0.25110198889631397,0.0877098541662845,-0.05252819151754815,0.195884230362918,0.08280258380844002],[0.2220067906518271,0.0038243151142380387,0.05916510003858908,-0.06314730570911196,-0.09552749847650048,-0.12014993177638986,0.09500460328565243,-0.09329731764026318,0.13449577447049954,-0.046365190978243334],[-0.07052954558511489,-0.06381170839681109,0.06547425121275245,0.06300037204875332,-0.05894214476634424,0.0004227082887678302,-0.023997075981722196,0.003632593162173218,0.10355911263773461,0.03375977271816051],[-0.08063069621210499,0.018889209048998677,0.012334691765665476,0.05696730036641517,-0.0373277120762891,0.07351621332356022,0.011618119645387245,0.00840201714917153,0.07434511846241143,0.046072653780314894],[-0.07487732081881489,0.08927861759453198,0.0342786002517167,0.05544992294620635,-0.029415154113872438,-0.019693774917479978,0.000924375186790848,0.06166247469835133,0.015071399295789647,0.017193963264191803],[-0.06119888730397574,0.07542562148344759,0.012717880508267847,-0.06598716391801768,0.047304271095878966,0.016955407265588186,0.07475855019550516,0.06384098718188369,0.002041267099353651,0.018254434128587217],[-0.07687010766899538,-0.03942512899111396,-0.035314605830336965,0.056536397341891656,0.028993129851311486,-0.07298066116096867,-0.03589850440496871,-0.06512380623361932,0.0605101836625829,0.03173368888629887],[-0.010055493292291955,0.03863177528364194,-0.0004957246844448961,-0.003944756513169144,-0.04427079870997564,-0.0440167860046042,0.04515285046684472,-0.0062466362174798005,-0.0850005560872733,-0.08097779095650304],[0.015108341951002566,-0.011662398390866661,0.04718573287898919,0.011249916303166513,-0.054837913880849756,-0.045140658991243636,-0.051647785879776816,0.07232397556256048,-0.07619700864205385,-0.06689119964615042],[-0.010442984043923513,0.0321592357354108,-0.05607385281958303,0.01522359218221964,-0.09744651743081105,0.07249156738038237,0.0007815953366589868,0.0492760393332829,-0.0503371926880219,0.03660359858217504],[0.007609319991456106,0.039259488370516855,-0.2629598949465094,-0.09120322060742846,-0.00018417017368994014,0.12930002810396118,0.021599297025372152,-0.06473922813530464,0.13455691792089963,0.047541904204613364],[0.12479795097800073,0.0487400709350034,-0.4121817377108435,-0.22954905392982736,0.013453173282036565,-0.0086843730296297,0.021550356055263252,0.03141570962113647,0.07556553102138022,0.20551222221082424],[0.016100808096575343,-0.043586105527980645,-0.4460858556316088,-0.14676405449086782,0.0894773388151792,0.14343030148545552,0.09689693491948839,0.0659818473422613,0.14851462853149264,0.17766804161201097],[-0.07035684025321601,0.0817625908046646,-0.416102348932861,-0.07904559936119022,0.11011132611041011,0.10724810928831746,0.09512957037045691,-0.02678480476108925,0.03514177849345198,0.13328311821294334],[-0.01626880408220372,-0.018738124218475073,-0.37229197925061586,-0.16919294229776005,0.16678947840477426,0.0030264338317757076,-0.020122772217087612,-0.007080148145150373,0.12846814301591108,0.20255946123070415],[0.14500131785544873,-0.20907155592408513,-0.32366504545846947,-0.212677356707652,0.24159726331707052,0.30979726670106295,0.10418303250139903,-0.13745585757330275,-0.057047344158477495,0.10272185205230128],[0.00625693838478113,-0.1924384078362052,-0.30883571358022194,-0.07888230634037763,0.23384624521851952,0.3135795636416404,0.13099155345747282,-0.01525854915262467,0.036499422173096666,0.0223216034377982],[0.0480798209608924,-0.05510639676188621,-0.4701245853789169,-0.07739011612713718,0.269970636905537,0.23709073798354038,0.03376350805820452,-0.27875670446816303,0.29722039812088286,-0.08789196521898038],[-0.09718182105257281,0.2137161121715897,-0.3937854030359721,0.08157955387334508,-0.09247817417139671,0.08625242052636689,-0.060673273672333466,-0.3380911922224401,0.2133223248834085,0.07884345070362053],[-0.11468739681915219,0.3598482707536162,-0.3381270208703064,0.19156258770535142,-0.16116032679346012,0.06423254131592719,-0.007345213344850803,-0.1609991382472202,0.07456714419404192,0.11647108696450784],[-0.34503759740101597,0.3232909199074593,-0.231913391083178,0.2120657876417922,0.11232500157608731,-0.084902031866671,0.012095366285602229,0.0381440306863458,0.08305902659994577,0.10764876589499717],[-0.2975855378722578,0.09345799111642995,-0.15411391877575467,0.12962364477523497,0.19704251393165068,-0.14821968569080585,-0.11296005891342983,0.11835486982219205,-0.0225473217125296,0.06587026282238342],[-0.23204188881562038,-0.042973105440724,-0.15624044699251033,0.07343514528679385,0.23253064555535935,-0.1930435955258759,-0.13863642438920876,0.21056098741333057,0.00044774391486421955,0.1985261585172958],[-0.03821030663703347,-0.058909871145400576,-0.08932639153335618,-0.017661674411194414,-0.047748143227616495,-0.20021861900292548,-0.019938083010265426,0.13324739796853868,0.030391866778077842,0.386558696625656],[-0.09687274277030769,-0.04968279225954422,-0.08274653548628572,-0.05095033995581993,-0.029923780805170625,-0.18437445015367265,-0.04590537823378228,0.05299821953853665,-0.013367214023531266,0.19623330061608737],[-0.009595270718545785,-0.08963144103389893,0.06782445777143885,-0.1379952029671832,-0.07407844545038278,-0.21256866094025145,-0.019793536387656505,0.0490407527173712,0.07548274616272362,0.10389444024130634],[0.023268372253924217,0.02441136877718165,-0.050478640664057745,-0.0017852837872012633,-0.014329364979269425,-0.2798436779137616,0.10389475069913193,-0.0015031501462409327,0.14546749990696725,0.0982708517483594],[0.21350118805047485,-0.0662580538852945,-0.09054980484753582,-0.047604013924237215,-0.011872850881999509,-0.35436154978445067,0.11993911946243212,-0.0563493125090378,0.1841807014608196,0.01578135145746149],[0.2257673092487718,0.008880155528345412,-0.1698063299105948,0.01175937014031495,-0.05798520245585026,-0.3647873261013366,0.18268101139947926,0.04932781090033983,0.1664705408732148,0.06611427026966217],[0.08946660794415995,-0.03550852060413128,-0.10313254884664147,-0.08931094248383677,-0.057538748321850706,-0.1982823062337395,0.09110257609647233,-0.002022954823084393,0.03418542887914611,-0.026627798717183584],[-0.04637757730789567,0.07713243070125392,0.08319947373921419,-0.030192594911008386,-0.010145963281026755,-0.08406231997809127,-0.027200224401438055,0.053096288788897855,0.07270081807175396,0.010680571712469744],[0.07602839141373896,-0.02781951743082206,-0.042580823027406914,-0.06038350475678017,-0.010784540187105418,-0.017136426042914172,-0.07980141798180722,-0.07525506634449113,-0.04780973527896866,-0.052252635022357316],[-0.028788882465496664,0.06856894114684194,-0.05201861276828497,0.07330130847554464,0.06156863213094644,-0.01901993600547774,0.06232780834170711,-0.038019697635739626,-0.042292612726095226,-0.04009879087344064],[-0.06634762914663765,-0.025843672049192655,-0.042702641246191546,-0.06282426430210669,0.03232753335633286,-0.025587106952144254,0.056312169202677204,0.06152883156204312,0.029819497768994913,-0.023983138776581897],[0.08890429438650496,-0.03204409946023684,-0.03827187691774899,-0.06842761295765362,-0.051609225602457044,0.0031807228371961644,-0.04270631935393025,-0.025282150363755813,-0.023600561981048852,-0.03947331085230143],[-0.017107293091825744,0.048964663970686294,-0.04684975613815427,-0.02233097020383565,0.048607050335527056,0.0009054513470551538,-0.07888023165427345,-0.024827809017755328,-0.08483043418435289,-0.02842800137189644],[0.01176772997545679,0.09026877648207762,-0.08982066467173613,0.04919683814755217,0.040150037840811434,0.015263676991662296,-0.038568036292497526,0.0944133753875512,0.07902826364333225,-0.05225923685550355],[-0.051339450595583855,0.030647231535123696,-0.057671544035105035,0.02363951187959011,0.07466065119158374,0.0040434866692867465,-0.08548566273466801,-0.013272768979909012,0.007773485962704462,0.046126543913855185],[0.1043220634404496,0.08069199152310974,-0.27266148735055823,-0.07102848287989105,0.09621031012964001,-0.023114864528851198,0.044002752005577336,-0.012204575342403547,0.034953963903889274,0.20213758234246967],[0.1561771937759178,-0.012200586351440902,-0.4508253231690825,-0.04942383865175403,0.10261342574670074,-0.0383640447931474,0.1046189376785936,0.005719456744556447,0.005645504254694306,0.18533450597410972],[0.04486501007958006,-0.016329524662076333,-0.4147439335672922,-0.19126970129393384,0.16231994461308272,0.031760953077065876,0.04077252552885909,-0.025172561787492623,-0.03239975287596988,0.1721009667763266],[0.07968805889667677,-0.020797444914593063,-0.4211574088246525,-0.11564335034766692,0.21753709521129955,0.004117123742163234,0.04950609263320896,0.009596112079123689,0.008234245315159252,0.09047648025608718],[0.05688145068057566,-0.1219397316165786,-0.2090326319061995,0.012540648363176476,0.15018636026046323,0.1357783691026012,0.07658595667905242,-0.023002089510242085,-0.13914323185139987,0.1864623596435533],[0.12312485532572136,-0.24594759996618715,-0.12934829967746303,-0.03466577735414454,0.23064828428233355,0.22515744135149954,0.024506187352504406,-0.13163876056502152,-0.09744183567830227,0.011943955769869043],[-0.04408239823817224,-0.27531741196144255,-0.20885610040730204,-0.051772663894007365,0.31382352454420787,0.22199171493003383,0.10325109622201054,-0.31880902896024516,0.07654402160080245,-0.11958837957489897],[-0.08246043001840056,0.06425518611685817,-0.20214343710947585,0.08359830813657021,0.37119832388453555,0.16266001695755378,0.040131571470043335,-0.4211354343177149,0.223016415060678,-0.036949715091983186],[-0.004051371017588403,0.3317243835689702,-0.20335923691480454,0.16768630053452085,-0.04823584315803649,0.04572351536429463,-0.11457571311191253,-0.6233178239949552,0.1561189424792834,0.15157419111434095],[-0.19376083696762064,0.35778812909429225,-0.11959727097626631,0.2479451111742703,-0.16761579487272701,0.09823343643222782,-0.07873257348411872,-0.25677818172768657,0.20451335395785752,0.1096328855537619],[-0.33224736682701184,0.27215860822222476,-0.15819358245462892,0.11886173980285669,-0.09372800541775159,-0.043524390738650505,0.010048470249918376,0.06329332648949651,0.12532911924768067,0.16943674314366483],[-0.3812673650458197,0.23710541692174866,-0.1353553691507042,0.018998529694580366,0.12667094386447206,-0.0873842576072279,0.02043469175479699,0.04906511131537476,0.08082930844342148,0.12651783230004945],[-0.28921137778697414,-0.04317153531992471,-0.07141328933035677,0.1199925283800141,0.21257948847538866,-0.08100597685254955,-0.055776811984041816,0.06478096965287532,0.024099478656109504,0.14080725643272268],[-0.19367080618250404,-0.14004899922293276,-0.058433577648642814,-0.01632456093330196,0.04053587872757417,-0.09507980136803454,0.005829694798337722,0.08363002812311714,0.003798753100287093,0.22615817985434145],[-0.04926619545916573,-0.11146115479834524,-0.08579076561963762,0.07977200598301687,0.011988308582509145,-0.03515372153360764,-0.06811579682930984,0.0603051261780546,-0.019634621305021895,0.22876793120964342],[0.034160277894228534,-0.03606651985386926,-0.07653998432856803,0.013147543952907098,0.006486187473106153,-0.05927620044492135,0.11949256044934815,0.06777826482099573,-0.10342057052702233,0.14506270224248594],[-0.023793987362500223,-0.08271710160131544,0.04546542246719654,-0.01086908844987931,0.04162635329041874,-0.14490226493375302,0.09310268200739014,-0.03117769825930251,-0.018113423822417696,-0.03738107379545168],[0.19326870043333721,0.02659583257746933,-0.03948133786329342,-0.055720757253422425,0.09861214020804737,-0.23912393340399704,0.2530354724167689,0.11852543286207107,0.03125540991534714,-0.028624824731078996],[0.23805954129224052,0.014564975485370816,-0.17411424273272702,-0.08950426784650747,0.035927349508217944,-0.2984147279824017,0.2920492739284125,-0.07234554866534333,0.14792434250606587,0.059817899398501455],[0.15335692689967248,-0.028205349436861434,-0.03937803684715662,0.030235020375735177,0.026991044038189384,-0.12692639772898284,0.1372688222782625,-0.03425842013300309,-0.015004699842051291,-0.08333857526757785],[0.04816778064329643,0.05728306886512265,0.0791042056867644,0.041818099466548596,-0.03984168304630092,-0.011892309561625384,-0.03873511856292655,0.018380604892293765,-0.04851281912902189,-0.011623705127333324],[-0.06479082534910605,0.010293165165724831,0.015008000480114036,0.04522990959435111,-0.04508650428237626,-0.06061428055518266,0.052753198686412,0.06323795062408284,0.06903909087062404,-0.08650324897197335],[-0.041069578620206805,-0.04375389397245498,-0.030257536635838,-0.003309926656918089,-0.01520982243602956,0.07346118605152531,0.016603472749432982,-0.020972239001921585,0.017297176809405627,0.004856183545411855],[0.04249865482079308,-0.004779798377069728,0.04132909989749032,-0.07175381389814844,0.011429802304682657,-0.05087917288414251,0.07317423829160755,-0.0653318709933053,0.05336416317316141,0.06825458213168602],[-0.009363568497923623,-0.05794236412871768,0.06840492087327389,0.05967211069536131,-0.016002321412426142,-0.06335182478840204,-0.01354705581233725,-0.03372201278185756,-0.07311021776776297,-0.0016599064971056384],[0.07752102024876799,0.046638176792712746,-0.046906516590307534,-0.08059770499824497,-0.01626030598942263,0.03205754461135064,0.0034095190301220183,0.10300695509339669,-0.04933271454052771,-0.011947403063136918],[0.00803133796458299,0.06616124102823388,0.05300401894784679,-0.04772968343474512,0.03802983938201304,-0.04259642396243914,-0.0018484871450641259,0.054830116008190447,-0.09107989709694846,-0.026112012305184604],[0.07022517537979148,0.05799228373118026,0.01972278190899218,-0.03710381485201028,0.09426694005773144,-0.0015877531126619303,0.0010009661460954034,0.043977651443028835,-0.0022559910574250965,0.11630228300156488],[0.023465903785144508,0.04278735443991455,-0.2198233890066111,-0.08249320088428129,0.1534017085990611,0.056893758403091625,0.06957416674801889,-0.11366279727768885,-0.0911166208151038,0.04138784357178169],[0.09961184033069156,0.058298226988355815,