[{"b":[[0.017933631983915472,-0.01671030308979648,0.026926791966592322,-0.0013435533791006592,-0.029444454152576745,-0.007143652249421696,0.010245465937230235,-0.008460742550724841,-0.010500800885116521,0.0009231912748742296,-0.027381636171877766,-0.018904372299669632,-0.02007667818876232,-0.017248142604585497,0.014172993376890779,-0.0005442515270127694,-0.018063850543427597,0.007888410619725185,0.006124010008806845,-0.013641179368259405,0.025660345874806194,0.0029616709460848828,-0.025587885761321073,-0.001563099328117335,0.00704738638417194,0.02749174309843744,0.011401594561548198,-0.005130689305570643,-0.008313421658917906,0.016260079004532416,0.007569362049041055,-0.03023953174023909,0.007772622050832165,0.006493800133740435,0.022333301096539387,0.02702219799989327,-0.007751568123799748,0.018280720400166955,-0.017631445103342476,0.008277770441931133,0.036682443668760036,-0.0024346074303132135,-0.028140641251993538,-0.003877922936234686,0.020874100008723993,-0.008136639146453056,-0.0007613275564466312,-0.007250481726918122,-0.00609979100943866,0.03218260827541619,-0.015937659130895634,-0.005126905018641398,0.006978713267857657,0.0033515955599110353,0.019474209335879757,-0.015892988603215714,-0.010978312781039145,0.0008855069088921082,-0.02589874929496833,0.0013003811092190728,0.002070142465437118,-0.004445284541560663,0.02102205458565578,-0.0036109894756172827,-0.0011680140090969383,0.009645226630414679,-0.008054569893206815,-0.03310786250480158,-0.019612106988386002,-0.006495333872237259,-0.00016066980199177746,-0.008280815025399802,0.005649787412108805,0.01500829651701479,-0.0014653467727850163,-0.018424413939308458,0.012120127823276417,-0.023590477782022702,0.0060302669481220915,0.0271044260895353,-0.017532940624677078,-0.019827682587780827,-0.02822899297467949,-0.0026496883795717853,-0.008186172007816777,-0.0049566188383939015,0.02520895620977572,0.005175996162533681,-0.013691565520109724,0.0009361195467091816,0.022856402970887004,0.005684539840982608,-0.020804635829471577,-0.038188973919392626,-0.0337194129503493,-0.016155064377100938,-0.0771220166346467,-0.048547109839542815,-0.08015044205256626,-0.050901378921707804,-0.015891940343315897,-0.017363980010934196,0.02012702473343002,-0.023985363045099437,0.007286076367334609,-0.007748980018292695,0.0042384876415651794,-0.004240056415599418,-0.00592115195444024,0.006170799380150334,-0.0005628764632521612,0.0002223477495196277,-0.021502811808598622,0.021881446496158266,-0.022331678894128952,0.002875102181253316,-0.00040113638652816545,0.025548978877349148,0.015343327608967932,-0.025599990652178068,-0.038133822653686145,-0.07733088318977846,-0.0788802110558902,-0.11597104088415268,-0.1164717215981083,-0.11689196684713216,-0.11242385655211823,-0.11762606692127804,-0.08301460559310936,-0.07534423570323825,-0.05668630576851474,-0.06436966320089058,-0.05620562400460643,-0.04713511993686039,-0.07479246943872105,-0.0534955520497261,-0.008342578054875595,-0.01902851396474286,0.011535258012947866,-0.010301919227097008,-0.019532065042377894,0.023495717282716277,0.014356908439079726,0.003531271581101491,-0.0005184131218840663,-0.07628722951006536,-0.008349404105118127,-0.025170510176744865,-0.07262856996657902,-0.058273480085157155,-0.09685749786392388,-0.15592428403153455,-0.11187956380557786,-0.22649445559853507,-0.20141832227361656,-0.22965083151515134,-0.24138529634495423,-0.1456614987564046,-0.10674708793795656,-0.12360517302611697,-0.07649162410423237,-0.08937046841579391,-0.09192913673041254,-0.10338039435145292,-0.050598588307972925,-0.006773321017386678,-0.002466254914116095,0.00780928857592315,-0.015239289462732057,-0.007141076770869209,0.021251752584772438,-0.024539977742988894,-0.03413089016331882,-0.03390139275394964,-0.09806593177894636,-0.08550289797205904,-0.11181567209957781,-0.08907053556830041,-0.10906094187856047,-0.09189538889093335,-0.15296663417469242,-0.20599680162801992,-0.17077095239094497,-0.19811275792109528,-0.155275919991855,-0.16361580401360706,-0.09162038734697657,-0.10137118432776454,-0.05864115857929689,-0.10641599423964627,-0.098379284846452,-0.15305776399771961,0.006114327178199645,0.015113292973030747,0.016391350582858594,-0.005407725319019931,0.019124348861843426,-0.01364250440060507,-0.008058749442943536,0.003019719298324533,-0.036475178083227616,-0.1647234242644699,-0.10031122685947329,-0.13797423839633155,-0.10352071906129072,-0.11473193957477751,-0.11023730869250449,-0.1517935697834213,-0.1802677169927205,-0.21593665865032746,-0.21017984965884987,-0.21130395216854828,-0.22318131846920375,-0.17926566972500496,-0.13517754733884574,-0.12942347649935743,-0.14024408021706603,-0.06005219833937401,-0.060849134112904935,-0.11649333338483409,-0.05136528697863753,0.003259755271496103,0.04698526096865038,0.018932400660121376,0.00035848023859135966,0.004424012315317524,0.020055804440452546,-0.044748813523272334,-0.0610281739573497,-0.09766671605023505,-0.12395377416994775,-0.06184044707344443,-0.07880966632420985,-0.056739755852885834,-0.08481311746919425,-0.13438058496002495,-0.13086430309561936,-0.165976536572769,-0.23009555635536658,-0.3003251453982465,-0.2341292263195202,-0.2453371515528077,-0.19011967140873298,-0.1934187453053878,-0.115650191031059,-0.14099442622564806,-0.05215196170751769,-0.10356228061581331,-0.1612065497892294,-0.04446323901770295,0.01959539458306557,0.009827259642369704,-0.013995352585945305,0.019292888125010305,-0.014931075076086153,-0.04846346696024499,-0.03649683765371351,-0.07373555755855897,-0.01686029291249253,-0.01775170452222878,-0.045473318609091484,-0.10917104785515513,-0.13592329661759153,-0.1973000901383575,-0.07759992485250983,-0.15931588194355617,-0.340412890323518,-0.394162725126936,-0.37516701360868937,-0.30342105623957194,-0.23534627779737757,-0.23440697644500857,-0.19343529981429985,-0.14040949014722579,-0.1481893092761191,-0.12374615125434611,-0.20007149117626655,-0.15347861379068226,0.016942757401732605,-0.017934815418832146,-0.027879040423032644,0.0019896783723077293,0.03494703247358649,0.012739418941139675,0.012565901801804152,-0.042560163628489946,-0.01800966923575559,-0.08976165305398741,-0.0683515543953249,-0.18139061546068164,-0.17053299528748053,-0.20578246099746417,-0.1829676900619626,-0.18086509574934145,-0.2779042480740391,-0.37462479348624717,-0.34957249950216035,-0.29854773702004733,-0.29375745162723743,-0.2463463317012982,-0.23121560391202198,-0.11230312475215776,-0.10833705334658111,-0.09627561101655384,-0.13898626443032913,-0.11801838369495699,0.006206983885486625,0.012108002807029956,-0.010079612029598168,-0.014809693208569823,0.017771222905787233,-0.04014758940496783,-0.03746844415710142,-0.02974412268440526,-0.11739570311007588,-0.20694757304530037,-0.27508134757963354,-0.23263244322935198,-0.2001863204375439,-0.19258313329717502,-0.21039753117168486,-0.19461297592956983,-0.32084068876035277,-0.3256542121907166,-0.365138777307895,-0.28384895294158485,-0.26610317782197923,-0.1943629215711261,-0.29209882248570007,-0.2788883130980037,-0.2469826592068176,-0.13092561846642664,-0.09069120670995859,-0.02424557524320131,0.011861460850930578,-0.006378287106760673,0.0014452923675692506,-0.013615614101929182,-0.005482030569606949,-0.027039634831534685,0.020366457188390915,-0.07148118042190509,-0.251892785644058,-0.29081925487984583,-0.2590402009755883,-0.2858419488639164,-0.25598539024749617,-0.23354908333372015,-0.311285968889218,-0.2585544825092382,-0.3531536790897314,-0.38394739274398515,-0.31643652867347205,-0.3251308650739401,-0.22380678725175912,-0.20675461360506003,-0.22769075202672592,-0.19057449706436322,-0.2243179305444,-0.23204155437262766,-0.06799023149302692,-0.027110021737704885,-0.010650857768203488,-0.006009076485187522,0.0017167722817521527,-0.0015480959681900778,-0.0041670097460510215,-0.016072613682364078,-0.0250620380900342,-0.1752911057695842,-0.2399101012552141,-0.3066265578265839,-0.2898325716970715,-0.22170274758072375,-0.25180933366985064,-0.29526561880755187,-0.293206796372534,-0.35568308061785414,-0.27786818636347843,-0.271089702987253,-0.2901903246918193,-0.20922185706637483,-0.18589478006566112,-0.16275647641252486,-0.1342847478498145,-0.09105934686473402,-0.16096859401246108,-0.21485608575621945,-0.06685572434092771,-0.005482703298098518,-0.006288404791685706,0.030230398700314375,-0.025761481936346798,-0.01428525032599648,-0.001187349798941367,-0.03908627711087191,-0.06427085725467355,-0.12955686032829786,-0.18236983806228488,-0.23365400320478094,-0.19202465197274313,-0.2014732535833891,-0.2544242515972088,-0.2946049996036971,-0.23537595598530184,-0.24558869576055503,-0.23483377494255817,-0.21571355000157713,-0.29400745092158725,-0.2953409240658874,-0.22392480537153278,-0.21208038364320347,-0.16266508573548166,-0.12311670663991067,-0.15074257476740893,-0.18278877355172574,-0.10459754969758639,-0.023051049891361957,-0.019233149557914667,0.0002767973096386891,-0.010015331474630709,-0.009380125538105815,-0.030626287994410355,-0.0005767164985442352,-0.01337401890533467,-0.171853749282629,-0.20613418913125506,-0.2527595894052484,-0.23242152601610597,-0.24919113049256036,-0.21674805044033105,-0.22293294340022352,-0.15261401262830807,-0.19695365491492192,-0.27147589489701096,-0.2691099423265326,-0.2639734139866617,-0.3109430121751362,-0.2931118039331024,-0.1555052750403438,-0.14276333544458084,-0.19343458143654033,-0.21934965936615514,-0.10250230068484233,-0.016909585749007836,-0.0481425806747573,-0.017118254013599926,-0.01596800237192778,0.0017898226378390975,-0.009880561864278416,-0.009178117477776354,-0.0026772577138746644,-0.09042276864997782,-0.1527444993067723,-0.2082068055686062,-0.17492833353690462,-0.21063410652011036,-0.2258694619507718,-0.2253477984579229,-0.13999344081896467,-0.12007227212536725,-0.33763649255281164,-0.36263986904779727,-0.31225177783803454,-0.2603704381773748,-0.2506165095586418,-0.17675595305848646,-0.16813062753258795,-0.1944056740653739,-0.1809482969464212,-0.13107168839867742,-0.07025570332565795,-0.08540387775534156,-0.031347017300816904,-0.03659214374520861,-0.0025303320039404644,0.028869141230433007,0.0037708216549011677,-0.005183591857809594,0.012594903947901226,-0.07444444243915778,-0.15562685129144133,-0.0915793271937505,-0.1784485082878148,-0.23822085618183955,-0.28114757105566524,-0.2736009475066019,-0.2372676331590696,-0.17967861537212462,-0.3714257987398534,-0.26236458101428617,-0.24402288824502869,-0.1949756277585947,-0.15766402939141555,-0.1478303120785365,-0.18735429512938265,-0.11819277517732933,-0.09915794668877363,-0.05147741259234732,-0.0633054524367882,-0.08695206868203198,-0.042265993141903636,-0.009586687179365144,0.018996136419017182,0.020157468575602785,-0.0336881819590793,0.0034313884488494785,-0.021126100779892108,-0.10166840838474273,-0.16847973672045302,-0.16426475420721715,-0.1611171508114329,-0.21636877619641404,-0.18842188510956964,-0.29722697593337144,-0.24602582975362053,-0.2519887663793099,-0.26438678302305724,-0.26405596830464595,-0.12153416424694681,-0.14247376386303068,-0.12130747659902827,-0.17576137425816238,-0.10842655294175887,-0.13023300111315939,-0.11646475092887522,-0.10144834873027761,-0.11165000589733753,-0.11917283255280939,-0.054536084907632926,-0.004992987271017907,-0.02131144024496004,-0.02622871449337272,0.002844508500562121,-0.02955529596726332,-0.03148594083735631,-0.1186356781590788,-0.126958650250553,-0.19326150020238447,-0.12976723171096063,-0.16165077212718526,-0.15533364281060918,-0.23558800141738048,-0.2218935327918646,-0.21834606494089645,-0.1662668184199755,-0.18285910044658804,-0.07216428450944445,-0.12113026735940395,-0.1608319565942715,-0.1581945444723522,-0.12523147446486768,-0.16932166205511856,-0.09628230808622386,-0.08877016505183427,-0.06417987186851759,-0.10230723972733313,-0.03253121031733038,-0.042622625618459274,0.0010700824468020966,-0.00026525958876558934,0.027265557657866483,0.006316795827199404,-0.05197809006442043,-0.11712624630193448,-0.12761632132776926,-0.13982764598022981,-0.1600415887746998,-0.19859003911310988,-0.25362698890089047,-0.33771989648823286,-0.33652000868175547,-0.26314574393984363,-0.21024229893837332,-0.18659852426626308,-0.16858003646246333,-0.19258301550426615,-0.13905432293270825,-0.23613560927298347,-0.10823918277640553,-0.11947712781245878,-0.05032941190712037,-0.07490911477507266,-0.0982899515446975,-0.06284841603924199,-0.002972955456489828,-0.012107661901137226,-0.0005987147183177377,0.012415137591291302,-0.03115947245946386,-0.027970888344608848,-0.03324753184181294,-0.11639166419879166,-0.09172156725155971,-0.10904384073264783,-0.13068234457153316,-0.09610291227514162,-0.16350889069577731,-0.18532427929762507,-0.15669753643242026,-0.14757471268328284,-0.13145141299853552,-0.15598952008764122,-0.12851457629862517,-0.1723856384799632,-0.13774348390436247,-0.16204298805999212,-0.11931907454629594,-0.08016738643947084,-0.05190398383536517,-0.05226394230808906,-0.04524858738606915,-0.01248782948865036,0.018415685001476757,0.029047481128505633,0.0034268940131906536,0.007526492247223803,0.0017752504426439956,-0.023783328248081614,0.0005831048446628621,-0.05827568324354049,-0.13042465724572638,-0.16279178401428868,-0.12460462337429305,-0.07703484446245527,-0.11455625122093348,-0.10907102179652042,-0.13139655357214222,-0.11152962805433562,-0.10255019887324995,-0.051665938080481866,-0.10645702511189467,-0.11071606266681319,-0.1649909559385857,-0.16335899312584531,-0.10505322388414234,-0.12515299456253695,-0.08917433986747929,-0.11098382952492418,-0.07177548715183957,0.015683012510031083,0.014868803071075506,-0.03147751514915793,-0.002421501310789891,-0.014148111697396801,0.005664712986231657,-0.0069116777175787045,-0.008987089867911208,-0.06187471960307116,-0.14376490228644787,-0.11838638106453178,-0.07870620738488089,-0.10714756671098043,-0.132184899027785,-0.11894745390221807,-0.13711693047129822,-0.14946510699980922,-0.15258039427318637,-0.09971754842828616,-0.10671075957490046,-0.13353339224558197,-0.08471181914777971,-0.13675606512318553,-0.08349155235463639,-0.09958168119136604,-0.049540342512957525,-0.05202923180673134,-0.0003178869986740268,-0.005252470556698519,-0.026879346075392607,-0.011791338365078705,-0.03699132739965458,0.017121975216421018,0.0015165041227000662,0.02456182246632283,0.02045526802670686,-0.05064431887806216,-0.06357705782529013,-0.0970227042711798,-0.10035600203799616,-0.07497807137524272,-0.08797517679626202,-0.06850340612820405,-0.08533497725582079,-0.10685206333139832,-0.08676446739666915,-0.06933451063305751,-0.08556968564691705,-0.06279173402109096,-0.009610541030403092,-0.04598517635037483,-0.006887684032102758,-0.00816062451657231,-0.035483828970601684,0.02103658005293916,-0.021295251944161618,0.01861679119938976,0.02204539829964791,-0.003960604982838179,-0.021021241191305887,-0.0002771372652978771,0.010573613402304194,-0.005626522542776773,-0.013355227900683686,0.007431590669858396,0.008325537472475365,-0.009237232465810052,-0.07564805619595691,-0.0651873639245158,-0.05990932119932234,-0.10034731222258048,-0.07312860096359707,-0.08737370811893835,-0.06610635318459995,-0.07119635052402062,-0.036174891350474615,-0.05960851683285527,-0.03804670231604893,-0.03297027952583604,-0.04239715603647884,0.009457764005584339,-0.026978202950799016,-0.029445263074663698,-0.0013993097327444134,-0.005824515638747867,-0.02150212101975619,-0.0028352908850907107,0.015473525416970989,0.02599025157741247,-0.023020057575976863,-0.019349090696960888,-0.007938272933294115,0.00032283417666449784,0.03433033978318267,-0.001170287734953751,0.025387030926778225,0.03474569916046524,0.004330616954678511,-0.059582509476406795,-0.020517240124021115,-0.03326656012683321,-0.03762692573529965,-0.038905387064437906,-0.03159144182933384,-0.038853441330758104,-0.016042106502134383,-0.011498472552085465,0.01929707084571245,-0.005099799785270171,-0.02983184491738414,-0.012574746134176583,-0.0002495799567006447,-0.008567679954711622,-0.0012600673965266897,-0.00010070483985175896,-0.009040922813284384,-0.006713049070787461,0.0028278174448535046,-0.008501853890221274,0.005519213130108879,0.029011350722054737,-0.019146777504853135,-0.02453400494946306,-0.024965530896786253,0.017502962226235604,0.013712698893303047,0.010370783677630351,-0.009504563344726038,0.018854501069663725,0.0199167816500019,-0.010244941508127159,0.0010582573851099985,-0.019798470771665917,-0.016150536987313183,0.013128580508063436,-0.006113159789675458,-0.01697525099792338,0.01997661006671133,0.004687536242276754,-0.010886783574453619,-0.025847846029547497,0.004936676516630383,-0.01720027032679315,0.020797352508504837]]},{"b":[[-0.13970298513267007,0.06279791838076984,-0.1084162078857279,0.0007644989051202433,-0.08022935251883412,0.4272204678839767,0.0035032596243423637,0.0513175747544877,-0.12197166480412014,-0.09528350920734407]],"w":[[0.013235556609719762,0.045974002129254475,-0.0736928378046131,-0.05248460895242118,-0.02358107995824115,0.048749728046010125,0.075719425143931,-0.02215093494612918,0.011191216476182408,-0.008861310305560342],[0.04305841339688238,-0.027170164533630064,0.019197844644652174,0.035046709292665346,-0.055381202895971274,-0.06273857424886599,0.027472895652323893,0.0009578739624203118,-0.002353313518559312,0.05963334495370955],[0.0007907076773554964,-0.020073278601780625,-0.02085962802721911,0.07835578061086292,-0.06271319390668477,0.05746603500923068,-0.04347516919492106,-0.067221107726441,-0.004172998132024951,-0.08304721579605086],[-0.07191054404223489,0.07414070473259143,-0.051492810399383374,0.0258144846324938,-0.011168943300558969,-0.036944297367721306,-0.04116414589761599,0.04971641324976593,-0.002362787022879161,-0.06585635839509356],[-0.037176112528023504,0.06676363497127816,0.041853688725275756,0.02642662081130348,0.04680919629824786,-0.07389025536951237,-0.05460595485687833,0.05988455479984954,0.024778401033413347,0.013535452574856357],[-0.00964334147896665,-0.0668637051229786,-0.06884941772551982,-0.05071769936891255,-0.03629002311022115,-0.06287993111350768,-0.04442978973009125,0.03302021358989167,-0.021895946599408255,0.008153138177413807],[0.0784325532730431,-0.07129489734560229,-0.07072306557976661,-0.01634021405305186,0.07165763174411081,0.046280880678627095,0.006102018395477198,0.0345431520929304,-0.019656842595997964,-0.011939649652870886],[-0.07732355698195506,0.05405870651466353,-0.02469632647275244,-0.056922986982625,-0.028042241120980426,-0.04250230194733623,-0.01854875067869002,-0.06258903920183975,0.019732042491362605,0.032346144358529116],[0.06036370906383619,0.017874821286927387,-0.04189333724444829,-0.0656488237422138,0.07075396069528739,-0.005590485001666748,-0.013926135611268545,0.001634458535108989,-0.08259091049951245,-0.05006230372771048],[0.04108015168784774,-0.06520079758670178,0.06966136820347972,-0.06341324069305358,-0.0034343232363060416,0.02538873141477852,-0.052537972303920086,0.02786938615373512,-0.018652610145129013,-0.04160919211882039],[-0.03978026168626953,0.06808381268887093,-0.030065983303314264,-0.0528372533939184,0.03299051182300412,-0.08035724525942758,0.010150558065339684,0.04114256577432664,0.03467971047290064,0.07712117214411988],[0.05367656573891837,-0.05869431410340036,0.07555986516129753,0.012550876832555069,0.004387731814223348,-0.032784240585171855,-0.05657926968104395,0.07590605523640105,-0.06712997920091682,0.0790655588811674],[0.015412661790064156,0.07738624818468587,0.05493074928568215,0.05380213181497026,-0.0013222520161453122,-0.05278273551290786,0.018591841976722548,0.05974415408956445,-0.007710058333406304,-0.04634854062510971],[-0.0002484106992770196,0.02363917379053539,-0.04317302575945456,-0.056904459891675904,-0.023934856978120946,-0.07000528582010036,-0.04744745178766779,-0.05051817295368573,0.05085410682867752,-0.07853014990261656],[0.0643892594130987,0.059476514427218075,-0.026475687637190676,0.06896172393167534,-0.02153307897287634,0.06132030987809716,0.0430485293611375,-0.026688566916194447,0.07529957481458766,-0.014252128005658107],[0.06165506047199711,-0.0071779751891888266,-0.0343095019133444,-0.029612638906026643,-0.005093681439380082,0.010379002355274251,-0.002553875606169531,-0.07202959666341155,-0.07619842228181593,0.011019714513498766],[0.01705804705161283,-0.07042795893784755,0.00022181883793273018,-0.04228303423920582,-0.0514833232172798,-0.08587665346007418,0.014528184234712232,0.0002850168477461463,0.049356990162097734,-0.010976210155587172],[-0.03170183809494748,-0.00038460626940521885,0.009564347324114366,0.03772038417577787,-0.010167112559284826,0.030737336419508286,-0.061491640462291414,-0.057999667354555876,-0.007440849644415312,0.06306863931018825],[0.012812864174797373,-0.06934059543709337,-0.06780846050795215,-0.0751596746762654,0.062403696561041576,0.012350351516546839,0.07488198783049017,-0.04378499724428301,0.02984736358268585,-0.011797011935305626],[0.08395632574515033,0.05049482639884208,0.03150378721307,0.06476264562075246,-0.04522471611471663,-0.014297457628944549,-0.04669575567951607,-0.03946851524069008,0.039388527291925234,-0.00539268332085907],[-0.013243558547279868,0.00048292235507127473,-0.007458222734288271,0.036054444350356527,-0.04387048083665493,0.07050235386553567,-0.017430726961740348,-0.07768019688289125,-0.03378353523053699,-0.018033385293517282],[0.024959074309184686,0.052747072827298534,-0.04237016970410216,0.06434693372836914,-0.06564482593686467,-0.006959974937856231,0.03890843261252798,0.028982445494419227,0.06432587864118024,0.02719280172023115],[0.0260332602177871,0.02000714308245726,0.04665419159513276,0.0804926014180203,0.04269520620816314,-0.061925956534739354,0.05306387137674429,0.08101059130820469,0.07549756458950922,0.05331113685915884],[0.05716561876670706,-0.06938967485624585,0.019301285255059912,0.0626020538201331,0.05856549997253042,0.012027796663474031,0.016527654755146736,-0.06971862174837291,0.044549177395594615,-0.03833191538002367],[-0.02163822604969545,0.02304044614374524,-0.08139765165121653,-0.026921400663671973,-0.060862220461859004,-0.007966961025770068,-0.03897881445141608,-0.03262577051916455,-0.07163161005811733,0.020749944008116934],[0.029456101201712766,-0.07679758602650127,0.012530649789291205,-0.06982681414011202,-0.022136714358002546,0.07438164731069319,0.06000513494795866,0.038078913790268135,-0.07534491568247471,-0.06690424318453056],[0.008842486303157414,0.07364688730839575,-0.05115258383908197,0.05799975346427629,0.040139550709924685,0.048917819842154125,-0.02883669584349214,0.06721314861632302,0.05506968643919744,-0.0480625901582613],[0.03969590525605937,-0.0283814152540365,0.05702192510246729,-0.062058454047559684,-0.014072909527853032,0.005147351975583991,0.0457292153504888,0.06166769777881384,-0.03305915561274826,0.07383541146282291],[0.047203455524798266,-0.03037882105232906,-0.013509590096544191,-0.06373129332401822,-0.06628894800693999,-0.04416776772796124,-0.02821984418458729,-0.017254660916287863,-0.025701696481559913,-0.07650664794071037],[0.018610545405172384,-0.025266861341856614,0.03919808817012235,-0.07556594530392874,-0.03805209615527161,0.056877396715024994,-0.033124714989308315,0.07134800383072247,-0.00476481013300875,-0.07346862071298342],[-0.0740233407543949,-0.07361272637874325,-0.020612161841796078,0.022283390672400195,0.03324422031714967,-0.012449778031678458,0.0645380478036703,0.07441711332279304,-0.026036686966490166,0.08329247175094594],[0.05606361080778644,0.05238628949504169,0.059564429597022205,-0.05877543132153486,0.029746099532960396,-0.0589753801921656,-0.0011628855865278894,0.060304962529638385,-0.035896334975307136,-0.056496393279102664],[0.08386838746954811,-0.052256745638737244,-0.029964395357083493,0.03441062368084233,0.05797861281049417,0.051970431734336624,-0.07395102966005186,0.015948766179417775,0.06091500100151906,-0.06509605059768225],[0.040833608490519036,0.0375168609001716,-0.0324465876814535,0.035769490446379164,0.04156657279870127,0.05518075182005446,-0.028733932334679958,-0.010614222471185406,-0.009058249357264007,0.07563063493001478],[-0.08192248614814138,0.030512318616702967,0.043745262348115675,0.0018996947045194575,0.013957102515932096,0.0677538841147144,0.03303884431910574,0.023815161589337778,0.05483665216739235,-0.018159397843494057],[-0.008171286800306522,-0.07408827567159869,-0.005243626986932056,0.05366802964825945,-0.11777148357831739,0.05276157141890753,-0.00734227500702145,-0.03418678314312254,0.004807955806968065,0.06873909327857446],[0.04631864084810225,0.00788846800874621,0.00005317989198481099,-0.06455968335865107,-0.09233704239650287,-0.028262817826681597,0.020361046558425726,0.005483697564789934,0.04109863117119439,-0.01690125387953997],[0.030755341149923666,0.03997085488526705,0.017550046945341125,0.05659626268627648,0.021748498325436,0.08133375517956087,0.07840817089842317,0.07986327851186319,-0.021063872680119125,0.04972099153012648],[0.0650805451396648,0.048779377554590296,-0.03616089569345916,0.042629320348358694,-0.02940615364311333,-0.05913100311852945,0.046636133785587244,0.052140287846394844,-0.0356786478193055,0.008804633152676603],[0.036665664951048865,-0.011301390853944772,0.047135516367370865,0.046628754246094375,-0.0556568715283125,0.035977425337476276,0.020957683266857274,0.04624633124413461,0.04559484657769355,0.07292829879022536],[-0.043134463268335435,-0.06819383306135537,-0.05448314378856925,-0.06065685623957923,-0.0009921980128587355,0.07534811911766524,0.040802452195568766,0.07836851051996944,-0.035386723749855714,0.027994360709437636],[0.0012907904008597187,0.046786811133902775,0.03193494670436023,0.02519150479986766,-0.03081719607311908,-0.02135037220664642,-0.014686295483494819,0.013951258220172296,-0.05594945876190243,-0.031410887384228744],[0.073370976279781,0.04240514760454669,0.01729755544464426,0.026505704822392666,-0.04885990000605702,-0.07446646616468525,-0.03428323682881638,-0.08185902091670634,0.04220838001149818,-0.07949501820102764],[-0.04084809048219625,0.09808039245155953,-0.04842486142592414,-0.060964382684665905,-0.0019156126924824149,-0.0018469922413453964,0.06452380970642106,-0.06393062660957004,0.010690531536018106,0.04316579243616429],[-0.030567900758688864,0.02154501569365862,0.059965026103986824,-0.05313345903538421,-0.05270697969578043,0.07125326091821003,0.07610682608542389,0.043084465423063545,-0.06807545602915577,-0.003832924891522264],[-0.08286580657704472,0.043397645601784524,-0.060033165608339704,0.05100516679753286,0.02088836327283262,-0.05870734123160994,-0.054091523196064695,0.019394866760791215,-0.08339872887627314,0.05800045358985608],[0.03606314729474322,0.01163300022784589,0.0797886933097732,0.026002558774244643,0.06510051876867423,0.0462897126390577,0.07429103346926183,0.005882295614821171,-0.05183988385631218,0.06406835446162802],[-0.03779130680804391,0.0008498188901008396,0.03527926308642453,-0.04382166175885903,-0.037400338018088064,-0.03575442101765212,0.09179143358466578,-0.0020630758570266785,0.0259032149833862,0.025478951250143607],[-0.07553887875162663,-0.002690148290523396,-0.07752334990326616,0.058276897136476914,0.02845373429285372,-0.05930398462907509,-0.015816470961962023,0.012032391525905484,0.01655782115359041,0.04897176560127441],[-0.04068454716610479,-0.03192559801006326,0.05124735126090095,0.035312188465263655,-0.08410755482834639,0.07442843291168297,0.04879158736136578,0.07549086031569048,-0.056626912987575384,0.0028937162349749385],[-0.043507916531244556,0.05198518862079222,-0.07663976294527611,-0.019694544287923842,0.000588256169393971,-0.07429045428229385,0.012362626545480263,-0.03098578100473235,-0.0027251745574768966,0.028673659398152935],[0.07769434203344297,0.060933032267044926,0.06434618523305845,-0.014915513819552532,-0.06625162206761383,0.015358371151291753,0.055223365818952146,0.08191501810989785,-0.06678003465331389,0.04035854349479897],[0.01914946321026521,0.051926310366921274,0.012297615554483915,0.02718529874953626,0.05210647609156514,0.06264397760889324,-0.06460392355220237,-0.03300868725603419,0.0759096262178916,-0.06495306238100816],[-0.07375628875721758,0.02847831866601314,0.0010110178104612985,0.04574603529519636,-0.029722423674796467,-0.02164510592357908,-0.017876607530793835,0.008087075734059958,0.01925873478329057,-0.04305723274360225],[-0.03266076083815327,-0.07527991119205055,-0.003073422491150475,-0.06650397471485851,0.041453701893781024,0.060744104957824334,0.040293541351289375,-0.06766714498456976,0.04809401931624129,-0.005213312183828829],[0.006063911250340033,0.06270558491226441,0.022404166757861384,-0.0723694784263893,-0.07564372497768684,-0.054825625859629745,0.001332182150126798,-0.07299132481756469,-0.05971065450971528,-0.04018159263888431],[-0.06766614624666889,0.08066155333329335,-0.03354907448223526,-0.07482995236027559,0.04198607786478905,-0.035595480795111954,0.04429569491538643,0.03974407397524662,0.0446722889144574,0.012135958135785605],[0.0751949674882544,-0.035638090475806884,0.009017848464533742,-0.05694458557860644,-0.04709248531969462,0.022217344459772224,-0.0614310779524648,0.033109104482441774,-0.002217449188593626,0.019728056886447676],[0.028007022117877107,-0.04037011598909463,0.0026220597819754457,-0.014177409387813396,0.05443603566052081,-0.06491796460997676,-0.06841157890263895,-0.0011070198426918676,-0.01857809801311474,0.013585932619420652],[0.05573504007833572,0.006811053812718234,-0.011919522205218636,0.047238105114348686,0.004526341845635782,0.021532640340824347,-0.06091834442134604,-0.07112683562404336,-0.0271359629143157,-0.044475797616633936],[0.051440747216914065,-0.07578928169264114,-0.05340056913866311,-0.016971786242629565,0.03271930551284603,-0.0019966786833869213,0.07384884427994108,0.06643628508275734,-0.03314453210600957,0.052416385931812345],[-0.046745552631611606,0.025429314888302964,0.06431377017936343,-0.03701964082649687,-0.06317739181401089,-0.025626430520264126,-0.001963960993367291,-0.0297538664224367,-0.004857164223703687,-0.027684936012165828],[0.03821079630382458,-0.03248766549807636,0.003832622627963907,-0.07728695061762345,-0.018102146080484306,0.07863586889498266,-0.03680516513288284,0.07101668307834345,0.004475952814307919,-0.004638788138862749],[0.008900694976927678,-0.07231066625787513,0.011813730132340203,-0.014353860392635698,-0.10396134868486566,-0.04918930406781323,0.05075199408562041,-0.035676669365287385,0.03959621343366295,-0.059963807015131716],[0.016221209564766727,-0.0506958879700324,-0.04578365246776167,0.053012123576884694,-0.004079119420288973,-0.04150178435736262,0.08542531623017004,-0.06870580055060813,0.05711498882792248,-0.07067905405700046],[-0.016164014070382232,-0.0006438195583285744,0.06658607886882374,0.0686967672540946,-0.06053371294461322,0.0008898520170775786,0.0665626792404583,0.07450863337734674,-0.042808687998039156,-0.06470237006419412],[-0.026361892696818087,-0.0493716745086377,0.025654761116901695,0.0051240156891557915,-0.16118183677866288,-0.050003327527685666,0.1805137516581458,-0.04542494931276957,0.06782822416209279,0.0003441076495414034],[0.04691911886902582,0.017689681132613978,0.08988501081997383,-0.08369083508614007,-0.2104414140139972,-0.06849455003492538,0.22052528097730625,-0.04780598525752304,0.02289620820647557,-0.01441229068194851],[0.04524044151232312,0.034517913627886226,0.06839279535716022,0.009116023451625278,-0.15259343389406874,-0.05579201230568934,0.11641404832914437,-0.05162022451284186,0.049756936829790176,0.023233363267305768],[-0.016322568550621492,-0.0634694504209942,0.025020890395001303,0.05125782106405244,-0.20937183802448917,-0.07460460040366207,0.09521022081484501,-0.033175698031640825,-0.03192492644462493,-0.06169742105452701],[0.008037775281150345,-0.0018489872633144855,0.07295889078570697,-0.0713906534381171,-0.1967857302851006,0.04647091398100251,0.23736146491994742,0.026335631000169293,-0.06564515589561219,-0.03253589610076893],[-0.005413409005914465,0.023001033229007956,0.0601897711201675,-0.017947633515261165,-0.08058657629503281,0.008427170710761659,0.2029003756752054,0.04014205806496773,-0.06919337051533588,0.06398783983231243],[-0.05259655977803763,0.05776214568725875,-0.0018661496008613298,-0.022492259783773092,-0.1941686378692908,0.024282928467712225,0.18397801129886976,0.015453276427148652,0.04682421658338022,0.037733201365021125],[-0.020449344341196312,0.026225879880812375,0.09517240410486272,-0.03289033357655144,-0.09147691277402842,0.07183706818703206,0.12927678359728084,-0.06696477170865603,0.024984363277768287,-0.08425005771158546],[-0.058952766931031166,-0.023368240931305163,-0.05724404504751474,0.06716420511830513,-0.08171609075881259,-0.08028275669035266,0.08999159407094916,0.03084965244481857,0.03364960128633666,-0.024874192832776455],[-0.07953143422192661,-0.08491755092974176,-0.015945937463801477,-0.0854019226882064,0.024905178191186407,-0.08579060035586514,0.16758338983176452,-0.04260510993144257,0.01683665791031734,-0.021771821006526887],[0.05409940476166496,-0.02228808155734927,-0.03266849696651616,0.024178733643882122,-0.07763359866863949,0.01761926412875994,0.1375753007881431,0.020069901069046617,-0.025859265842845362,0.06077106073777253],[0.041257729738346044,0.004812863045073192,0.057170078466984936,-0.0023513526700909273,0.05915876423512232,-0.06170436087608672,0.09637486359747394,0.0024824466804779094,-0.03291025847981303,-0.027183968980171253],[-0.039252736330392314,-0.07815908344477232,0.03526292170276636,-0.013958532432065737,0.04774180296128519,0.0033565883391869465,0.02408034596702546,-0.038245034174749656,-0.0368716507348058,0.035484787426286774],[-0.06888816845180658,-0.07602043604168,-0.04184738834153959,0.0660427244137462,-0.033769572918494,0.04279303188258838,0.00960238969720205,-0.05985961461433598,0.04042302215881667,0.03279489861172915],[0.04322023248850279,-0.05309445278255405,0.02824295272339256,-0.06141558431730594,-0.057682080199768816,-0.06074289310515226,0.031496274771076534,-0.02739219503331943,0.08241088718541167,0.04202897167937056],[-0.005783186116514624,-0.020387363385990887,0.08463800180108759,-0.06723777625070329,-0.019647086103281183,-0.04049439609379974,-0.0764260831020999,-0.054378105363986996,-0.03897632047929454,0.008027083922493431],[0.07304981921503671,0.013934819755326932,-0.04767725534499704,0.01683447692340925,0.00036659014154445424,-0.08179472464340311,-0.07069273812051641,0.0617543852426533,-0.004419820406876105,0.00896230439121005],[-0.074299029075166,0.02426895767382535,-0.04354954133784092,0.0004652854470419694,-0.04441298631367351,-0.05291469529335476,0.034496125209919896,-0.051025177853452966,0.05898655970921938,-0.006413077251488593],[0.02573884313435551,0.08547056106743177,0.0530770162017688,-0.0731309241839175,0.07030962684746773,0.04419402709095983,-0.059076779738715814,0.08378351252618418,0.03063994319692252,-0.004415768595830109],[0.04779161507490244,-0.06089099317015349,-0.02556370320468671,-0.07228711579706178,-0.02979563606848382,-0.016882802953760823,-0.05905009267215269,0.012289013218528004,-0.018004211658180412,0.007969229366895108],[-0.01879880133750526,0.01082094342773626,-0.05214936329680464,0.006959663307256771,-0.07643410051425155,0.05955470511687128,-0.014817640572030473,-0.06424679546538951,0.006288288445083589,0.04497867914705052],[0.09485397966454967,-0.058953551492116445,0.017353169975353775,-0.07240815907453463,-0.013221078075985514,0.037072734274237344,0.048078378356278755,0.06052131222085422,0.06381067346248882,-0.039473715289886864],[0.013515078192434788,0.01988281960678713,-0.05165693172714071,-0.049740105458585836,0.006237954270168306,-0.04659583839589649,0.022355807609809795,0.04553722999414362,-0.046716102542861564,0.04820420045658683],[0.02479794295469835,-0.0624169917244317,0.0007895776433692184,0.05086673882716305,-0.03406339072937541,-0.03314671283074434,0.028229118916969772,-0.018794645344039018,0.05524474142323298,-0.077523194827752],[0.07186829747498033,0.0328710100689389,-0.01348336362935349,0.07513657352654411,-0.018952016541841664,0.07775365166503179,-0.030802201952491583,0.07057064980655446,0.058239227917498644,-0.05799263974530267],[-0.01593097306569789,-0.07660081988503155,0.09422711252117973,0.051329108979967376,-0.02482716221942956,0.01147061348023095,0.12339908432006877,0.027896270690492535,0.056262010707017626,-0.006779373512811483],[-0.03576728015232228,-0.014623915940919944,0.14473567868734363,-0.005083385452229503,-0.09431153039255367,-0.07404567270133182,0.12553657554826478,-0.01801445086260518,0.01963440761154677,0.019186580261137207],[-0.029856844468440964,-0.028116256876038446,0.1583267927926109,0.06461467035077864,-0.09507535262691222,-0.13592495327866344,0.043756343296974684,-0.10918558998768634,-0.06479042820960368,0.05294181753493468],[0.036750564129800566,-0.040423335384951395,0.1479263636159132,0.12267057033555447,-0.20498025063519193,-0.11685499894287486,0.1423184671864785,-0.03397309234827485,0.030149647195451837,-0.0899047190220287],[-0.0705238885326189,-0.09067567315667642,0.12114383318250244,0.07619598202440138,-0.1747113717863751,-0.12625899376674352,0.12919149288339982,-0.04653946677048138,0.037383226654047245,-0.06197040374664925],[-0.09391040864040032,-0.04334949996745228,0.24286483857848712,0.1802479238033736,-0.32014727753242744,-0.16512253903767687,0.08407320533992403,-0.018093306034005753,-0.07301091267413602,-0.028723466981733833],[-0.11020178915775843,0.023983790714086538,0.16123663242643982,0.27532732720759046,-0.33579858176561855,-0.050414851147631994,0.29575030761144533,-0.017821823431786142,-0.0020846355164759684,-0.05498138282389123],[0.02844991146962736,0.07543355385575243,0.17231556138428092,0.20719997659219327,-0.3767248292917363,-0.025494696576103988,0.3226450797540742,-0.05666495728258227,-0.14266862468045105,0.01446567881299272],[-0.10100220037524399,0.006150620810340261,0.06181611390559073,0.23812187232804796,-0.18095638526226737,-0.11407593149947766,0.14518980599688194,-0.06353367346362555,-0.08293172871312743,-0.05027973588009632],[-0.009753933382825507,0.008759605956638154,0.05331564700418661,0.08824029520892651,-0.24270016586157464,-0.007817766174036098,0.11924177844030914,-0.05409487445431613,0.010778982682525284,-0.13564611554449044],[-0.01748367112324123,-0.1909180163019796,0.042100994576839204,0.11900001901003669,-0.12236427002772883,-0.08458172068488054,0.23408874593861803,-0.07399206801764059,0.019671658324284382,-0.018732077429603745],[-0.1136900783754858,-0.08144878616641066,-0.0834542441816352,0.03476684778320834,0.022724103177315606,0.02955858525280258,0.26933921587352233,0.01144819669640622,0.0353030796996038,0.0007815623043139384],[-0.041310550463039865,-0.17722210880660402,-0.10324301214110086,0.09004509752410347,0.012998486999427114,-0.07837737519254985,0.3304748691607122,-0.06875338818265919,0.07309473780372192,-0.07446148992548418],[-0.06250454464807746,-0.11084820693141503,-0.009846939560464323,0.026425915917150513,0.028497710851905073,-0.00010126772822257972,0.23588217644134093,-0.035475872461405884,0.047305422169658294,0.01505667753043251],[-0.11097742457184566,-0.14858171387713026,-0.028750062782406435,0.00046165499763634586,0.06864705037259346,-0.04407496381739851,0.24336533229536222,0.026561747087411828,0.03480383861211917,-0.05570624564268646],[-0.03688395412657733,-0.013137162290297844,-0.032453776259377676,-0.02644514205200527,0.04438377834853736,0.046572098693518034,0.20198379827842652,-0.04962306958074359,-0.06387825927896755,0.03690427643276569],[-0.0896932389281305,-0.03398540037190412,-0.0393369161883176,-0.040914234546644855,-0.07589956530880594,-0.08740856265898556,0.11410995730522332,-0.051706741061144666,-0.054448962231105125,-0.059788025469501536],[0.06218647173910047,-0.04042542843097292,0.03961547527543968,0.06148141296310849,-0.06332591315631528,-0.02983315126830978,0.0004216364549790841,0.05116756353837288,0.05812909033661997,0.01982337526335524],[0.05491249922386154,-0.01555548870406554,-0.05429935398146224,-0.060120927623124744,0.037849496094911214,0.026274818229829997,-0.020796831312755185,0.06724453885490866,0.02210360654421556,-0.03371150326681636],[-0.08835561239402193,-0.07194175236017589,0.020273762308710586,0.027164612550698446,-0.0768564393563153,-0.04167338958203797,-0.0780055955706995,-0.0519037034478108,-0.04599939875987757,0.008096606502725284],[-0.0811092937058034,0.03727973717340595,0.05134447231979051,-0.0019994905565975827,0.01368057800689622,0.0031869049650172857,0.0175272111675152,-0.05140176914581184,-0.03904137527766731,0.034186686412412244],[-0.022159096353769066,0.05537438126952042,0.06706550079067765,-0.0139466109547607,-0.06712246140058137,-0.06527711994499229,-0.011484992622287235,-0.06818955640406121,0.06346363339062663,0.0022476451344188688],[-0.06550343843483239,-0.007205693069361077,0.043954121408359026,0.027536160441504476,-0.014785838956224895,0.058250173998188846,0.03631519858530603,-0.04436719233189866,-0.014080161064996823,0.011847926209578322],[-0.024560022263711952,0.031143952390512146,0.011722357807688063,-0.02500840113295887,0.04870861444269625,-0.051791755251106304,-0.06788570395301724,-0.0663872403768035,0.05442618927671993,-0.026593759268569123],[-0.0610791517679229,0.021334379145223757,0.030025028071984643,-0.0019163694381343797,-0.06412765377983719,-0.009129622376202327,0.012366558551373483,-0.05023785969141947,0.07261238205883407,0.008389151134358199],[-0.014815340524994034,0.07200682236274625,0.039573333259871175,0.08896605605815133,0.05321650020175122,0.009356150431738932,0.006165267739465274,-0.025588039282557488,-0.013018473428653591,-0.07447220932331923],[-0.03992168147507537,0.034793646143974476,-0.006423978732570708,0.061920330113840925,-0.02555769988038786,0.017222506131983558,0.0032869687109577323,0.0677931252268693,0.015298210307693495,0.03907776499632214],[-0.059354533888720966,0.0647654017667154,0.04400919425650164,0.17998001480968495,-0.06951245824768261,0.019613655691661812,0.05171296063637478,0.01235206835155732,-0.08730242818781604,-0.039041598194974374],[0.01798563153651864,0.03611909571390102,0.10000541627216265,0.19572008354220066,-0.0776224107298874,-0.08551378124273125,0.011174626161811328,-0.10166308406358546,-0.022834865644054802,-0.02935001785933139],[-0.06663004551918862,-0.03371534104143185,0.20862145243904523,0.19052765490210036,-0.03547633817530469,-0.1542997820317999,-0.009506409192523399,0.022518539606689005,-0.046536343686309885,-0.06330572024879928],[0.06043848917785071,-0.01110820072599392,0.23036483650076792,0.19919372751261255,-0.11073963193984927,-0.19950078036225743,0.023858221513123105,0.009446414923518314,-0.0685387812756905,0.046477048609715764],[-0.0036649266565230367,-0.05887963687506614,0.14952767528352848,0.3219388080069259,-0.25071333793499817,-0.11497988946787302,0.02724053807202481,-0.08730948911294822,-0.06906808764733854,0.0065113029308486265],[0.03523373003787408,0.07995797060908842,0.17344101549475674,0.30778393969982626,-0.2507638911581698,-0.16678037575849589,-0.0026096787454001945,-0.07710829417153581,0.013563527138010987,-0.009081014410326698],[0.004265500877241094,0.0369459413764757,0.3086406844403461,0.3243226552816115,-0.17815338151580792,-0.15020524277835792,-0.02046565865874088,-0.09403964073690671,0.08249564201014901,-0.10418534529489207],[0.056600710498078875,0.09667646877740574,0.23823246719381916,0.3235517054174287,-0.26119605389969086,-0.08566735832080749,0.02895239202310462,-0.12844023681155164,0.12643561581927268,-0.12924135331071568],[0.015286354254015408,0.027489018160866623,0.08350088742066991,0.19845051518935877,-0.22100092279943667,-0.15026795671195695,0.09165558989173014,-0.10847691156981201,0.1593912485929415,-0.3135308515135185],[-0.0669083364816867,0.0838898817857966,0.2064501388746808,0.23542595833344257,-0.12401400731075463,-0.017214498723350354,0.09013778707580332,-0.16080851425170492,0.16192151516284445,-0.2977580445032514],[-0.09814732554167649,0.010002722186330845,0.06391217469716612,0.09113512224707185,-0.1001653526891611,0.00215696137280183,0.10131414992890202,-0.1766583957263004,0.08093779362223977,-0.27509961991848264],[0.017281369757373606,-0.041380310104534676,0.06004245394457086,0.007457625815072161,-0.03709821285524608,0.08788458728336813,0.008084309497184292,-0.1782180795544927,0.06897873029786462,-0.18301010110101731],[0.01278498923829544,0.029963061329314956,-0.02395399792914267,0.030955552345185634,0.04564680888176598,0.06821414916046036,0.28796863047521065,-0.1047437552565239,-0.05335824841275841,-0.18516746423430014],[-0.1704766742782846,0.07228720683460947,-0.10165184291244252,0.039143519859064634,0.05785371147995779,-0.02906571381253222,0.3646427745862112,-0.05378853519834224,-0.10851650781871565,-0.09172356519155099],[-0.03680793592877306,0.06401450211998615,-0.1228313664545509,-0.13855164666436484,0.08511548414428127,-0.09771149032279504,0.30687752938104823,0.01181743953904889,-0.059065767503865885,-0.14306668725664398],[0.029405342622992714,0.056992965042771446,-0.052721600733069175,-0.18627289478414105,0.021763405072137497,-0.05915720888435636,0.2995878412124163,0.018431505844149685,0.011185223393453353,-0.05816910521418411],[-0.02299223269200688,0.07025433900696114,-0.07192469411327644,-0.17044064952500534,-0.020911440968499537,-0.005498212091007763,0.2710492927938309,-0.009371098546403275,-0.07047903104332995,-0.03637055604750316],[-0.09232687138555308,-0.017441282222358245,-0.14564579660323113,-0.15571293448705736,0.04479028824636581,0.05411892326154913,0.18311282184653896,-0.06796673708733764,-0.0590097011052783,-0.005660269619051322],[-0.08129677776154465,0.020218356446211744,-0.11441652055886506,-0.033426388294303964,-0.03481011424643686,0.02010518626598148,0.0888919382932215,0.06547013460214314,-0.02076217658679124,-0.07664926412078393],[-0.013987239628184914,-0.04155940371953623,0.027170982530543245,-0.07832169787032318,0.06326825873220535,-0.00942688430014585,0.0118545028483929,-0.017089310908657566,0.046363592398634586,-0.06603865410730751],[0.06617016033669464,-0.054625728028655805,-0.05265398733414087,0.02751120032564988,-0.08240613462804938,0.010032865074558273,0.04547891824641229,-0.005423355936182143,0.03788424021093335,-0.06505448023214724],[-0.07669419988134991,0.02033306837325396,0.024910711590420458,-0.06371720698673221,0.05234783887639994,-0.026638421120028954,0.0306575989672526,0.01979453273607627,0.0057088457311266876,0.07868166372929347],[-0.06799430144856569,0.013773184105335222,0.04552793400900082,-0.020820285006074964,-0.003090263727101447,-0.07696685811937574,0.024240229373489897,-0.060798257525113975,-0.06792295894233025,0.014100866936049467],[-0.018755203324214122,-0.07713010765064991,0.02410287674556675,0.06769572877728502,-0.051714964086527995,0.029533237912862376,0.054035014039905994,0.030956495052412013,-0.05676362022657326,-0.042344723651511554],[-0.03342982827869341,-0.01778892186155449,-0.02094395436245152,0.014146604697334572,0.06034001535856702,0.06130285778864182,-0.06800080067254437,-0.0705043464066954,0.06090926070331168,0.007738341652575302],[0.03575041531337386,0.002533342129799027,0.005822968084738293,0.01756974917054122,0.046022339208520335,0.04302195186327133,-0.050297728000677853,0.04081342478565337,-0.07438743551638226,-0.04344732679363805],[-0.09773349875385293,0.026436715396857463,-0.07300648078391517,0.07002585537500433,0.07715674845807648,-0.03114450484857839,-0.060690412844199335,-0.07676039185142255,-0.03807231306019858,-0.048242307495138415],[0.05451739096971642,0.07178184714080482,0.011209479687814832,0.18515188933210772,0.0812392725409614,-0.19356182247520148,-0.09467541196556734,-0.084002371175493,-0.050307747519670466,-0.029532678257702973],[-0.10051968620972403,-0.08388719666691248,0.0326327765267291,0.29644176301403957,-0.053477287549469704,-0.08316182275241155,-0.0067755091257149505,0.014601197761498427,-0.03607888553480053,-0.006356977479220716],[0.021124832175253485,-0.03839568645132439,0.09014457863303955,0.14470499746128207,0.0037128438492958233,-0.10947694203762375,-0.017772010555704015,-0.06997527833980327,-0.0567210550109075,-0.007052836287830778],[-0.002596510157940753,-0.2069916317019635,0.1786301384157574,0.21269659131545385,0.08003818870284518,-0.1278786071795142,-0.014234857206288231,-0.15520802695038616,0.05352075228247178,-0.018852492539567934],[0.06613764093566159,-0.16146016579781872,0.1301573188121246,0.1501179826759663,-0.004272051935835302,-0.03165897311694482,-0.028818554036608424,-0.12322484287224679,0.04057820558098064,-0.12284767618826092],[0.01618917677204732,-0.18529438300582798,0.4212508320689025,0.16047230024931602,-0.1032533432912168,0.009827041748573337,-0.0970859313092777,-0.12647536121787278,-0.05340384249565526,-0.17389993034447448],[0.009155289540389881,0.10367176011170774,0.31156269011426346,0.17444021721381847,-0.1294262070313284,-0.055507314443279866,-0.15419695037227096,-0.23479781923111065,0.20946437275086965,-0.15183514354631739],[0.10392201772757553,0.03490985413201829,0.22661688922324494,0.23487434069286398,-0.2141716038221811,-0.06959542102252966,-0.12901451831849345,-0.29528683056616334,0.16966693764053614,-0.11213780132967677],[0.11255818935753516,0.16727425674222818,0.35493017859634934,0.22074898310153906,-0.26165772258901643,-0.09678123295906739,-0.14790982958387153,-0.3249554074996827,0.12425843830486218,-0.20205973561316798],[0.20174382230647547,0.19350126733881148,0.27607750217708227,0.04534031739489186,-0.11067417896537272,-0.0016982199020597229,-0.14447626656345935,-0.3051634328568838,0.15856105288891756,-0.18104938326539466],[0.21631813481365686,0.1342049190564001,0.266019778472463,0.04687354122758208,-0.07494009239073487,-0.04759330921184009,-0.10908885521823197,-0.42531502158678336,0.11923668781381819,-0.4058514734758031],[0.19499169558617271,-0.04362618901619933,0.4068019574417566,0.09037377921220187,0.1232876960802122,-0.03384940022713161,-0.07670679185606158,-0.25062914677102066,0.18361171262981868,-0.4354241460539123],[0.26644252913570055,-0.09437857349917246,0.15677305159100346,0.06170668939000871,-0.12208924992021715,0.022017891812509825,0.00347199538624381,-0.2904877948145121,0.0982908122188046,-0.3242066330808977],[0.10051406473383831,0.040428115495650264,0.17703672593191705,0.031841877057725274,0.06275292480335343,0.12763153530331964,-0.015838732697386053,-0.246892934905656,-0.009652925424443341,-0.19520474093706844],[0.1331342540034232,-0.028345102899349172,0.09448643879490949,-0.11926037164114756,0.06741625825555099,0.07979206183802384,0.07894852479119173,-0.22806875049366018,0.015401035572642403,-0.13860279223897948],[-0.007650933789037581,0.1316050686385685,-0.1942742440233097,0.024834004474767035,0.14199326261347664,0.0877127691229501,0.1938815555552239,-0.16527684184865224,0.05400430071548562,-0.09367102501782514],[-0.036009322975603955,0.1548894297784728,-0.1138551458209092,-0.14596341335451424,0.11622351085461152,0.14067479235546002,0.12251676058048734,-0.10880708297764385,0.0038414608136526675,-0.09826653689412675],[0.01855448313221404,0.2068564221031263,-0.05572282298367,-0.22565761198921327,0.15696495965106852,0.2473578590585803,0.1087240701094065,-0.02252061597859403,-0.09749150825242858,-0.05380217686123882],[-0.0403131881888202,0.08518881997564891,-0.09115095611748598,-0.22270515366005844,0.19590772676723775,0.26313157853663105,0.028509453655776767,0.012369884830416414,-0.1766818073735306,-0.13175485851216195],[-0.03843542912780471,0.013033592062873243,-0.13603535632121228,-0.09103446635309878,0.16117981235336204,0.09843316187481779,0.016012109332947128,-0.08899965606862048,-0.06177266405780342,0.006907641122780842],[0.013754224104296789,-0.045904770746299915,0.031179920499519644,-0.013194038900296075,0.06484452066701353,0.16282239013892724,-0.06460395051932252,-0.08427217516195783,0.03422823791206842,0.04446692529487878],[-0.005057919969448305,-0.02047904095290098,-0.020081573308605813,-0.06312762053335365,-0.047779596561164005,-0.011386300803933012,-0.01674897105945366,0.033392565733670485,-0.025280670344056073,-0.0176583661441521],[-0.03775003189613117,0.01641121249399268,-0.05282709644059648,-0.0614426668203396,-0.06307220649339253,-0.013458925143701787,-0.021222690472887714,-0.06411072235774491,-0.023439478687863967,-0.0431138406755647],[0.056260691027540145,-0.06588196953571515,-0.006326626009844732,-0.05244019264328729,-0.018099750792557087,-0.05492653650082423,0.012443970494729584,0.057444293142542485,-0.04117895315985093,0.02492993555304766],[0.007122385549047255,0.0761273610018816,0.008089686709602405,0.04246715663528267,-0.02779701692183761,-0.025366270800183607,0.05989707814372973,-0.0272166000929181,-0.045231125458887175,-0.0017986477041980215],[-0.06494676115979084,-0.05232794717111452,-0.05430292870618892,-0.020176089840186484,0.01774392447496366,0.048135225225484,-0.025118566489921616,-0.034945238924622216,0.041884708059277666,-0.020851446500381055],[-0.005709847176166695,0.021284780161224648,0.057792527753210775,0.11318387977299818,0.0025758549509198496,-0.09297257984224994,0.020566293064415663,-0.04804020318695203,-0.04983358494803048,-0.07401127021141292],[-0.05128295181975453,0.0532517288110562,-0.016161034926662616,0.18700292428865045,0.1188162311028241,-0.12514485933854025,-0.007921870123856919,-0.02220373638822797,-0.06630962095043598,-0.055159937565850414],[-0.02616898490145673,-0.02498852204534522,-0.04141512321790802,0.2073567132833582,0.04108710100453725,-0.1358591261734804,-0.11841203011823105,-0.009916580761808336,-0.05095143762001081,-0.187352906970553],[-0.06525177586730883,-0.04299265882885653,0.056861046333882094,0.31826652041372366,0.11361367581071631,-0.16893135464746994,-0.05757299719591061,0.1486405414357172,-0.021530688162341074,-0.19893433777932393],[0.060301560851377035,-0.17307402518250542,0.10349684896399587,0.05626322019955986,0.10885868239300392,-0.12358119188571455,0.03556449790361285,0.15110406957742903,-0.0652261614338972,-0.15727387906803794],[-0.05178074888453865,-0.17370363641169748,0.20887500989057156,0.2872080142638471,0.05471601214092324,-0.004234409188961905,-0.05493073948219481,0.1454162505312941,-0.08485027930136897,-0.15882037264734447],[-0.14058787455822297,-0.20341523567996442,0.017912914431990685,0.2971059799757524,0.14224730717808634,0.07116273877178672,-0.021415017453492995,0.043151612513974376,-0.02461534411888481,-0.11678681549298156],[-0.09614309065789202,-0.27240835420862436,0.1780301483156696,0.21587696640487086,-0.07204335440856235,0.07220108443032398,-0.1715630671669297,0.021940257594219668,-0.035242132947287626,-0.08811179169138977],[-0.01275361153931861,-0.20348279601906297,0.11933159603654636,0.13271572563437548,-0.08727757072644711,0.0940265852303575,-0.09380123740354306,0.07049326312222992,0.016235469495653725,0.019549659019896713],[0.037109895462243705,-0.13486040212223604,0.034922370379663246,0.18584870095533793,-0.27629292348793777,0.024553321725289227,-0.24187955358773036,-0.03995091923727011,0.1335870711417233,-0.030388662092877466],[0.09197854300626544,-0.061978413889497166,0.13811607219603475,0.19045253690408714,-0.3017733299394842,0.035662976565758175,-0.18842081548134373,-0.20486326731210086,0.0379859455541294,0.16020392334660544],[0.07088316265449117,-0.12224152861471364,0.03960753097191111,0.19564916710028873,-0.27479435630406013,0.03347341486123797,-0.10327087975959379,-0.22889687038053053,0.26605013357879387,0.26878958974709277],[0.0787599144593727,-0.2561737180478229,0.15319005549357503,0.1780788270230895,-0.32853294195117155,-0.06432688943579554,-0.19657797285318404,-0.07263890592184195,0.22014440272275318,0.16269759647683615],[0.15793245313762586,-0.15528867739649035,0.10883581543450632,0.21943357353777773,-0.21362925178879902,0.01783636115330061,-0.10026086175080791,-0.0410770310413446,0.26183506013331564,0.09047874097375466],[0.28507303034177206,-0.15926046709213484,0.008418379408131388,-0.010906976713232649,-0.24599247988768755,0.1581460372051181,-0.08162031992132583,-0.045202655297662896,0.07577899809900085,0.15591463981804596],[0.22202538682355089,-0.2192294458343778,0.08438441427693798,0.05196719620374639,-0.05855603270885052,0.08212960123211084,-0.09292431610704903,-0.1401008623303391,0.15214276836160745,0.08669774394632129],[0.1581326261569613,-0.006439505439548091,-0.17328963500901548,0.00003213635693732138,-0.1349704778812063,0.09400648152454164,-0.10207367952850227,-0.057027333941773194,0.06264626247118175,0.08492315313214881],[0.08880287702614478,0.07744490282592498,-0.05110026515629415,-0.06218153206678633,-0.0512928234550421,0.13572233500566147,-0.018065112633732092,-0.07904953835501706,0.06516185803538745,-0.05453131976816851],[0.1111157133427501,0.18105457009005416,-0.06130164046062671,-0.010421504482205128,0.12284579369051063,0.07371456435423179,-0.02111418916008407,-0.14224684241478394,0.06273726778261585,-0.06252792155804884],[0.19476653784569242,0.12504197785781995,-0.11981689381505788,-0.17870268676350123,0.2514546250330255,0.10222276248504023,-0.0011815201499808658,-0.06925868333164098,0.08282616930418471,-0.1958021790972064],[0.15244969882943202,-0.005439542255876202,-0.13517613276153062,-0.16921853116580846,0.3963300575125433,0.22401935469485168,-0.12830102726672807,-0.09711846787780931,0.12604501166983956,-0.2770604154645225],[-0.0930927869738379,-0.06926404355614371,-0.07154883930008796,-0.0513192663298849,0.10353859446484989,0.3236464645233677,-0.069532588644024,-0.023812438090762268,0.11133126220681573,-0.22443311338034885],[-0.14171323511213846,-0.007071638150826888,-0.06765737360747905,-0.07488452969588434,0.06995337318781664,0.23111919112099372,-0.06732267142485394,0.03744836319588455,0.03599272284040312,-0.04010946614907867],[-0.014244609866823143,-0.08334546549586523,0.0297901588922415,-0.05988285849170137,-0.03725172187551144,0.041224703407708826,0.055750171434566065,-0.019260205985203897,-0.013929036905464695,-0.014372096543886183],[0.021258091214008762,0.047977339576265036,-0.04414423734295347,-0.057332422975873334,0.05988591433893623,0.03583825131096442,0.030734700006649903,-0.0321355981372155,0.03157170757931132,0.03696824736144306],[-0.08382312300159715,0.01161867469006301,-0.009534513413402158,-0.0020962774243993157,-0.06283254098798619,0.02251157237844075,0.024279100303678094,-0.08017373674144757,0.017688908249264598,-0.016983090180277705],[0.010458657427330478,-0.04966859542446101,-0.04248222403326093,0.06337268538708608,-0.03724621504201639,-0.07528278709849301,-0.06001324598152095,0.06884678196175181,-0.025667728647632438,-0.028710496671236752],[0.06094968740102774,-0.02743709202990284,0.05900182509639984,-0.07913881066271614,0.04717179898033773,0.012522709248372668,-0.016161171995674996,-0.020254387399752265,0.0008364206760997058,-0.06828763034438373],[0.009814130489422403,-0.02112022992820086,-0.04581388652742628,0.0426485890978896,0.10494175257563093,-0.007872193817774119,0.012141049944667812,0.00039709921173160343,0.028900000186338926,-0.014120580909176606],[-0.06149601782121581,0.07283013976930364,0.00969093160980866,0.2258529225913641,0.09826039331619212,-0.16334712858147668,-0.11380660581260547,0.11566426659392066,-0.07354691901919266,-0.0194096948371155],[0.04848201457270187,-0.07055163245753432,0.13855199754634465,0.3348391728287503,0.025902952666885973,-0.34744123308542096,-0.059128522326382486,0.1823713377614262,-0.06948869282587296,-0.21270446110951108],[-0.012620386344845863,-0.08693187879708113,0.11683390493834432,0.21212459828971883,-0.0481875691386461,-0.23202581348146623,-0.1314197975434959,0.1794851068751185,-0.05774073109091274,-0.20805620891638196],[-0.0022813432732998774,-0.11040691218018393,0.16507368983009718,0.12395172392883347,0.0013320913314695407,-0.05101794949994568,-0.036644259719248604,0.25636994840713445,0.07035857966562906,-0.3472122577163672],[-0.1375159313994144,-0.33780004694412324,0.10106976576252351,0.01739854107825017,-0.04427880675985419,0.05956478025518301,-0.05173233982832633,0.2958579152765383,-0.009962528081197955,-0.17271133700767624],[0.0010616490989148397,-0.2689993079753841,0.13106956559185956,0.144418268574287,-0.042023999335614265,0.003939355073636842,-0.17819465463880516,0.27154026580993096,0.08452072880149344,-0.1689705842082826],[-0.022562464078539644,-0.36502722765942736,0.020372890965614527,0.09799660654506118,-0.16317722596791226,0.10104272073744652,-0.1660822920958119,0.19948791550548545,-0.03254846767938621,0.007409146882317941],[0.06554161559878435,-0.16205480468850658,0.026029678636363393,0.08390519920013506,-0.10115691080094959,0.09155914305111111,-0.12217663607829198,0.2729323660872346,-0.14549608874573958,0.07463141206921747],[0.010522197019517114,-0.02982592761364069,0.06866201009460128,0.14943987034258852,-0.3316995557091328,-0.03442915393908294,-0.23640699380457994,0.07196815192148263,-0.06762471779877315,0.18778878138190563],[0.059594068869606026,-0.180758493700833,0.06616225308157361,0.1886030278893708,-0.3838647300028379,-0.11010450516563963,-0.253694263003898,0.0029140351460504345,-0.07342652932057199,0.30897441395152114],[0.19581681356446884,-0.20523100539257064,0.08551484984368508,0.208626865609524,-0.34089732751138335,-0.03858036879652048,-0.12389782738989849,0.05114744639349404,-0.12059297927166253,0.4169205701117131],[0.10344921267410426,-0.18106086469250887,-0.06596277188563243,0.13859517137552446,-0.3736787458193737,-0.03478578240661713,-0.14646065292521346,0.002172345181775443,0.047050785142734815,0.5622964063757206],[0.12142691711009021,-0.2672473791214382,0.00300125634628081,0.050365184218786996,-0.3979543842970929,0.06461179107239721,-0.17089122454549294,0.04475087355875621,-0.0483199090651866,0.4834490533943525],[0.24598571744354972,-0.2880801662493283,-0.16715355264657233,0.12470422629253869,-0.21579877199733438,0.04442319249674392,-0.2816245373014817,0.22762749691548223,0.08062787508977858,0.12464552025310419],[0.2532987964697517,-0.12515716042808825,-0.13753471326555453,0.07131660781022926,-0.16091554146434434,0.03165753356880015,-0.2150049431754544,0.1226449491596492,0.15037324571180508,0.13659225716702353],[0.14124106295220096,-0.005170015096766557,-0.019058028251673284,0.042378444830179614,-0.19594096324322116,0.22350535865100718,-0.25050655851691317,0.15730744805401817,0.019716911196283663,0.061462081433326224],[0.14087010415492626,-0.04825933145875811,-0.13965309601785778,0.09517497861091424,-0.010717062830104311,0.19624889931495954,-0.3439651629321238,-0.018406633607451126,0.010365292720364653,-0.06524745117118608],[0.02323872815732756,0.04226956504895423,-0.09262026200416464,0.022590328118226952,-0.03875184398104309,0.1165790778361319,-0.1572327913855224,0.06166163986864922,0.19660901729035157,0.025656143518482107],[0.15627528327185425,-0.02106056867879584,0.0546478387629013,-0.12980841359571507,0.16787163081149442,0.2957942362205958,-0.177820719281943,0.026125500186327217,0.16120473248697156,-0.15630043905229604],[0.07680079119678028,-0.13149013492746586,-0.17480925411862744,-0.19974517583811882,0.2696888730093532,0.27115950579359227,-0.30458748922757284,0.010169331513381704,0.18182239217738938,-0.2830340371059241],[0.04249355139921769,-0.15660235984742552,-0.09947344868359419,-0.09476736641176538,0.09069250142235585,0.5315128475407029,-0.09386828487087719,-0.08379393097210308,0.24258503155022149,-0.2852739059814616],[-0.14419993542420512,-0.14336069975044569,-0.04235242739570564,0.010530786051508317,0.03189364831140747,0.331783015845918,-0.12080407932132475,-0.07249762780539876,0.051142154516432954,-0.16092470166647818],[-0.10501242172554218,-0.060595019541757195,-0.06565442984756535,0.008628474797079731,-0.059692471458594215,0.10092499244141917,0.018599782070628505,0.04070263794924154,-0.029517090031758543,-0.12141929432019165],[-0.015276805323218042,-0.03203580019352311,0.018056926274795826,0.05163354422270974,0.0020355745186021604,0.07448561474210931,0.022709628982443962,-0.026670927391218045,-0.002175951459741493,-0.015077586545627363],[-0.03910038076159364,0.05054812873000392,-0.024699490177120014,-0.05095831924406444,0.03127891432316061,0.007993404808863987,0.010989530726855923,0.04405269585757034,0.00991923054492593,0.022560610018258348],[-0.05234536395542627,0.07748408232865853,0.02087483366277575,-0.05809012790437103,0.03703986091116406,0.03475864430691415,0.07420438076713776,0.019347554933643193,-0.0799081747423098,0.007314461683427967],[-0.08285946466744117,-0.06720351298428136,0.04070979923797211,0.03378226657804132,-0.008145846984792818,0.04017112747610358,-0.06618800476591145,-0.017309156090473052,0.04670663787372191,0.04693883407324751],[0.026872458605237973,-0.027408518909961568,0.04877030589992361,0.1663732539172206,-0.06055963601707185,-0.09599325814673686,-0.13274072198555967,0.16857025763639744,0.06366241575741421,-0.104822096586947],[-0.10545558195234155,0.051882963012124576,0.06885192422638,0.30620956888927214,0.09085477412430762,-0.21264720911744756,-0.042954236323177054,0.16424400754578972,-0.015574441100662424,-0.15325589620706304],[-0.03730907519070166,-0.036590034099229556,0.1392037221313696,0.30530643488949083,0.018706632038689282,-0.20055208256873072,-0.08719894488591759,0.20750518398604276,0.10770974246228489,-0.2148540529386148],[-0.07362286873655399,-0.12632642481236042,0.1433636695027863,0.21580939242983488,-0.0009451950151677596,-0.23825028942858414,-0.09139518600060294,0.26582375414725556,0.0688593312767227,-0.15823313920595508],[0.009015206985555517,-0.1655922672613833,0.04789076832605669,0.05199987396497961,-0.037834172080308114,-0.011527710672895286,-0.08651419458386113,0.27957343044697835,0.05929000545177375,-0.1449271165389267],[-0.16483517382658142,-0.31152603107386745,0.16803324334675393,0.08223723394832558,-0.05115638683680447,0.155617466806328,-0.05551640731542966,0.2239063435702362,0.10060242121245742,-0.07587295590171676],[-0.1011004831680531,-0.2722140070917497,0.08382200244605079,0.06147987353565643,-0.1397534036357485,0.19345356089032723,-0.03169700435154608,0.24270050657959522,0.08385002282419132,-0.09479281078591163],[-0.0345913691597686,-0.22980563471316887,0.122054158594305,0.0834801257314605,-0.10055671764301906,0.142347472061795,-0.12395487226486485,0.185159937984752,0.18490610712996108,0.01657191027257656],[-0.028102011126097195,-0.153013384088996,0.05463301120752356,-0.05192258156006971,-0.21747758303254433,0.21990899045178408,-0.15815478912181552,0.35698046887994667,0.0029917903753079247,-0.06245248015017431],[0.007615023352183711,-0.10127861590309328,0.013427188685040113,-0.0008543163257580871,-0.1447894061045426,0.027184810748029125,-0.24418152055442235,0.25130500751467993,0.05371575019400951,0.23475709960327196],[-0.034211164862915006,-0.07112928658060284,0.0838076147307432,-0.014169674012513466,-0.27650290968249724,-0.13130133739861527,-0.21900425240689045,0.15567083253183447,0.048206017664599254,0.16366182359627088],[0.015376628098369368,-0.04478865983125246,0.1292278928872302,0.2385404828307466,-0.3425483458451766,-0.14936776910496727,-0.24991597131978766,0.12853048755535162,-0.10976541774224852,0.214726873935422],[0.16154693377850554,-0.06582572735925617,0.06915675334138913,0.295952798139398,-0.3407762069153129,-0.17592468762076102,-0.1969017984983417,0.2125323103388094,-0.018743263539848693,0.2312172029559679],[0.23049143698076097,-0.10283834271053503,-0.07629332975284295,0.12562958633024254,-0.28074278530350777,-0.11705022626280308,-0.22917742394996346,0.27612454804388625,-0.005963833720152078,0.18959519857641138],[0.21819187893829645,0.027964142129451964,-0.04254696742397249,0.06551277803524344,-0.2456557656665516,-0.029708866053479804,-0.391505358893185,0.22854586970189394,0.004385830031084897,0.051462986646122255],[0.2453181301129722,-0.03010674353847023,-0.044041090822145586,0.14427237132331808,-0.11542505900124413,0.02889552104729281,-0.3709406691397734,0.1272515816932525,0.03475316007354305,0.12833444967072763],[0.15659185977425918,-0.0011192679858750046,0.049183682790511725,0.04874375458127904,-0.09762124361008585,0.08667453770082893,-0.4280437092437454,0.11024819206952668,0.1356524821998581,-0.014069398209582792],[0.13675865726831646,-0.07789585792188743,0.037156393284539437,0.11494445914306133,-0.07528621384247647,0.15497960885673864,-0.25788241079800195,0.1805600848829725,0.0896110600145629,-0.03223466569634566],[0.17313312804317627,-0.054962500830374406,-0.07416328501099634,0.1429362872514811,-0.0806839913742025,0.078527584090276,-0.29762513095702453,0.11030816125872712,0.11324390983787197,0.06920850645741239],[0.1091848196177343,-0.0986720462303695,-0.07287568542617474,-0.0496868850014576,0.07073053965629003,0.3529508201199357,-0.21406782320033535,0.0701296109111359,0.13985657939953489,-0.09369818524057669],[0.07384558707918748,-0.165801330663949,-0.1383395816245219,-0.21100342021009724,0.14447632550173145,0.45883764199640964,-0.2887737425442991,-0.0019497010985676713,0.2780204908915242,-0.22671739957497222],[0.18292059923514079,-0.23927147605180496,-0.19719367453073725,-0.23848062366248754,0.02545772799638043,0.6866881997951897,-0.266384549774401,-0.025623302376824985,0.23825356141568396,-0.29347920447352527],[-0.09805240500354616,-0.17940224017885428,-0.08300712550968765,-0.021044594618814482,0.05535540586313853,0.5461054105948431,-0.18509041610741878,-0.02205147252448084,0.038792712266846927,-0.12322414814496088],[-0.06852614774386699,-0.05418245610316815,0.042076193947172665,0.041599897939632806,-0.05203991642426015,0.09479145355031203,0.0008369937521188312,-0.07167989276264417,0.009804017633797187,-0.01721209725340842],[0.025210466595860223,-0.05481068249945571,-0.06947517767466728,-0.026167472898463422,0.05881347758234374,0.06147384601142344,-0.0411761774655442,-0.049843858013886515,0.06395840614334566,0.06248065185920024],[0.04482376753150597,-0.007536712200327604,-0.041882841039423906,-0.05395911449741358,-0.06321017976491916,-0.04784221358079523,-0.06909967707036331,0.043546403741564536,0.0088683339140247,0.05226675687967057],[-0.07058309139826863,-0.004763562315452158,0.063032929316755,0.03833903721863679,0.014445157990611652,0.044941243455202944,0.08062720143236284,-0.001527856897744496,-0.07181879646673416,-0.047213092355045665],[0.042738535409128565,-0.026007164225825365,0.06692273127404241,-0.05233665953958522,-0.010093630887791166,-0.00897662766483664,-0.07241483586592701,0.07926108811540974,0.02941156698741716,-0.049697882892172855],[-0.05405063550067902,0.05125692485254705,0.026754155551744433,0.17569754431409154,-0.08112246765859095,-0.09509315934076197,-0.11134674897593524,0.18603705210353877,0.011357543921121802,-0.07451382676630118],[-0.09539128787122704,0.05776024664353388,0.13362780907748203,0.21488493219290233,0.0164984290412776,-0.17467626474273693,-0.06030117358943502,0.20918080082651289,0.05817948281761415,-0.06588489959154978],[-0.009074399323052805,-0.09886553895936581,0.04031083568297061,0.14036912197739046,-0.07442238721545416,-0.2685794087156834,-0.0037149524265630927,0.17823022727309173,0.07111485334179776,-0.20329760931464358],[-0.007594728318171698,-0.033461720375140135,0.07610624928174232,0.17889919828830378,-0.09369966820390392,-0.03314692154434401,-0.14005102301339487,0.17888578020891402,0.09855107465665403,-0.1690534984133503],[-0.08911973872694844,-0.13892137388646963,-0.0469303881748041,0.017688196822023095,-0.11508016284450759,-0.028723607818716246,0.03676114053213162,0.11915153617945434,0.08807955074186835,-0.046105897857791955],[-0.07228731423828944,-0.2050971596239438,-0.061264645407993576,-0.06816297869177686,0.013206904548428851,0.1502170549876384,0.02238659536944171,0.08917358659060072,0.24895091087507223,0.05429144253632204],[0.04303911193695512,-0.31141894243095636,0.0006970052692063596,-0.11069979125379639,-0.09425657935569776,0.12192142360255555,-0.06387831743621585,0.17948517555901172,0.0941067013497849,-0.06537576115060642],[0.043030883607085374,-0.2143749924313006,0.09851775264165459,-0.10788353036242761,-0.10230628786269047,0.1323972235967401,-0.03887533703679298,0.2359221323712392,0.137588971477073,-0.002014424012692342],[-0.000835585980380762,-0.06358531066118417,0.018245306608074045,-0.47695163896718495,0.08306984762644293,0.24559216026414118,-0.08628758411727061,0.1809566358724203,0.1756836229408539,-0.030447005591850915],[0.10090176040601631,-0.22859602756401862,-0.06905806922371413,-0.21128403027339335,-0.1273550729671647,0.051804808871397906,-0.07929175583721877,0.143257236141853,0.13571573682320803,0.06566752080012389],[0.0039015824393033496,0.026820168224164342,-0.036193896158801996,-0.1126253945509453,-0.18171365773386,-0.058827148153212876,-0.24137823767454683,0.17905996415177097,0.02748197055911081,0.0678565381902398],[0.049345837549138946,0.18324906624319975,0.04463478652559521,0.2543519776875129,-0.5248927603734713,-0.2160718856985149,-0.0846060763669827,0.3196882959219691,-0.19026993552588017,0.2700283983808536],[0.05854147332221394,0.24765735325683683,0.21638818525105108,0.38191301675266986,-0.41095946858548077,-0.37145379538907114,-0.24302639116996969,0.28525576004025044,-0.18909119936946175,0.088954470880293],[0.14017050380975332,0.1097599330970992,0.13569315759945833,0.21342480386394946,-0.28017613994636326,-0.321952124104461,-0.38642206427612663,0.30376647990850913,-0.14481802854314238,0.008772199413614581],[0.21348786445411594,-0.07750448127064645,0.11802284642099516,0.12606719814876635,-0.013313021258470937,-0.31317312592921387,-0.43163976695672246,0.2902391631483094,-0.01109467419450525,-0.04374569567512468],[0.2156258157388132,-0.14134898638635945,0.06540987095501724,0.19456380625939554,0.03213927528669677,-0.1756883606176713,-0.4055548839065594,0.2569337995984638,0.10117894806780434,-0.06534053354423343],[0.26030511867651984,-0.1406888402895356,0.02588980988000747,0.2010137059177483,0.02733878702601801,-0.05120225550736585,-0.41845221509345204,0.19162022878280915,0.14988984574204015,-0.13018526491238455],[0.13421778386322575,-0.17267979632906524,0.039997500259053846,0.13479187027090803,-0.09892237155723888,0.12553782113577855,-0.35884765973359645,0.26218316110072293,0.11250543388546648,-0.07486181246764839],[0.10262626821282436,-0.19359654961912162,-0.1024592663506652,0.15310729828515635,-0.07187972616700264,0.25578106660652133,-0.19041730998166959,0.0927269452796949,0.11113894694836086,-0.05644380882133295],[0.16369297487184734,-0.2636505705270335,-0.0493366351125253,-0.005421333920193752,-0.14231513686077846,0.3788913555912546,-0.3210446977890808,0.10696833326249011,0.17418471976593106,-0.008043064746726359],[0.1961233672381546,-0.21956615022372855,-0.2090272784189134,-0.11818491237148504,-0.06001400263610592,0.5533699747129239,-0.15637096032457437,-0.06200065351085177,0.22111376025653698,-0.13912147889631835],[0.184387626215955,-0.28272830329740156,-0.19196137332381422,-0.172099105224874,-0.09469095557187128,0.8139462127693817,-0.22303687182819917,-0.04016370757773347,0.16583972803900598,-0.14948089676349785],[-0.038566932058761286,-0.14214596067908533,-0.0885375867327353,0.009618467894894612,-0.10555643962194847,0.8226824514111712,-0.20669111463802947,-0.034573144603651455,0.038264110699299844,-0.11247213943279498],[-0.09712762504129732,-0.08509170826682004,-0.02944085494275488,-0.011089430319631194,-0.06862467057611255,0.2376642064127931,-0.00729088886000403,-0.05381008480329122,0.006425116919610906,-0.059529723725080114],[0.04823990859560197,0.015259253952981607,0.021289377131289183,0.04967704735201065,0.02175538234679576,-0.03683615161044164,0.06169999591965172,-0.008433166115902446,0.037842336292629467,-0.018234970820197705],[0.06398363580382885,0.018853249819261703,0.03415254749178663,0.00671735534052563,0.006367522943625897,-0.04800426424911781,-0.06417984979669814,-0.015680495396267553,0.034510049894710924,0.05502762772065325],[0.07695043690291335,0.01090069327477277,-0.024045836673243545,0.03066012933230106,0.0011449324947691364,0.03763640368421097,-0.07103597715994299,0.05513509231054414,0.004798682991688142,0.036289534455485536],[-0.08556506770016004,-0.06393489462317713,-0.0006598608121074206,-0.030973548454931343,-0.08440763425047915,0.06648882684177777,-0.06171592518702184,0.0075158056401535885,0.06504961510235997,-0.08987239026052114],[0.03384434550773598,-0.04889108488744652,0.016711121172139305,0.04167913240955099,-0.0760464458377617,0.035393373762167966,0.002721575643620637,0.13667607723434413,-0.06199359305731818,-0.03273593430411308],[-0.14364373612434533,-0.005232711138790476,0.056612096834391896,0.05896129733574561,-0.1100633116549374,-0.021736828822000683,-0.02727401724283255,0.12693408403068598,0.02486555295681041,-0.08160989272473067],[-0.05567608210286505,-0.09536750520371995,0.04835163213569759,0.019231018259545218,-0.14228500909847955,-0.0882595547187308,-0.05135217593795805,0.2145526725336565,0.1575223380105496,0.037582368679040426],[-0.04941421116306118,-0.07453679993141235,0.01355398900341485,-0.05309718741685142,-0.09799383745365463,-0.032720816791919356,-0.013356846313104754,0.027262359987083255,0.19401797877013532,-0.0243781297750647],[0.009065193509909544,-0.07096642833432956,-0.17227747393064674,-0.24126871183821647,-0.0017990112525206924,0.2712581841863535,-0.02144738024889209,0.030911811696178616,0.23827831596057075,0.15046813597178071],[0.02553243595731708,-0.14794869253605286,-0.13235811790055255,-0.24070900971824746,-0.11647073842692067,0.1972312719790756,0.046415141365207205,-0.07490521404384567,0.2625184550502769,0.0494646257590254],[0.03206989745226271,-0.1453502707712061,-0.13330692610939787,-0.39846233046569224,0.06212146869981201,0.32350403438682546,0.036678376360309115,0.13707926989153013,0.32478897167246373,0.09933576167993466],[0.04045118007127711,-0.17821196877338277,-0.2499919248129108,-0.41289433975436096,0.10013209426044471,0.2563963908808018,-0.10846339232493685,0.0399736474224964,0.35888799535608285,0.23601328119979503],[-0.025660708691575797,-0.13364257487284403,-0.28651337233270335,-0.4421728007889193,0.0735531253454132,0.22290507212162755,-0.1191870714694207,0.14872159218568323,0.1867315202444931,0.25123508662442257],[0.01969764348623588,-0.015422406758752553,-0.193718553764032,-0.3269925880707968,0.15856788699574673,0.2278976090563805,0.00011346751431532678,0.13803871383447727,0.22860648937235836,0.010647131413383677],[-0.060219638038183414,0.09413601274630794,-0.2556674310636996,-0.14026389878711018,-0.25001726890489,0.17570943959093838,-0.1349240119017663,0.3276243915328188,0.14928430030336573,0.06511017250472717],[-0.14126722780127363,0.37468903869622,-0.11332015698220355,0.1710822874298637,-0.49638496285407513,0.020803149862706895,-0.10385232985253633,0.3355042537697072,0.006476850698682013,0.04125869880855328],[-0.12385777009789835,0.3740577913305607,-0.05077232521673723,0.23650963694540836,-0.3037133008036844,-0.15401421522505213,-0.3522066176502543,0.33838594327400673,-0.24165908992785776,0.03549842518070007],[-0.06264434297870015,0.1760640973837674,0.04872886513670033,0.19179836188203503,0.030389866396383552,-0.311911506685856,-0.2949578865212575,0.3691849014912445,-0.23671074548163973,-0.07865284106028952],[0.058551603937356894,-0.060294056282284354,0.149960609087471,0.2342379130769092,-0.028350530568900113,-0.2939655726019533,-0.2952303649808567,0.4069009149199587,-0.09985215091110258,0.04601407220543375],[0.19309678323532867,-0.1234838428873224,-0.08181186005851125,0.19484513891480632,-0.07507060865514888,-0.2558632862167084,-0.3738202093369226,0.3634337337364797,0.06375283536708491,0.04597299743963234],[0.19737332454185452,-0.12026641321628968,0.0743790103512807,0.2715185101705124,-0.05846350649198655,-0.3554784689144681,-0.3279750204341037,0.1702020960002449,0.06354694293309088,0.04637272506845433],[0.04888671994510927,-0.23161702640850448,-0.07381031927370763,0.2862819327555226,-0.05183739435124024,-0.39016294307694566,-0.22395408502826158,0.23580211626780018,0.061586814777892185,0.10182513069137213],[0.02010388530625308,-0.10827556979687991,-0.0451673797324367,0.10839114551303541,-0.12935533748860883,-0.04492958193496766,0.01038147935641037,0.1420660742394983,0.20080949513129193,0.08109458050905845],[0.1446104043210521,-0.2034309762429863,-0.13169969696268702,-0.005705384892453529,-0.07317174140236812,0.08330468473616084,-0.17488338654014823,0.15084778461076548,0.1724774671862176,-0.007380165220659268],[0.28407971310219726,-0.22316131802381017,-0.046891257107551994,-0.16073092112854123,-0.1954241995106796,0.2179319348912329,-0.06290064654058727,-0.010266933391537598,0.1700637462471683,-0.11408220405064988],[0.1858127952867259,-0.21311471683381264,-0.16777235743385363,-0.11993019078016427,-0.21350170833742027,0.5351776861771185,-0.16152628776226385,-0.08970742259766032,0.09506193795262953,-0.04454063048834491],[0.0011858856867982591,-0.023380638128067566,0.02004890664001291,0.042944101861598916,-0.18154537980855523,0.6647852456906325,-0.08907611123543674,-0.028265916397987218,-0.03722342148454082,-0.05281256815328058],[-0.058027619672942836,0.03330264233666075,-0.0745554502609891,-0.06681810214506191,-0.056618892194186234,0.238136482546284,-0.10973018526916126,0.03320047877354692,0.0730744592623692,-0.006481998391735721],[-0.020166901695206334,0.015315752193762704,-0.009060588427143081,-0.004803296179717471,0.02383243667775177,0.04903571805483612,0.034687355205258015,-0.05580186783254805,-0.0493063833186376,0.031043022315377766],[0.06180280344616611,-0.011625228750553987,-0.014837783102146479,-0.045049595659221016,0.03233675255909687,-0.01945532750093093,0.03805180838654731,0.020885856299982197,0.015427812477474165,-0.05385578508064283],[-0.08079882317475508,-0.004235619870612216,0.036540564521305614,-0.04819824564651553,0.03321263516936929,-0.03797635137986482,-0.03200383758609899,0.012857369473392033,0.06886273873920644,0.037588348072946455],[-0.016304279426210294,0.06214128803250416,-0.05344977370722263,-0.02844057291590737,-0.03645023813156544,0.06201803236164585,-0.04560400604130854,-0.021311339003470545,-0.07294457633121901,0.05404311957830149],[-0.03524802726519047,0.043179868558882235,-0.08680611922809574,0.07759959311745633,-0.07128215153116915,-0.09980253699363928,0.05419051831093031,0.21282142836769402,-0.06838909090842152,-0.0294121696670107],[-0.01466504761810305,0.0133765118187109,0.028154456200330094,0.08564853566713587,-0.03270840901179896,-0.038365959484995465,-0.013087097260057927,0.2517767740037397,0.04053526506424217,0.026086587075255928],[-0.030856345879649798,0.0162091975924061,-0.2397609487495743,-0.2045742845737328,-0.19700790610296345,0.04789780580382011,-0.011367088865805569,0.07069870617779642,0.0837836895132185,0.10248644444008273],[0.1497928479539907,0.07051324614996698,-0.25043200149898387,-0.3290484353776382,-0.004917245077839381,0.1687847534215246,0.1013063184959989,-0.0260400549931807,0.2526554507612086,0.21266557602564617],[0.02343439546970456,-0.009426836037150518,-0.5334996889566538,-0.4912457485629966,-0.023255278672224503,0.14133880075693225,0.04377407559197224,0.08427921118999385,0.27471190334978585,0.19850329891446725],[-0.0038895538098149846,-0.12241257491921545,-0.4875565386603732,-0.5323930068501408,0.27684419983300157,0.20973871797680577,-0.11495001385267072,-0.0936450682616926,0.272156322023667,0.21642890024931952],[-0.027555411132894135,-0.010525745563803304,-0.5513930168377127,-0.26862503074115396,0.2567261899499431,0.14579697642020173,0.02640724980991344,0.07217000417528163,0.2917642788858645,0.2022261826067084],[0.00015594136556679747,-0.10310492552682987,-0.519060265581853,-0.27817663585770436,0.31410753624287735,0.10331641156142392,0.1653137778489579,0.1335083572289516,0.19693189654648008,0.16735448823899166],[-0.06199142337372318,-0.23461728930748074,-0.6316843560473561,-0.0762615613528676,0.2755033996846727,0.28564096283579204,0.041282766205318636,-0.025390521327152683,0.19800274136648882,0.21078351083151023],[0.03965970679802681,-0.17654915067205454,-0.6970410638885126,-0.044398155072621265,0.17046288284139807,0.36799755041659044,0.1127780069974452,-0.023674213959379242,0.1691048843848257,0.10238026010716353],[-0.09874109896617084,0.15923878608594225,-0.6982348560713995,0.09122543098836873,-0.2803463312874502,0.320542534976173,0.006370662924013097,-0.029041537701893206,0.3671360155392972,-0.04487706699072665],[-0.24189287559272032,0.5385830222566261,-0.4510948690629144,0.2401690931038613,-0.5407250709192418,-0.010377679475348395,-0.1286847741155308,0.12157575282453059,0.3229247812735143,0.03968581798682077],[-0.39519043024156264,0.4691950145481341,-0.32404730972590967,0.2471118546633819,-0.014681642735843952,-0.015312275235147567,-0.2601012468100538,0.22513139281578778,-0.0043195957548592895,0.04692674907377837],[-0.2500107387646357,0.15933936884836228,-0.16732392473299015,0.08502337171470907,0.3960891928201139,-0.14997171876184104,-0.3066139729452653,0.4201392174714678,-0.09248617949480102,0.12654247816083694],[-0.1522885553127893,-0.05096430191085496,-0.12343710190986222,0.18626365643031195,0.19825044966660502,-0.17981706371434075,-0.20294897402738313,0.3554547613595985,-0.1101065969338901,0.24443467539012204],[-0.07538823958066053,-0.17064452685922857,-0.03321297717038769,0.15376832104787327,0.013138907647002759,-0.2925398068747186,-0.17950109087847183,0.2137782464276065,-0.1309682833056099,0.2520375247186817],[-0.012282289401263451,-0.019067475417628856,0.026225928702125183,0.12632041870557426,-0.05344809592823951,-0.2019321401681308,-0.0641029199027763,0.13970161058666453,-0.06985066462667837,0.2920347963734002],[0.17493149153327156,-0.08736673533903346,-0.052885968820360715,0.11115601183437038,-0.08765207316271947,-0.4593200534553001,-0.09107212425749722,0.17773550415697434,0.03760028645667537,0.30898613794346935],[0.1727120272059293,-0.055433940572333945,-0.08991834377815582,0.0777216324547214,-0.13727088466178353,-0.6182199200457934,0.046791293653380056,0.14733483000009134,0.15381238329241928,0.1984010354707312],[0.2952795162762726,-0.025477169909636173,-0.020957133901662747,-0.08346822613945595,-0.14201724735331475,-0.600703069715726,0.13752335898548862,0.07995850520122845,0.27307881494889097,0.1611888157423074],[0.24326773416123348,-0.06688035910634108,-0.16888642054186354,-0.1575916490223451,-0.10365235862398363,-0.288684432102138,0.14055988940778422,-0.06662962561150297,0.2616448621041181,0.11173395750166118],[0.31470371536309133,-0.004575063338852739,0.059137591624040704,-0.10737873553823751,-0.18087726480738642,-0.014639891970042701,0.06171892192175737,-0.15291098356971514,0.17220421853048531,-0.05137316923484345],[-0.09731504622254569,-0.049839755393017375,0.061680942840038576,0.056968621225865435,-0.10430399950021282,0.15931969883336192,-0.0954370806821758,-0.014050076487457765,0.11370343193221635,0.021841598792276647],[-0.09573393630442922,0.024190297239315397,0.006686121249330156,0.05608467834198801,-0.04579681613359696,0.13522469466291498,-0.022029743718534507,0.0054444682864968185,0.08963335174868917,0.030483799881356518],[-0.07397470222915352,0.09520466538267772,0.034241407297028306,0.054191943940001985,-0.029384219761038836,-0.012912014647186863,-0.0030806460428261613,0.056372917593242554,0.012738315075453348,0.016475436779213103],[-0.06056492211965784,0.07208587449050266,0.01293070721992374,-0.06258810465888258,0.04630359307126028,0.016171846449821947,0.07453962436089283,0.06156310470780962,0.0037002248140862613,0.019970419400762468],[-0.07421199276248285,-0.030152983915891034,-0.03309082212549041,0.052231057207853274,0.02262939468993564,-0.07033728059791716,-0.03853112489376711,-0.04851571927607799,0.04953432582586632,0.022605731300053257],[-0.010718663873161602,0.03671943137109571,-0.0015673029519813109,-0.0004943668231569546,-0.0665327046070831,-0.04163115986959181,0.044381092717122664,0.0022373037128050853,-0.08063291217226735,-0.07298463421903664],[0.010080947234267982,-0.01104628066344703,0.030401968556264137,0.03187801480291427,-0.05712924425853757,-0.045885702267561355,-0.05678250505568008,0.10544994772020576,-0.07849403789690747,-0.08898210690674146],[-0.047736727037954896,0.024565082690338278,-0.11224704636689763,0.017897270576179757,-0.13716562570353075,0.07957308735930531,0.004340289521939112,0.07944348102264534,-0.017046541382130437,0.10061181088789535],[0.05329589287314296,0.05595068170147298,-0.4282866225091876,-0.18024805487241977,0.01844115168895228,0.15355868985922824,0.028103668644689772,-0.07624572313817359,0.1978820170642939,0.13832874044188817],[0.11808105060826163,0.09493593190237733,-0.6632447268376747,-0.40892083165717674,0.07023996672487474,0.09032186638148514,0.06542209217109402,0.07890043807124857,0.13241416135561063,0.29246990071324536],[0.032360189299750645,0.009121601403240627,-0.7826927436936099,-0.365702226876175,0.24942489485774155,0.17231611724467435,0.08686372971463502,0.1276874604063013,0.3139178320381186,0.2583370307573281],[-0.010707137579674907,0.08810428253021663,-0.7239177798203668,-0.22078862799191043,0.22278082661818394,0.14878557861670408,0.08698464618378379,0.028789005623120992,0.1376535078073018,0.2127025979845298],[-0.021256445382924576,0.016362946936694423,-0.7202800752544832,-0.2393696737394708,0.2943866685509794,-0.03497220404808973,0.024696076482963375,0.04034576160937498,0.25710337419274937,0.2801323169240792],[0.1443219378361893,-0.35259554434648155,-0.569751813704417,-0.1879396578862879,0.4354587390781261,0.26743197946691544,0.12755820367135268,-0.14684871375964156,0.012311854548597597,0.23343658770094364],[0.04819088003481119,-0.33569172501731775,-0.48243100985045795,0.006848998187721122,0.44813292370858726,0.3248035892809832,0.08500692326126254,-0.0697893788391512,0.02165681073425119,0.10135233790318944],[0.027659107774174886,-0.0063988670313964695,-0.5986787439134429,-0.07857011986862769,0.4657646577328432,0.31648732334568586,0.05996487432436783,-0.4269073496120534,0.27863242968836593,-0.1210979783659456],[-0.16341465051275908,0.18881879334440954,-0.5433675784894473,0.1270304802038625,-0.09478595415137021,0.1661752024806689,-0.08776879916504769,-0.4963161270954049,0.47796278367867157,0.1171698477100334],[-0.2658198714469575,0.5668307787616167,-0.46338548407670344,0.18956445612665074,-0.22339001634891426,0.0867618843182338,-0.06091482795862448,-0.26517333946519855,0.2603733455269286,0.19951560942142327],[-0.5672734380022766,0.46715353606612675,-0.3507344272749673,0.22279650618277821,0.2474953365625511,-0.15143755108909362,-0.05918138491742059,0.10468571479859294,0.14640864517509933,0.16686294073997576],[-0.4750007241038714,0.08250620365127859,-0.22051077109426,0.11597295718465198,0.31213591372427374,-0.27720491241238887,-0.15614786232579378,0.19718031270101263,0.015350584901211807,0.2746410572769971],[-0.30261664917755887,-0.014504240487407376,-0.2192961857000705,0.08794544910370172,0.2111622820724827,-0.31115557034944136,-0.16331721851549857,0.29695979872795825,-0.042923381383333896,0.4103109352328716],[-0.056297805242684004,-0.07925465492597589,-0.14650006164685145,-0.005326671317719259,-0.019639803230237445,-0.27371975081624444,-0.04159314278532645,0.19039742841587787,0.061975469394969215,0.44814386455867095],[-0.10959455371077122,-0.07631052594552971,-0.052302787810098124,-0.07023842623816838,0.10018404140548379,-0.37281177701624113,-0.09213154776621038,0.006128386941937025,0.07248162901058712,0.29000384759552095],[-0.011074813561694824,-0.12265024614471294,0.05471701617175922,-0.26851709293371134,-0.04522587760766417,-0.30564839300307933,-0.05644097465622633,0.06401252541871873,0.18125716679046425,0.2621505289210668],[0.06090305536700792,0.022717913791144496,-0.046225608681254755,-0.17086480529913403,0.012885036323216173,-0.44494569134673145,0.10184685810861599,-0.023971809908583032,0.306038515982903,0.2289892615578486],[0.227690506285227,-0.0336512886229862,-0.09128075140922962,-0.15304239475763168,-0.019650479235446695,-0.6075045509694706,0.17637199151165184,-0.027388480087382733,0.3267239478307823,0.10813827405311698],[0.2920620307376071,0.04558832455748589,-0.21468678759429088,-0.03790571689815294,-0.11631634138477659,-0.6478850561268401,0.32333028355064614,0.060286957745514604,0.32341386325790267,0.09053405204725044],[0.20513313766192356,-0.025263580282741543,-0.08886631772212186,-0.12246354518894394,-0.11204198136969615,-0.39705106921313377,0.15203662377147284,-0.05189925249478325,0.19441942433234316,-0.051672646605008435],[-0.03996966118786568,0.08149922926962627,0.10061049995000487,-0.029873121329209915,-0.010794592842752432,-0.10496055188169963,-0.07161377414237241,0.055952367580523105,0.12122724303460333,-0.003246735316728272],[0.07402568308665987,-0.022091032062904026,-0.03814785413890586,-0.05941560819838862,-0.01360470304738488,-0.014359152735023625,-0.10015912798354767,-0.0755434542932624,-0.034807176678207125,-0.053692848607949935],[-0.02892208180055931,0.07182259631637197,-0.04940624182430814,0.0706056882966047,0.05588660622740408,-0.01784552166692123,0.06259553738272303,-0.03856783293465732,-0.042914519281552856,-0.03772607309459983],[-0.06526453265330169,-0.023693146642427432,-0.04080263979446913,-0.061802537452297246,0.0312694967822519,-0.025812979103474746,0.0549530140005367,0.060682816392078384,0.024916779522276743,-0.02174669163398036],[0.08866588121089651,-0.03246506590246495,-0.03835296434906638,-0.066204312990055,-0.05838671014659872,0.002709134239047977,-0.04222679584796503,-0.02129110775427462,-0.023675605416864243,-0.03810259330808737],[-0.01702834660706165,0.0443511877394529,-0.047974402229638384,-0.020734417924358893,0.029546237418856095,0.0007720227308727515,-0.07662207354195791,-0.004961133634330533,-0.0781518778497031,-0.03397452611095652],[0.002568537451002094,0.09528057954581026,-0.09058204277553236,0.0570435874269985,0.025278437992384724,0.02439309752531131,-0.04507303215677139,0.1252877315403746,0.07029586404204885,-0.06505199994292],[-0.06731034251790376,0.036446274069893494,-0.12708326067731587,0.018073764992835237,0.08564265627898994,0.022204076011786165,-0.10410893405853067,-0.006722977387821718,-0.002984138438648186,0.12496436653359308],[0.1611740469324197,0.11094309983254516,-0.4795118372695922,-0.1363791111710155,0.1693264149314778,0.024352143378350573,0.055277353618566734,-0.00886895070776508,0.0033825400381432918,0.28361355366030083],[0.1693135422563371,0.021005343718290055,-0.7108298987907913,-0.17234693486171548,0.20559406870041247,-0.0017007800599226153,0.1872710189718411,0.05935069901199316,0.018140903312866597,0.23349726894983708],[0.11020585300164353,0.021974342190098188,-0.644014501282538,-0.36156244800229076,0.30738634572818213,0.10522682335449393,0.06749732731719871,0.005372383444502018,-0.04025760941472114,0.2000754095515811],[0.12987083085720397,0.00868088642687951,-0.6285162128241293,-0.13552228072019,0.38658116836877926,-0.007651326759948543,0.026822642388003203,0.002245914308903243,-0.024757318640919138,0.14380270064222314],[0.078220788451343,-0.13786544768595224,-0.331753011940014,0.005553075779670038,0.2965771959403696,0.13179104120330945,0.07458294351635879,-0.06236871547336236,-0.12279092632456254,0.19337051637784272],[0.14726562387283418,-0.4761176509316822,-0.1990232213731629,-0.051054111801097715,0.4534608853002659,0.2488645408994812,0.05777780180053885,-0.19373656051080979,-0.09482148642120247,0.08372263000564396],[-0.04059853860904349,-0.3793262125400955,-0.24985887284982686,-0.13605419708536423,0.4348610660762843,0.3088251777740836,0.1512974193460742,-0.4385838732062551,0.0977972608611457,-0.05117485550601294],[-0.09105368721874316,0.01899850190367743,-0.18983548355024665,0.046011053119098345,0.5669022540194837,0.17998373558388053,0.1046098164311324,-0.6649775866017166,0.30805369077647626,-0.07652148937437474],[-0.041740680549365215,0.26857934955634205,-0.18865861604050194,0.20091896286256655,-0.027931678953561637,0.18209336205040655,-0.09019203362475989,-0.9225772176391434,0.23166481148145704,0.2471310857206741],[-0.38513784722304034,0.4968541795910148,-0.1588703400500883,0.2639950116393089,-0.13057783308414153,0.06689479715662519,-0.08640734132059977,-0.32991052059050313,0.22664547680725403,0.2381426752581606],[-0.592671880740636,0.35270861187465785,-0.2102299492483156,0.10298735945222755,0.06477747246376545,-0.1499476078953896,0.07819502475509232,0.047798723471677844,0.18583851298323595,0.2519783946014831],[-0.5107851910601167,0.2014217849989552,-0.19774085293315383,0.04564433485074104,0.2462420311377019,-0.2926162699253736,0.08540754227426436,0.14375385355556233,0.10004990920169225,0.23423770039041913],[-0.32950717212724384,-0.020457482307076103,-0.0952947339159782,0.1747799153107336,0.2452557207692518,-0.21215221319986002,-0.05923095721642689,0.04295304327153455,0.013339813251164956,0.2619947964871632],[-0.26012079323833814,-0.20295268826175286,-0.128355618982524,-0.049672365366669045,0.15437282471212266,-0.12635409670433,-0.05032270356549324,0.09588540370119294,0.09870501763643526,0.3252098093175981],[-0.10358789180655198,-0.18278196448945977,-0.11666222106165632,0.04084645053708012,0.10657852519217825,-0.11126853384139222,-0.08949515611237079,0.048567781672569976,0.08285980329758304,0.3363543230201556],[0.003576152800388867,-0.10503527106512266,-0.07999378131561491,-0.10006818103789492,0.040358881030365515,-0.10860665461589238,0.12716664157756907,0.012668456495841175,0.09485110324944103,0.22590691455960984],[-0.013642904970111742,-0.1127721264285351,0.005354612070859958,-0.1286710465992139,0.09961300137638004,-0.224890958505258,0.1400470224943581,-0.09373049979875592,0.07723557423562902,0.08269714566503245],[0.18354420418940054,0.029193076534825065,-0.09224687442198949,-0.18185610296211008,0.15731396481478113,-0.26900289529261584,0.3344588643515918,0.11040541141816552,0.0761749120143032,0.010357574514897185],[0.31725572950566905,0.0412261351541856,-0.1886989931315581,-0.15459639540175424,0.008893717026524176,-0.427005608540383,0.4531081271290138,-0.04799650377526973,0.17907441497228183,-0.02729602804688203],[0.24696707193446168,-0.03115512628809721,-0.0078308885834049,-0.007712794577466682,-0.017962713941264148,-0.28695144326341426,0.26460172656747133,-0.05284764655556878,0.08462679764526271,-0.17099464860175326],[0.06111346165785657,0.048341129465344176,0.12845784619835895,0.031647745174579085,-0.03700710581698855,-0.050879602035015827,-0.05936197666076793,0.017672391382628688,-0.005901899854651834,-0.0399338653845262],[-0.06314987079985608,0.01981853127393647,0.044929564983180084,0.04228599178754992,-0.04641254878402702,-0.06015215193357647,0.02107627348590672,0.06406548054533366,0.066523242227803,-0.09041805652357966],[-0.041495514182589906,-0.04750872135496464,-0.028538711146301236,-0.001856781818965608,-0.018153027518784705,0.07004593103700424,0.018795972166805928,-0.021879020645773118,0.023028393949929667,0.005206501346046363],[0.044017856275138635,0.004762595378014242,0.042607150010503504,-0.07177387549404962,0.013642551226863218,-0.04968021840824699,0.0692529272796578,-0.059002704863430365,0.04173572280491096,0.06174388025739343],[-0.009108878125687041,-0.055056787207179846,0.05921169228035881,0.06324048758650619,-0.019104697210590233,-0.06064892797289956,-0.014551262668143577,-0.03063130850681143,-0.07180942274981617,-0.002163135543634662],[0.07621889188810096,0.04122137969163217,-0.051885958102829456,-0.07155025431765974,-0.022977620061596454,0.03167959904018175,0.0048363593968036404,0.11498324862925029,-0.04483950722697482,-0.020097568342197888],[-0.009850903137622304,0.06872143481845609,0.05669666193889228,-0.0449519492567817,0.05605604974485637,-0.03466991738570864,-0.00607194427601677,0.08112620336410649,-0.09429420249597459,-0.06207138392772122],[0.055956141449628495,0.07264152795166424,-0.017456957770187728,-0.029513366670671077,0.1384295400721245,0.035146400756866335,-0.052136784179586435,0.06980792766607812,-0.038391306874473376,0.12805740024484413],[0.10703075658543569,0.049122757909618106,-0.3082283488676862,-0.12092897939442343,0.23860904023888804,0.08757823713215922,0.06685386546640071,-0.11581536278713797,-0.19815965505500463,0.07435241633507765],[0.11406920804565995,0.05712674347003676,-0.3564810749924773,-0.190388533784172,0.24626329701489535,-0.014841746051855339,0.07763443287906464,0.004224124900993799,-0.19873127973832463,0.09554573379002275],[0.2651297828432931,-0.0004020703311380135,-0.3174961391324767,-0.20852355360272712,0.3336159660465238,0.09004455709467474,