[{"b":[[0.031936395158934525,-0.051309121444413616,0.035129733914845224,0.021108449885805767,-0.034237938423396064,-0.023450870023150064,0.0179136061148833,-0.02237028380336055,0.03563070986920277,0.01910335364891829,-0.04797927852569396,-0.009215049293752038,-0.0032668819120508725,-0.04431899363736011,0.0009514796523905601,0.019999477989504848,-0.07461032190267189,0.004717483221216349,-0.023407053005505697,-0.03127553007728949,0.04793213702884612,-0.022729061045805105,-0.07163112909719938,-0.04332471553093417,0.033283816368975275,0.07672098416114581,0.029153666470684566,0.006678168619665337,-0.005705351879932815,0.0553728228074365,-0.005276528320381656,0.001454378630606208,-0.0064599002925634025,0.019966660067717874,0.03329145621794523,0.004860556282723446,-0.025443644773404613,0.055232893848785276,-0.011017863337537997,-0.009807896920315263,0.06702983462723933,0.03232272260657669,-0.06103669154098165,-0.0012985816777758836,0.08188511684912259,0.014654498810959385,0.025819451567663836,-0.0300768910955556,-0.03820702303988385,0.07567563059396008,-0.0319327212749264,0.04470451131883102,0.009723531191118247,0.0013346923174839694,-0.005138881323742338,0.008236654170291966,-0.012154062615584282,0.007615760534683937,-0.04250989836195176,0.0128288223409467,-0.004737378331134606,0.0017511524341193802,0.05122188737541494,-0.0489854006349514,-0.05768323046009344,0.040837930384664364,-0.0762685924916141,-0.07009602087014538,-0.06195998661087283,-0.03374401340278118,0.03632089876835859,0.012318628830880255,-0.009445377831118179,0.030326902030512616,-0.04662283222885394,-0.07303901930302589,0.006507033869440949,-0.023139503155018393,-0.0006338581431468092,-0.013420836291337265,-0.08612693922916298,-0.01586426983529062,-0.03965987858284326,-0.04416186965439167,0.0339151943726323,-0.009044915393623443,0.02483087213845608,-0.00973489226917745,-0.0017829253085846677,-0.04259314374463725,0.03899296145179822,-0.03185795312486628,-0.05411677485352939,-0.06918220250711403,-0.08462585116633511,-0.07547831390135716,-0.09525780223302335,-0.07131960963398387,-0.050437100177806886,-0.06839994431942728,-0.023288017931219072,-0.1090852608096439,-0.01165962502672031,-0.14573067808667553,-0.05456137803484687,-0.06428173789013515,0.023682528659620308,-0.010105311684045009,-0.045010683351594666,0.01746962393855415,-0.014256910967453372,0.017772991549849126,-0.058306484579344106,0.03360880447446243,-0.050550550610104585,-0.03078715386687218,0.02673999924716489,0.041655447219648555,0.07079291522621024,-0.04413581763050202,-0.03215184941014875,-0.07758307819680055,-0.09646732253965658,-0.14095334591950254,-0.13748832960323337,-0.11818711758352107,-0.1351308520864511,-0.11179227858174753,-0.07929588760505535,-0.07774604148546202,-0.013954407892231915,-0.04713538814339583,-0.03231183506120377,-0.05049413061449333,-0.048192876798482165,-0.054991297263253074,0.011724585252946769,-0.04021023483198372,-0.016055956483745134,-0.01446585061009912,-0.015861259427163724,0.03967254379578567,-0.005436122547162802,0.05831751738874536,0.009166616864399875,-0.09861464987948065,-0.031319788078330094,-0.025299678765992237,-0.16536020903635884,-0.08978169788296467,-0.07874790954753379,-0.20331400823766915,-0.1545251608531361,-0.23833076347964444,-0.18361673024441325,-0.23893534204249858,-0.29100284156330924,-0.17132834082341755,-0.054077719390437616,-0.12130967778581415,-0.09045717051376409,-0.0601485335496533,0.0351690834039745,0.03813301974936996,-0.04498666182371532,-0.011454878577430258,0.01090086398017026,0.018764453554644286,-0.021723615292248716,0.011584507998332522,0.004468856792854071,-0.027483902653153976,-0.025431120737517,-0.024907969371967337,-0.10277012333149294,-0.07962264392434104,-0.08042352672029082,-0.0962364454924802,-0.12387905767287163,-0.10806060326542996,-0.22502596903736152,-0.22499477713409505,-0.34404769289124754,-0.3143777596443256,-0.254633484544719,-0.17208166978074865,-0.19379902900722767,-0.11935170489178419,-0.03557278003475203,-0.09797496790570438,-0.06483755944062042,-0.14334958473684015,0.04634466498269577,0.070938098529192,0.012341372134682053,-0.008409364084180545,0.011675860166900679,-0.02700959126989222,0.003158593798706132,-0.013892627743908282,0.006209661719354583,-0.1941974025716418,-0.09498039848998334,-0.1323724228034819,-0.08718960883318826,-0.14982285223206807,-0.12110618336634414,-0.09381147877612243,-0.18909331881917052,-0.32695134888531957,-0.27829655321263064,-0.3637885940117188,-0.3190706487938361,-0.21307856457259622,-0.17723750086715545,-0.059361660289203894,-0.11108182148920355,-0.06539828334538948,-0.007719530354190521,-0.06914513776619134,-0.010166987116235678,0.04019459158502423,0.0858341650546015,0.024475509763011986,0.01716301480140372,0.06853719693223952,-0.005398075010955574,-0.0718103226972305,-0.036614826231263185,-0.12704240300723757,-0.1594038126927088,-0.042600710326097135,-0.08901881575424098,-0.025710206207790444,-0.1340721405981252,-0.07333190339248302,-0.1958497205679252,-0.22259140571439387,-0.20019495742458857,-0.32999018155613424,-0.21775318984383812,-0.18503234303569074,-0.142887486874789,-0.1810585378184067,-0.08673219010309473,-0.14256042972599126,0.025407262633602747,-0.052658069495161546,-0.10002816091348099,0.03061974077969042,0.014724353883702863,-0.02550614193365066,-0.028398907168132547,0.06252991293590207,-0.010838852208667142,-0.042855657988251576,-0.024262047320821156,-0.12007603228993659,0.009392440433069811,-0.03900752356569682,-0.10920490995246106,-0.12352730090311687,-0.15222668646003548,-0.15150774008061324,-0.13023366776099427,-0.11621624706942775,-0.2481263163653574,-0.3168943530810599,-0.31970607120024347,-0.29510228520447024,-0.2518285526927825,-0.2799760943254302,-0.21264353710014072,-0.15282841898133867,-0.1413273061177277,-0.07723467128487056,-0.15283375220269857,-0.06608647802692144,0.041841319513423805,-0.04803703254191982,-0.057312414979714926,0.014059698999932833,0.030013230761739045,0.05748709520582976,0.03863730875089578,-0.11647773701672309,-0.0731255245387722,-0.11098685992111613,-0.10227373326963275,-0.16303129128976446,-0.2174451389401327,-0.1693023901438149,-0.15195660847840775,-0.12619030457115626,-0.13882275131679278,-0.21584863943793162,-0.22065341770530322,-0.25701943352205614,-0.3365474029797817,-0.34595113619197304,-0.3596183613209692,-0.18531492307612568,-0.12393381426870662,-0.09458860062396217,-0.13222925380961234,0.004509638970160335,0.04396709731248322,0.03664927540789292,-0.015154518632658202,-0.04864568257591582,0.07115439950320199,-0.013568445137622807,-0.034064518588013126,-0.03254407100110739,-0.14944090442028848,-0.2099929324534329,-0.26798682001179513,-0.23798224253139538,-0.18156922211949425,-0.23931393252340624,-0.27013426551635805,-0.17528629240646074,-0.25857834911532085,-0.2061958554123077,-0.2682172467437175,-0.22623305669391122,-0.30114645249349836,-0.2046955040699241,-0.34323794531641905,-0.39163148212862076,-0.392884813203324,-0.2689284294615044,-0.1441641860675855,-0.056272207828194164,0.004719988828377196,0.00940953507765872,0.03054141073152238,-0.07234302997101982,0.029400315520359786,0.011304000007635538,0.049420683612709626,-0.10881182388050308,-0.259909441167456,-0.3199596402784272,-0.23039983349893817,-0.3415808518121627,-0.2604677430363462,-0.19007032016269051,-0.3900312203430953,-0.311912983948861,-0.2727924977459716,-0.3478145374224137,-0.2770551756420152,-0.31384905095206445,-0.3355403487238349,-0.2714069032593297,-0.2648423849316871,-0.2810540067136682,-0.3769464973256188,-0.4049503291849062,-0.16431719302954623,-0.050176989551401346,-0.0009708562120478527,0.011073651011240502,-0.007313371213791917,0.005357524685377698,0.04304923018613681,-0.005072124764628429,-0.026201659959563722,-0.19383715033772767,-0.2643839297692494,-0.2589875888373332,-0.2812656261941905,-0.15910416005633346,-0.21452541446315884,-0.2883689406215151,-0.38004104350001405,-0.438166747103372,-0.2587975419309637,-0.24587836887495848,-0.2630721032146851,-0.22911028888783894,-0.24274897325560627,-0.2025834258724401,-0.14694830927847186,-0.1285611385198331,-0.19519749148880122,-0.33478689729058586,-0.12173217706896858,0.01960975352778906,-0.026956238270261015,0.024575424953953907,-0.06845232697775136,-0.019861725354405453,0.052068606651004504,0.023194251643083908,-0.034730240315011936,-0.04582739798042311,-0.10905784545196351,-0.1641385488336835,-0.04797395453618724,-0.13930284509370328,-0.28511586110241266,-0.28370584879944954,-0.366168876499652,-0.33229228360744706,-0.3556119752322504,-0.2772829842352769,-0.35853966637268464,-0.3149968795507361,-0.2394471124689275,-0.17191420223564546,-0.08616256060029856,-0.05629274852479221,-0.1078666185294331,-0.2184592933566155,-0.13109456001717007,0.019094755884236106,0.014559688882022921,0.000902535730601606,-0.02972213433826482,-0.03637807435206712,-0.07454905784505514,0.05519096551091741,0.014866967227013039,-0.10339613239757726,-0.19423276009798476,-0.1924953029858455,-0.10105269166565474,-0.18136561667070328,-0.18984925683746462,-0.2448535365761884,-0.300445558657488,-0.1650452167834285,-0.31000935220219195,-0.32831442101747366,-0.21869957057966435,-0.26373162445542564,-0.2961774326389999,-0.09756749015206186,-0.0658501005982824,-0.044800255349411955,-0.12012909323216006,-0.03235833606624276,0.05814817631526679,-0.0727036861473201,-0.003982945007856069,-0.014127285257470187,0.02339865696630511,-0.019474587181679277,-0.02360454517806172,0.026520524852025128,-0.03240946127363845,-0.10054090674626362,-0.17399714709539083,-0.1435911199461092,-0.21467763155770722,-0.18645276312582737,-0.28832408521471387,-0.26369643993207553,-0.2452445715148838,-0.29300768269688054,-0.28998750006263996,-0.28773590362802587,-0.2284917909629818,-0.20433141518141099,-0.18181943632770367,-0.06386214577445314,-0.14046935491822637,-0.07462020349780922,-0.10780163326860864,0.0002906006006290904,-0.10576444854878016,-0.02804343599973424,-0.026847337115056515,-0.05138624526998588,0.023109636757309863,0.00427841659789563,-0.04811716502435139,0.010807313976672953,-0.050589547391038284,-0.11461604210661197,-0.020422915499313604,-0.23219326175954724,-0.2023949600938319,-0.3024205615104715,-0.32511366381552087,-0.29539949177624025,-0.2745032123885738,-0.3728339757445195,-0.16395477112571605,-0.2879715557850897,-0.23603716207257922,-0.14010082597034937,-0.08748502340099526,-0.08002332875354459,-0.09034864786116925,-0.04698958549366445,-0.05533737131760375,-0.012342593612308127,-0.029036486541266452,0.008539255447004509,-0.04181533125908913,0.029884787013626752,0.07117445473459678,-0.07223616480899955,0.014901115319282773,-0.039663395840250464,-0.05338041494444732,-0.11491806653605557,-0.09057608761690637,-0.25694748439933823,-0.2226874452180256,-0.28139085116074825,-0.41014033721397636,-0.3135827054562883,-0.24972355404344776,-0.21063219126942276,-0.1259199143636289,-0.06497624539155193,-0.1799142518977587,-0.11145711920715572,-0.124906663928841,-0.06329841995771474,-0.0841491359801063,-0.043085766791647204,-0.03006463590821559,-0.08264856872584397,-0.012731331049236813,-0.03464324902261641,-0.028162618384806243,-0.024657561982441584,-0.01757148696221547,0.00810759536798805,-0.08872502390876166,-0.05303695584322288,-0.08006217445356287,-0.09850020634144573,-0.1298738913938049,-0.08922676601177372,-0.20770058251223067,-0.18660049300047188,-0.31688611197050276,-0.2015359868872364,-0.149028014752936,-0.08778137856280198,-0.09045625028360829,-0.050693707089056544,-0.21133336322087592,-0.12436927437977786,-0.14358960779194282,-0.13837994375612703,-0.20669725702168668,-0.14316418752078297,-0.07903997271708667,-0.07690280734642818,-0.09000795919049785,-0.03404227335412232,-0.013539961229715087,0.01453505692367533,-0.005141645675103793,0.06442081846916131,0.035761097730614456,-0.03453957301667968,-0.05989461226813616,-0.14087863955045246,-0.14622859914819877,-0.11358433848805917,-0.18969923808736244,-0.1882397689595134,-0.2968954848873133,-0.24445705503040704,-0.15233179906441235,-0.08083950350807831,-0.12166335698863791,-0.14455652511842623,-0.17678286563159334,-0.18517516492652528,-0.19090056181842957,-0.13419148147363097,-0.1281281643228553,-0.0653556238543241,-0.07178515163039041,-0.08310385578440228,-0.03244605038472686,-0.018170020231797812,-0.02462139099968371,-0.009920992737339296,0.01599163470864934,-0.04968984455898288,-0.10205431942012905,-0.04530421427696171,-0.06021037544277759,-0.03718451266620833,-0.0732683164205575,-0.10284180943878542,-0.056891376886340765,-0.13831921752322576,-0.1816684726158429,-0.04802545032091859,-0.12881769161341583,-0.12847468002279977,-0.12870651226822288,-0.1452254179406089,-0.08580920451443054,-0.13687172258121216,-0.13214147744541863,-0.08639904688892718,-0.08542947282713254,-0.06136124394170166,-0.03213227364028048,0.0002237673805131619,0.039294166366843096,0.04528035481309863,0.09756506997707862,-0.005825981237754471,-0.028482419045011476,-0.02647970991226686,-0.033578763776649784,0.0299110744952458,0.017586442631790114,-0.130841397928396,-0.1418466638890441,-0.1474074954002455,-0.02981003758605926,-0.06512936988753457,-0.06563202956589802,-0.15064030975117193,-0.1337479292946758,-0.18436919058371531,-0.10865392287299896,-0.103914167697059,-0.054958039793540046,-0.11224490717192143,-0.10363747426093046,-0.12702154594808543,-0.13195071482675735,-0.06344312755876674,-0.09510686728976545,-0.06221322518993628,0.013400227781646845,0.04489667255288451,-0.04978786970545369,-0.010198178655469969,-0.041571181049206075,-0.019677462968550555,0.001125348516394857,-0.036453613145694126,0.019903643397833546,-0.06038759768754979,-0.13523058330701765,-0.020259844668608765,-0.08345807875005033,-0.08772936940603478,-0.08936521664615035,-0.14277347809492413,-0.23411758199490565,-0.30889610670147755,-0.29660033379086065,-0.1537913748996322,-0.09971842391832579,-0.06955772928526706,-0.15312655637333314,-0.06390574631975461,-0.08453456611684751,-0.020607758124885463,-0.05266499535780472,-0.0025181539807030604,-0.05577392959426458,-0.052391547092877785,-0.003317361472886517,-0.08174690833435659,0.025287238035077615,0.019291596967562948,-0.0036671957898195377,0.04556420483039013,-0.014267459807541159,0.036042175140107886,-0.023648017514227716,-0.05351994472901681,-0.0548384165010377,-0.13518548575657732,-0.10538314262013318,-0.14563925394046562,-0.12888035137737194,-0.09575871579839682,-0.0263988400885452,-0.04922050087762594,-0.14890450136749656,-0.024565022136120634,-0.08265995617643798,-0.03989405692315865,-0.006833306059244845,-0.10555160824435593,0.02690764135843213,-0.062097494535420884,-0.00034522505160125604,0.06766594470885198,-0.0026718188548711277,-0.05930777261037555,-0.03811787050162714,0.050824975312275165,-0.05523697080444001,-0.047187082659034256,0.04672387310040495,0.008926063097746033,0.0508829658050708,-0.04005034999968498,-0.04060539581771631,-0.06867607740649022,-0.04395386829609921,-0.060941356983027425,-0.0868056674747648,-0.07681270137070081,-0.06578293692640971,-0.015073123112651791,-0.1112880554961227,-0.04605140500679043,-0.057214440857941334,-0.11329256169404506,-0.0067967714461102825,-0.09951038281773272,-0.013792792247114284,-0.03882521915215839,-0.02109886184059105,-0.034306578630322354,-0.032676730740106005,0.022909052103450754,0.06624626381516426,-0.007859419358975387,-0.036812412761970136,0.022409784250078228,-0.015340825352064687,0.026812647842343256,0.02148057967421028,0.0467603618052989,0.029207495407931265,0.011547339407560036,-0.06859169987771173,0.011798087001591306,-0.005511656163661869,-0.10321881588460814,-0.05390482408994346,-0.04390226735307993,-0.04933108264657313,0.022737822028673336,-0.023112247419855625,0.0033695860010562375,-0.014056438722169147,-0.061057181868877645,-0.029857889834600405,-0.025461569363404397,-0.024987763020312415,0.010339598669018934,-0.011238540949543048,-0.023644095086923462,-0.012009027647244052,-0.0009280209440245603,-0.06122427915724149,-0.006756038753459105,0.08359552677628782,-0.011595865631875158,-0.07670075945437553,-0.033862642212567774,0.044568149265587415,0.02212681152374717,-0.02642901719868531,-0.016154326330084366,0.01363847767387969,0.053243410760501854,-0.01731531442946901,0.02863855007035732,-0.0124563522200123,-0.044396813734075356,0.058835166390978334,-0.058136819266303034,-0.007162204361791187,0.0390792066201075,0.02347368261905708,-0.060260562826444236,-0.038874316295725186,0.028666988680906443,-0.037483869827142594,0.03324601619318181]]},{"b":[[-0.14851233237504513,0.2862144882051243,-0.053874619042326134,-0.08232943249921724,-0.05797341133734254,0.6043467605082394,-0.04632432335931558,0.1818269928015667,-0.4855627120286137,-0.19781141087307008]],"w":[[0.012396761504455964,0.05077910114318172,-0.07366903316940104,-0.0553396392907413,-0.023857132841443602,0.05466978850151063,0.07549026086151629,-0.019354812682244087,0.0037127985480464054,-0.010728936136747948],[0.04519700107576065,-0.03403614985858324,0.017948776372041682,0.038003071062992194,-0.05659842894154796,-0.0721846038294188,0.028856900039800962,-0.003970192172132958,0.008828839058285104,0.06567861389842942],[0.0004104310161686708,-0.01388160773095964,-0.01914234245088997,0.07740465232953773,-0.06249261939351492,0.06351502637379021,-0.04494696149882185,-0.06380536738872769,-0.01535604051811007,-0.08665523882614592],[-0.07318354194882082,0.07628916775923703,-0.051869566154201796,0.025760343427265204,-0.011316672870244404,-0.03453143615796881,-0.0410632489426621,0.052247767867384755,-0.0045722036003056805,-0.06898889319031999],[-0.03686140482040314,0.06089688900050019,0.04063640396231463,0.029111002539279254,0.04674692013973215,-0.08082388756161192,-0.05350972499874094,0.05670195439514113,0.03603951930904025,0.015441554494558661],[-0.008815500789560267,-0.07040903198670155,-0.0701172688433931,-0.04973527073435801,-0.03667392304953795,-0.06674370823535493,-0.0440916907698673,0.031381254827635575,-0.015608185958441725,0.010416823057279017],[0.07816821387307213,-0.06851492160289492,-0.07092406317021506,-0.017432839272519037,0.0730230086900854,0.050604221822175506,0.005046244458299539,0.03738520688945619,-0.025288312442395575,-0.015005192288165032],[-0.0768581141940347,0.05116961459691929,-0.025449243448523236,-0.056548404100282924,-0.028641636405064667,-0.04646070018906724,-0.01780341884617096,-0.06598989219664393,0.026202189934110234,0.03589129482713444],[0.058595635949764996,0.021850806921904546,-0.041724662698829705,-0.06763488088104938,0.07161318382965358,0.0009609657718186328,-0.01420312906203474,0.005808845265780613,-0.08968678511279644,-0.0546650262298725],[0.040243907221736375,-0.06354943940524492,0.07107080687612981,-0.06514489494891004,-0.003171687456188111,0.02953080649605623,-0.053378085114834085,0.03022101739634355,-0.022259456364979134,-0.044411473324199445],[-0.03884849980727422,0.06069557909878924,-0.03250547621301639,-0.05089430093944881,0.032434344122759466,-0.08905181346939044,0.011836079073615799,0.03612074020841445,0.04917060180703337,0.08217033344414981],[0.05360567933333525,-0.06099102217867459,0.07587113562517558,0.013417058559762126,0.0034225606535410596,-0.034417115908123255,-0.056571859574931556,0.07569287969848976,-0.06489954985529112,0.08082908374074668],[0.014984881700885947,0.07561276864773496,0.054640810515097636,0.055202354764885546,-0.0006229857344781498,-0.05497419366357624,0.018372914534235642,0.060052875620845485,-0.004274721699317786,-0.04729050403219283],[0.0013298076874430904,0.017476821590419987,-0.04459160802457665,-0.054992741408472455,-0.021347985753908793,-0.07760148744319946,-0.0489612155008339,-0.05489702912850337,0.06342587490286614,-0.07610897009462052],[0.06518835142847818,0.060892527345220784,-0.02659489308259545,0.06891900664510611,-0.0216249656367391,0.061528604889681385,0.04281081179376398,-0.026773099081433677,0.07357188468606564,-0.014371778693652944],[0.06116817908296125,-0.003927843020777432,-0.03376051383070426,-0.031028388122266323,-0.005285887777350005,0.014395048977230691,-0.002910363527539321,-0.07028638040273419,-0.08273042351715046,0.01044465747976354],[0.019995099257075516,-0.08088869825259194,-0.0017866516486660375,-0.03887176482033148,-0.05168489213466009,-0.09879062596537956,0.016210055374905358,-0.0066863765561995855,0.06778604515615264,-0.004879313286197936],[-0.031678786175774735,0.0013951589070542805,0.010473449361298496,0.03758748617099779,-0.010520529944733407,0.03195823138763159,-0.06243445049980539,-0.058469044044062564,-0.010888642860297141,0.06448212054237959],[0.014043658775658385,-0.07184844246575413,-0.0690012470796823,-0.07501070029166103,0.06414513910228042,0.009600695145821184,0.07511771199216431,-0.04608264240203469,0.0342026336722054,-0.010761282584335568],[0.08551281859847275,0.04678476243912829,0.031197231378222997,0.0668115732600826,-0.04601484752208306,-0.020043356252227394,-0.046233044723045055,-0.04267609981243847,0.0462121158071392,-0.0025241688882379383],[-0.014420726279932442,0.008256798305523377,-0.005411139839330767,0.033694404658395995,-0.044066629508072,0.07905250251649604,-0.018908427988263504,-0.07364346243915053,-0.04793790214474585,-0.021075803196865757],[0.026303766346795505,0.05026374009784154,-0.04362892674089066,0.06574726162480045,-0.06687750504878401,-0.011622026218309735,0.03961538978938488,0.026850211532750613,0.06960944550790944,0.030226311862889925],[0.028449234493309477,0.009773336122609349,0.04433485023743956,0.08519223820321682,0.0426620779842311,-0.07529488682078499,0.05494378698113069,0.07452904297412989,0.093478565528824,0.05877136441633198],[0.05948064871744332,-0.07402173625594324,0.018854501821775265,0.06558534179043736,0.06046811497941603,0.005145311930849762,0.01662363234217854,-0.07381569842417292,0.05162600751470801,-0.036647249772688496],[-0.022822644775096903,0.02791709690057479,-0.081019817587909,-0.028877284339435958,-0.06205269144604204,-0.0022836606670855967,-0.03951285537402772,-0.029654559381875348,-0.07991448566572648,0.019988637607575445],[0.02685221482048137,-0.06708711534711767,0.014793021426551499,-0.07463374843996658,-0.021911793011190225,0.08826223412807536,0.05866228398956475,0.04636676083376748,-0.09373758508314506,-0.07412409966871808],[0.007807615218024756,0.07769544798600402,-0.051237358173870956,0.05715962044302249,0.040742683677161766,0.05375079450553822,-0.029750132009531322,0.07073861077522173,0.049476560599429356,-0.0526063801784067],[0.039151311556407005,-0.02852492856473182,0.057345920506432516,-0.0635261769933856,-0.01517858108045937,0.006606215656354454,0.04601631518094878,0.06244952366054012,-0.033766464456539004,0.07495243701847151],[0.047528236202121606,-0.03179015145286239,-0.013648759115221202,-0.06390630825426463,-0.06668037645708091,-0.045124329234452004,-0.027775423984537407,-0.017283628350204555,-0.023125652538824835,-0.07674942102081368],[0.016448959427885844,-0.018980403295938128,0.04104997394537227,-0.07948539482367672,-0.038266025073006145,0.0670117452340552,-0.034412439954826166,0.07744465463679732,-0.015545746353746314,-0.07947433825823245],[-0.07399539944694317,-0.0744076199856102,-0.021269528775315256,0.02304676793136309,0.03335501695855872,-0.013597413777534515,0.06468813579893759,0.07424620516984301,-0.025806069093110576,0.08478045511366761],[0.05508029197667534,0.050346251452290366,0.05924408078652438,-0.05889458828443918,0.02961531406891083,-0.0594092232601951,6.268525159983915e-7,0.06122971634704635,-0.032013207782670236,-0.058440295548847644],[0.08472143476346855,-0.05241732852989552,-0.030038809370308672,0.03505732949461711,0.05973899667449506,0.05204971294347248,-0.07525385207715944,0.016306508936722797,0.06133165362218721,-0.06767204483499656],[0.04029094891765624,0.041223085197192935,-0.032080479931346745,0.03466591318780737,0.0415318578270972,0.05927562790732678,-0.029880953715433384,-0.008959393341291654,-0.01560452201252939,0.07518284350477812],[-0.08328376940624464,0.035034807115197845,0.04503802376994405,-0.00019353242497732747,0.020610352181556164,0.0735235215642123,0.026029103553706835,0.026573989200665702,0.04768766804787246,-0.02154312721774827],[-0.007357691927538117,-0.07185934139285689,-0.004092594065779385,0.05321488526489665,-0.10799915061355521,0.05406081132607671,-0.01969586004712411,-0.034265143596784266,-0.0002628991275607532,0.07142990314563621],[0.04740326293546367,0.004092064193309673,-0.0001823692759276672,-0.06443522869349048,-0.08544432008301397,-0.03260976721564709,0.012276920092265154,0.0030613798901396603,0.04901798839197517,-0.014037063653206205],[0.028788223997988784,0.0476062709551031,0.020191290294298718,0.053958581617058354,0.023453470173872372,0.09059212106753728,0.07346824802483655,0.08567293942587267,-0.034741963306022396,0.04589414518155349],[0.06542736397470861,0.04678464077820639,-0.036189399011491374,0.04405038769642172,-0.02816278849969143,-0.0622648901428601,0.04345756171532864,0.05193939031526273,-0.03196485432593379,0.010616185052913719],[0.03678488588283947,-0.012166014084526798,0.0484852950428056,0.04683135207760237,-0.05400344421694268,0.03436314902265155,0.016409336587015058,0.045313618336169155,0.04691964545652435,0.07623843429450576],[-0.046607559132153066,-0.05893122560527151,-0.05191795269962382,-0.06520149590500182,0.007919197265552734,0.08871900842586508,0.028987624476423106,0.08543795854105206,-0.05190020960479032,0.023160878660035123],[-0.000777730757230567,0.05080008675638249,0.03453211196046453,0.024163594976511306,-0.023398028947003963,-0.015950797581580224,-0.025020908689990892,0.017467330922360857,-0.06289425347988686,-0.033980303810255436],[0.07588214364218147,0.029770036665573884,0.02011931300094022,0.030450005711267835,-0.044621918995747724,-0.08535906499932375,-0.03725113452984381,-0.08787624653856779,0.057257747510917,-0.07554675942182708],[-0.04100633450087348,0.09202984356510246,-0.0465892071721482,-0.06171889397914677,0.003374881673934236,-0.0016820432627038648,0.06170645465965453,-0.06550280217251891,0.011914563353084964,0.04600349782959385],[-0.033749857457961,0.03391329765870789,0.05476897449221046,-0.0581434629461578,-0.04967976999493646,0.08545222539760791,0.0741323641585855,0.05044439161749425,-0.08606545570280169,-0.007434833408937565],[-0.08389630861466219,0.046542519106011496,-0.06106264615304555,0.05166692104174905,0.0211650363451908,-0.057196875309832085,-0.05657855754824868,0.020650148218269437,-0.08685353984096139,0.05915323328899432],[0.03491200087094521,0.014947477747373542,0.08225864219975619,0.02478747189843935,0.06625083274048524,0.050799166900605756,0.0715944333908138,0.008130465910497368,-0.05924059998496907,0.06283953902979063],[-0.03686713018627587,-0.0038368785280467085,0.03554939923426316,-0.0429668609698402,-0.03486955757688668,-0.04108177127598334,0.08845215995341575,-0.005557443379135084,0.03426836217120592,0.029381598892333972],[-0.07417320113930376,-0.007178633179800809,-0.07839607689762651,0.06140903374306304,0.0320776759594882,-0.065709711652597,-0.02060639588310082,0.008361004178969652,0.02499811880368986,0.052637963240866115],[-0.04329878797689517,-0.022112128744761258,0.055168121955046265,0.03162770030716833,-0.08229843873339043,0.08713689700299372,0.04259911386228171,0.0831611019394963,-0.07504731132171684,-0.0021167447324337376],[-0.04264451507103882,0.04778202968932587,-0.07839091060271083,-0.017959836682731368,0.0048048566452633355,-0.08034617018847104,0.008981210448288616,-0.03450471267847784,0.005771556572218503,0.03227258899320529],[0.07569866766119385,0.06544989037500809,0.06542491502829038,-0.017710643668067138,-0.06725102832483822,0.022295625672429615,0.05416237623570807,0.0866268282175377,-0.07539484668491023,0.038579903055654494],[0.01895835822624954,0.05386112052499209,0.012977897289300884,0.026739317141885256,0.05343925381615756,0.06496527130842897,-0.06568205073062174,-0.03229724404558286,0.0737711676588285,-0.06807999657932623],[-0.07392449299501674,0.028582250696488,0.001059948630991814,0.046579235185159586,-0.029831899800689298,-0.022387802724646633,-0.01771979412449142,0.008173170265121652,0.01977281280903393,-0.043779904282918725],[-0.032060125736851804,-0.07500354806712568,-0.0026410682380572006,-0.06756050116041382,0.04305992556802471,0.06144200349077458,0.03958305803406203,-0.06890768082315674,0.04744790927047348,-0.005173131223205179],[0.005395832656417465,0.06303622787865083,0.022815881602330276,-0.07342687213176616,-0.0769200551225433,-0.05406300324546697,0.0023676027070506107,-0.07283420257356689,-0.05986377958980144,-0.03972418834058209],[-0.0680268698509065,0.07802369650365425,-0.03508128607994116,-0.07501253663960376,0.04211222131500555,-0.03800608401532217,0.04540363003940207,0.038222778698659886,0.051283794513395084,0.012935648770323398],[0.07509208158573161,-0.03495651435486313,0.009518846845319331,-0.058508987755138714,-0.048005270535486644,0.024485949139403742,-0.062149737275564665,0.03421896997203536,-0.0035209300727086605,0.01976922571755528],[0.029218785540827876,-0.0465388660409458,0.0014724412683273808,-0.011577308025224541,0.05511622523072059,-0.07197255863578662,-0.067862576876776,-0.004859377372473033,-0.008171823383823095,0.016263921729616698],[0.055200797419122836,0.009430571565221927,-0.011111183707266579,0.04727240850852346,0.00544855828591651,0.02399507267905761,-0.06170425527848927,-0.06985463561542729,-0.03212721194966146,-0.04628340349669274],[0.051653171576436285,-0.07654142297476044,-0.05442790857764261,-0.01693525983374647,0.03306322214510094,-0.0023730544193859113,0.07403125592868016,0.06694436708054131,-0.03302797727307872,0.05317232650879592],[-0.047123100044266716,0.02499931842909345,0.06510656989164675,-0.03751386061319907,-0.06371817976831931,-0.02589272701808801,-0.0017482839011473453,-0.030232301010896037,-0.0037703393822202404,-0.027192954958994254],[0.03734192151643765,-0.025967364371162798,0.005555934814156954,-0.08148600623406296,-0.012906846091725708,0.08874276146684743,-0.04514053597262321,0.07659180589155648,-0.006699150212138365,-0.00918131255579271],[0.01272762855233928,-0.07885460700570715,0.011455445257996173,-0.01190124800684049,-0.08993066908108016,-0.05783790477755373,0.03514159024424744,-0.040269520604967184,0.0510450209143975,-0.055968758647889194],[0.021447410302145056,-0.055752064630343136,-0.0482368473622908,0.05712963476592327,0.012909191530396163,-0.05167595983039281,0.06718132787191908,-0.073787813491037,0.06860150965045986,-0.06748804943008978],[-0.01441852588211948,0.0071362558229267495,0.06240969684691378,0.06857329767492389,-0.05023368783428488,0.007244944689058704,0.0522625059527174,0.07983163828055087,-0.05162095031823691,-0.06879376911020603],[-0.020687592897175706,-0.05607645860219674,0.016794859130076636,0.01007413395110281,-0.1480858300243735,-0.0628166477715099,0.1645333939050061,-0.05324511009820735,0.086527708021584,0.01010272383695737],[0.052951596290228255,0.010516324185933477,0.07316187961806726,-0.08009164813314364,-0.20140224849867425,-0.07787596689486825,0.20966294280752112,-0.055198363698806326,0.04514687577659549,-0.0038011665219918047],[0.052599815615139635,0.028082109396931027,0.04182408804548975,0.011741912535214168,-0.12994415085558844,-0.06144007857553011,0.10179081157027103,-0.057894178249916176,0.06755393951563268,0.03235158266499125],[-0.007927151864256292,-0.06441664827409865,-0.0059365317485789715,0.052167884624491,-0.1870716359041476,-0.0754195422731756,0.0824336405282643,-0.03578132637336451,-0.021573696361565118,-0.05555256301022969],[0.01371209060332243,-0.0020324020833885894,0.05399718526731619,-0.07533021175987524,-0.17942746144348823,0.05936716447814494,0.22295093226279314,0.029042741766776993,-0.06870102131286886,-0.030620764793668837],[-0.0009342070636652956,0.013312761243922996,0.043307522457958096,-0.016883799717395252,-0.06414326253413927,0.016041438738303295,0.1945374498178026,0.04070162137941011,-0.06871710405666952,0.06828483903535071],[-0.04895807081463158,0.05249240712651608,-0.023766407923707197,-0.018314722178401986,-0.17814948960488297,0.027084304584581498,0.1711410652803286,0.01329785699603009,0.05423739848132788,0.04584583085026745],[-0.018289684290383055,0.033817692625774345,0.0873863590845782,-0.03044004145403419,-0.08128762298173413,0.08227475146687827,0.10654926560816949,-0.06524434756778229,0.02095663385951673,-0.08425792741524449],[-0.052540436739950416,-0.02681440585338744,-0.06177306701324791,0.07380461004292121,-0.07895471042993718,-0.08764500497105626,0.07456929533871297,0.026724565141386585,0.04656521697632744,-0.018719102763152265],[-0.0738161979750084,-0.09218308674633116,-0.017654431555989083,-0.08054071477852089,0.03092284735605522,-0.10000316089626228,0.15427132033274293,-0.05019730798234876,0.03684334064555083,-0.014281759064131438],[0.057172683034130534,-0.018078314452226043,-0.03317886088357249,0.023323400067212834,-0.07662492527390244,0.019943140178227032,0.12814243971645564,0.02090331560647865,-0.028767591310723633,0.06302893541183906],[0.04264687130270013,0.002123565972459164,0.05938801554778508,-0.0007499809361822304,0.06007039773069427,-0.06449720753071714,0.08997165200794198,0.0007587026792046075,-0.02610466121053567,-0.026500550806033734],[-0.038802842415750396,-0.07728018784827966,0.04104633435113216,-0.014089200141492423,0.05174605218728446,0.004201633996392224,0.01396244510124881,-0.038525634301204786,-0.03865655575431107,0.03583736410474564],[-0.06742607675953763,-0.07568763139174702,-0.040056947420424774,0.0670327435329619,-0.030456646661924457,0.040734334225840545,0.0040550200633074265,-0.06184657293990812,0.03978576714890664,0.035136896598751674],[0.046788765289295056,-0.06460349853798542,0.023009746644661145,-0.0583330437706949,-0.05819944674607857,-0.07487035163819701,0.036139961822014476,-0.03615896572151535,0.10285523798795089,0.05044370808020334],[-0.005711307273514109,-0.02330314233652244,0.08235458798120511,-0.06701499863703946,-0.020060176148155563,-0.042973825140891,-0.07297806669091364,-0.05660801097000134,-0.034458016510299665,0.010087724554042178],[0.07429775869398539,0.007877193204992397,-0.04967837821154524,0.019558110197976063,-0.0001808298306011113,-0.08908126527588434,-0.06978991066759055,0.0589768267561867,0.006675508548657354,0.011662843737211645],[-0.07252856836044536,0.018870303076321135,-0.0450885749459932,0.0027206589991094036,-0.044591619756419267,-0.061138903484807786,0.0357626191903945,-0.05604949378860206,0.0696883253326623,-0.0020423253471899484],[0.02356314645776206,0.08847968754200056,0.05380682764681488,-0.07597090988856949,0.07047916640783733,0.05064958584416024,-0.059810012612256394,0.08723896647009866,0.026845625563288428,-0.008692025884509161],[0.04821005354286188,-0.06242748181262187,-0.025827082462469175,-0.07274748636681824,-0.030163086655342976,-0.017548516373356256,-0.05931810396954215,0.011836455830376085,-0.01547006666544419,0.00903061706820271],[-0.019018039989391722,0.01574748155702181,-0.05122876676937092,0.004938407149841968,-0.07747684402748295,0.06440839252489625,-0.015943199208661593,-0.06276789229713325,-0.0020341813149529877,0.04553022063325071],[0.09425610566548451,-0.060942867195819136,0.017034664123593536,-0.0733663537822375,-0.011631664269999795,0.036437028215662526,0.04803382842281778,0.060436216532716254,0.06740029694773671,-0.04002351063871578],[0.013114283774804752,0.018855240350046914,-0.05262779514183059,-0.04978106921247691,0.006060227477136685,-0.04710246286036117,0.021925053505258685,0.04584971891733714,-0.04469636003839593,0.04942727523392619],[0.02888038740539617,-0.06750946120304913,-0.000683504235312561,0.050358290744328515,-0.03198292479056717,-0.03729510144376086,0.026061802719450022,-0.022176328846942088,0.0640905412409626,-0.07576051728141446],[0.07371446480001997,0.03885525023026051,-0.014631459252332259,0.0714484738777795,-0.00997884122325899,0.08637512991821873,-0.04190383646347151,0.07555874751669103,0.048867120800723696,-0.06309586161407178],[-0.011532350646899425,-0.07946667000925793,0.08632838101642758,0.05134347457487237,-0.005397900319188114,0.006092959122679592,0.10738997075033033,0.027032088843128865,0.06306490877581908,-0.0044089900919258365],[-0.03234795013019785,-0.017125234264828794,0.12472039128496344,-0.003905028254761178,-0.0721108302840371,-0.08560781723755162,0.1146870287609659,-0.0206868999301875,0.03393467487469694,0.025688671787267664],[-0.020051750243299214,-0.02418775602899704,0.11600882050591377,0.06223635275759117,-0.0728105775170337,-0.14368409285311665,0.03835215415101629,-0.11360243132595514,-0.048593134343015446,0.06302261342484987],[0.05029291946105352,-0.03461676818802572,0.08964467303294245,0.11613076949815172,-0.18324553757101683,-0.12203478307147853,0.140161515202535,-0.03597890199814945,0.05323112827265136,-0.07990579850878701],[-0.06320878007378479,-0.07784826056637256,0.04922404127657662,0.05770538905678806,-0.1454016488804445,-0.12071135305648739,0.13037750618989674,-0.0452191088547613,0.06042562061143774,-0.05210866871804187],[-0.08486566777915236,-0.038930986657219835,0.1573619690761449,0.15084569040051166,-0.27579720026557814,-0.16922878041419157,0.09658759711824377,-0.020863365543616293,-0.038716409467023274,-0.011564289614166381],[-0.10558715910030325,0.03174327297932633,0.07042026518311474,0.24237117504709663,-0.27421243313573485,-0.04666132100863053,0.29520067720939064,-0.01710438539134549,0.02591136834936805,-0.03708646601588187],[0.0272292471480901,0.08712955234352734,0.10780257710944913,0.17300709011268384,-0.32507954827974617,-0.02229122036565885,0.31318260356938715,-0.059201856812203496,-0.11871419414010978,0.03589240335262761],[-0.10231809521768863,0.0025249805497582576,0.019232207316607117,0.2234188303410645,-0.12979707196662701,-0.11545417907165116,0.12021493278329462,-0.06529505367396411,-0.05937781698213894,-0.03464997623163184],[-0.011797464396983209,0.008084224415971697,0.021221519778960245,0.0723215821766359,-0.2096777320596687,0.009748734145085435,0.0831237281443604,-0.05143028514336757,0.03305510351826752,-0.12432595670391906],[-0.006240111790786963,-0.1963971193160829,0.036103775635401916,0.09969061124803227,-0.10433373139381638,-0.08249268817272168,0.19077100554599424,-0.08162540856282009,0.05214338286288235,-0.0008301217913792399],[-0.0958700245494374,-0.0682305223024271,-0.07646430408390578,0.011923699127824912,0.025064736604370204,0.02984763500732085,0.2443383875847155,0.012809232082856342,0.0379099033419141,0.003999739250410114],[-0.0183384854703759,-0.17535041891980963,-0.10012955178442702,0.08454911549275852,0.004723897194210215,-0.11828834622921415,0.3160351667643625,-0.08234054463939984,0.11055557464409674,-0.05817114027567449],[-0.04641268805962502,-0.10247201321266446,-0.0007969542702170095,0.01999480280734572,0.020860881949558277,-0.0235457217922156,0.22353469276527357,-0.04106874802796283,0.0592152992421757,0.0250815201792335],[-0.09184934086042937,-0.14811941242343432,-0.022784657084656636,0.009517989323702134,0.05950829884884414,-0.06218872931743297,0.22146217585692712,0.02038546638289184,0.049852505561224315,-0.05003508361398067],[-0.02524095956454321,-0.004916013958646113,-0.022251245768697945,-0.01862037412738774,0.035564484364168425,0.0508616224141615,0.17366831956598053,-0.04826489638322989,-0.07036986885256119,0.03699152047603333],[-0.08732893566820604,-0.03187685704009955,-0.03174151121325388,-0.037459557762243294,-0.07840198095139225,-0.08155711195319851,0.09153172660242238,-0.05299645789927772,-0.05109544336007924,-0.05814556021398823],[0.06481776968563399,-0.04265428349794904,0.03846842102093802,0.06428700209640976,-0.06483140918088742,-0.03280972199477854,-0.008534560067396293,0.04731784405884223,0.06931055009852463,0.023868920496040433],[0.054298060196549716,-0.01267836232889119,-0.057604421395006815,-0.06187617997967542,0.038602973412343394,0.028928754794809716,-0.017768992062917224,0.07002220166995042,0.01896349306938394,-0.03698667331704357],[-0.08783597161728632,-0.07232939056649224,0.020677949396198454,0.02875884987256663,-0.07764973318823025,-0.04528229937218826,-0.07801455061168637,-0.05390038272226361,-0.0443840327368654,0.010758651437442928],[-0.0822394165214774,0.03967604058248958,0.05240467230564312,-0.0028360888339141275,0.013497459875191034,0.005856217003860411,0.017566801362166276,-0.050793058321056066,-0.04354200931939983,0.03406304322565386],[-0.02016683898134506,0.04733700249462125,0.06625561428440846,-0.011358241193859057,-0.06810447147370154,-0.07598401229553377,-0.009826589441700161,-0.07500540842416413,0.07862132719073553,0.008202940745330008],[-0.06655718236562472,-0.0019597915823839442,0.045739339745217635,0.025843900174054923,-0.014787449103486467,0.06402689553514973,0.0354934567842201,-0.04194837767537027,-0.02398610742455003,0.010096572698395877],[-0.023062717070854694,0.024354943744407453,0.010712380348410135,-0.022515892651704228,0.04977168313694948,-0.06018727726087095,-0.06713413556273014,-0.07194329278242102,0.06744760676573024,-0.02366906699546657],[-0.059770096224908816,0.017693731825029882,0.030389211183474252,-0.0025775339918478793,-0.06472854759003897,-0.013946680235486411,0.013246719859552357,-0.05434253707492026,0.0800979607211442,0.012174613436259807],[-0.015008830920224304,0.07590399312072611,0.043153376071994445,0.08349315363990334,0.05429210979526762,0.016424665452258597,0.004012099532639767,-0.022631618865844062,-0.01951675867424303,-0.07873212165827866],[-0.03816990871556821,0.04225508935557852,-0.005390112179735144,0.044257698318432,-0.025670200790692127,0.035894237035391595,-0.0016538688725744764,0.07462539106601024,0.004584276629992019,0.036756589696773145],[-0.062322161315692064,0.07618748834492871,0.0389473287873141,0.15668148228077794,-0.058830621162096086,0.04673067712259335,0.04515402078282399,0.021475565899313508,-0.1025153475103499,-0.044286156236311505],[0.01799347130034485,0.038377006791546105,0.08025839787701448,0.17301281646766303,-0.0560407875786925,-0.07666026522059072,-0.0028076386193486573,-0.10042575772927632,-0.0048476313601949535,-0.024838918241461852],[-0.06593374711445339,-0.027166371623542535,0.1742315381749554,0.12947193853762629,-0.009062489527551499,-0.1215133420603974,-0.008251845816957664,0.028819545479552545,-0.028643502553608785,-0.05975405644314557],[0.06989431307318217,-0.0027610008476699434,0.15113424583332538,0.13743679956610144,-0.0887005707705079,-0.16120175730389005,0.04305704919711711,0.014987558753771585,-0.047321862551882775,0.06336656898425026],[0.012460379802959698,-0.05956159738521192,0.07152600472282097,0.2493605038460888,-0.2164982206298216,-0.084508150464941,0.04158161908464786,-0.0823194703406275,-0.04414069018442722,0.03270257814709313],[0.037549346596530565,0.08030421887270549,0.11646721525500033,0.2106667424322696,-0.22123465271998058,-0.15645620877774669,0.041095282491175444,-0.07214703141253874,0.040345129229316344,0.027046886768896987],[0.011014572624876982,0.03546350543786628,0.23727764354291492,0.2193795614158176,-0.13632443282435158,-0.12035583625501645,0.010031130933228858,-0.08004612388176587,0.09058658531343187,-0.05740545130588413],[0.04479831130921165,0.10652772175368684,0.18370578330995452,0.20494177745283357,-0.21092451930480619,-0.021376830906792498,0.024513058143924082,-0.10891538267668562,0.1196561645994283,-0.07702172629441066],[0.015963910322844964,0.04919227542275731,0.03837196498031904,0.10233830663514809,-0.16427928984580822,-0.11309844801414262,0.07634939653042426,-0.08553750494457438,0.11776367387784065,-0.2545673140499511],[-0.06409518381640966,0.09946518440889582,0.1612788953842804,0.1696415185550743,-0.0753151045424567,0.0005616860730566291,0.07372326387210675,-0.13719622020629618,0.11682221539956662,-0.2337643751659984],[-0.08455678183980815,0.016683897985281148,0.0458137153451265,0.05852998134237444,-0.07082127072990443,0.009849970209464569,0.05799632940571722,-0.15772243315194084,0.04027710969644474,-0.21666228808386323],[0.008789242381911765,-0.02819109961416446,0.059942828104669964,-0.013250105327366994,-0.026084544720478185,0.0918854143018665,-0.02722144988854071,-0.16794457551207323,0.04942063908514858,-0.13732397583083034],[0.013247792075837827,0.05896699790631103,-0.006493532724108865,-0.0024966279048212305,0.04592164067487525,0.05681253328000541,0.28803978069169905,-0.09046629964391956,-0.09431374538935858,-0.16090881336901205],[-0.17084663065520875,0.06250553685083275,-0.08638690149175583,0.02797853027822644,0.04059278062331606,-0.03366251085203183,0.3663408678013856,-0.0483512135210487,-0.11252126581168526,-0.06694481967405606],[-0.045142468823969016,0.04579994914681357,-0.1128518949728856,-0.11979576064188692,0.06361135036582823,-0.08677534303196431,0.3064034081670231,0.015852393496156494,-0.06986732852454772,-0.12744424412719707],[0.02555327891912314,0.03294435010223995,-0.04170563847478817,-0.15365575664310813,0.0020731346853635753,-0.071182948391282,0.2823732269762886,0.018777014208429085,0.030265508045998132,-0.044396695856093724],[-0.026534684567026776,0.042116883219665,-0.04462989442202618,-0.12900854921272872,-0.04754879941030758,-0.024304696097011493,0.22783858775689986,-0.012322607162652325,-0.02817377935572695,-0.024116743975324935],[-0.0966279490500964,-0.03866384259659241,-0.12394888899727936,-0.12081425689251482,0.028454720340520448,0.028167746260690112,0.15409842788776534,-0.07561612650114508,-0.019061355719795357,0.0022699661130343636],[-0.07806528516282547,0.024148097170162346,-0.11047621171355013,-0.02995545140478903,-0.04191853218520249,0.008784490204788687,0.08722233841229622,0.0661391853521305,-0.015306560915872201,-0.07724769571830618],[-0.007729741335165923,-0.041245345318502075,0.023595079441528923,-0.07650880025497953,0.06770875769249574,-0.027363944678717677,0.015027916862734126,-0.02143644970287222,0.05508606852290207,-0.06489939525380263],[0.06835455687426438,-0.05549769337907172,-0.053388163379231614,0.028450350485840235,-0.08088781937292189,0.004914294184415933,0.04721839769612671,-0.006364813108383332,0.03830015700306826,-0.06418556896903382],[-0.07697488288344422,0.01811485038402527,0.02429242124553264,-0.06376859494444312,0.052846206564095104,-0.029077792579827885,0.031211460555463626,0.01769137581715574,0.010013873801725647,0.08103551405542923],[-0.06805079064837198,0.011044909395759871,0.04545413508876782,-0.019590052814942777,-0.0034130981651469086,-0.08063445691522175,0.02556000278264639,-0.06311619992691918,-0.06375496730509062,0.016549808163832367],[-0.01973318960907109,-0.07163779719238633,0.02566198880035481,0.06673048872541595,-0.051890523989362704,0.03569055971656256,0.05336893464728918,0.035546025685749306,-0.06824201911952574,-0.04587973407647087],[-0.03286474721951779,-0.016987657944187926,-0.02048572022721882,0.013472312312803112,0.06188048274941043,0.062346200080154075,-0.06939776908195264,-0.07180256964487851,0.06005540620320292,0.00755329139067645],[0.03324158807568062,0.009355535259470896,0.007516501467220612,0.007728596746868301,0.04612880048208954,0.056708170814427104,-0.04966129354952591,0.04725784851848719,-0.08560520815680438,-0.049268839412714635],[-0.09645352307958412,0.02865744105460355,-0.0782273158532264,0.06105407588587366,0.0770874729138662,-0.020355954774670365,-0.061769898066973,-0.07451220321520938,-0.03824656331649318,-0.04926412195555391],[0.05770035952779008,0.05822698202439262,-0.009010838891018396,0.16654028295585957,0.07928867921164387,-0.18335438051008263,-0.084423119589731,-0.08791399790915418,-0.024172147603905365,-0.021061970938024168],[-0.10395172755159243,-0.07984184492311008,0.004662774566088352,0.2716461286920154,-0.05141789473418912,-0.04807725710889852,-0.00636079781413241,0.02035506160860895,-0.03446765495195845,0.0008715842011817891],[0.015825648651627874,-0.02464378490269268,0.04454184640006044,0.10672252015545468,0.0137410132479419,-0.06643307225047822,-0.01556280207965463,-0.0660172839842419,-0.05215525040052713,0.004274608598186535],[-0.0034744302094294795,-0.188122651142758,0.11833319983746224,0.1698060132635214,0.08808678667601262,-0.12026801300293603,-0.006735441065230795,-0.15584015666951578,0.08787910648662246,0.009459130807118639],[0.07532908250518794,-0.12356033091791059,0.0716352147981605,0.09227185572728681,-0.008765825576768364,-0.02508302809278705,-0.012338491852852997,-0.10498748236569062,0.040537798111340374,-0.09032990827894795],[0.014516427821225825,-0.15342307330005883,0.36365404971238746,0.09434077417708861,-0.10916157537860446,0.009424737535784527,-0.08725664885685387,-0.09358543516074738,-0.034160978497263385,-0.13602171887844433],[-0.004411949439336819,0.10652337669597417,0.23773206650801176,0.13472608617478218,-0.1375627399748249,-0.06737960085470943,-0.09447248178202124,-0.1970414680846301,0.20284523354363987,-0.09842762768014311],[0.07047740150736327,0.04049632017666262,0.17632807810037635,0.20432472153816675,-0.1974507350348762,-0.032982556561387114,-0.13522875761289238,-0.23971803453169055,0.10432906808210987,-0.04079164130663829],[0.04843686814286291,0.16588689450078015,0.309716400721982,0.1814572967444946,-0.19490023410159088,-0.06652110388611615,-0.15889711138696766,-0.270283703136598,0.06786037305069395,-0.13634956279183208],[0.13771473257195616,0.21011585624008977,0.22254353557544596,0.009759402812264895,-0.05011841581250975,0.022098992923172914,-0.14692089435444927,-0.2500675965504638,0.08726614488761077,-0.11022927774010936],[0.1766864092396436,0.14521799828268717,0.195947246246198,-0.020691584671425223,-0.02261462282844192,-0.061909185962091315,-0.0980380622169791,-0.3730665780844865,0.10978796031962001,-0.3314552708241972],[0.15456329049465542,-0.020344657927931057,0.34928599173579145,0.02385433872536638,0.12657017041894886,-0.10463511985138053,-0.04141555607258704,-0.19150972577936928,0.19105995175792434,-0.32859751647558244],[0.21597609922161648,-0.06352247678107928,0.11257447158162737,0.06724232597445749,-0.15601555101641545,-0.05642238166411318,0.019461161032494265,-0.21386767652618896,0.05967207850734861,-0.2075573321102758],[0.05113862572059271,0.057600426720448406,0.1652238651168107,0.028148735003491163,0.027692193558480294,0.08081525498689607,-0.018664835161258553,-0.17447725016696253,-0.038612919929456285,-0.1062481864877924],[0.09174709881577572,-0.04238406115687992,0.11881019544257394,-0.13199368347954954,0.039774307517897824,0.05978080118399151,0.05672626321046434,-0.1792331316388673,0.016034287156120156,-0.07436052106892233],[-0.05025480351590388,0.10917923232256979,-0.17187166205792703,0.04238534834929104,0.12141277323394938,0.04955505203754528,0.1894212995190698,-0.13525063526147424,0.06826568712944847,-0.0496843753149211],[-0.08357195654350598,0.10703111934178228,-0.10102350038566724,-0.08780599936639545,0.10687082299716721,0.10441149511218126,0.11513735552309022,-0.09511606336473348,0.03731865022054342,-0.06800747117457549],[-0.00725082504144766,0.1688807406877255,-0.03382498419941109,-0.1711759536523798,0.13676412243518066,0.20318407298195706,0.09040578391312355,-0.011803151211432893,-0.0564073573745299,-0.03550939054953434],[-0.04344796116829766,0.05865436557872765,-0.06529463203619672,-0.16860073479225185,0.1605233771397172,0.19549774094242342,0.012244671474197555,0.021308260991139267,-0.12735853085762913,-0.12102505735817677],[-0.020561189929164086,-0.00484360054655523,-0.12971667018829972,-0.07553517457083428,0.15685117116805367,0.0314631312027281,0.015748451612915576,-0.09188704510533993,-0.019427305074890946,0.017196976249627675],[0.029518603426359157,-0.03916557026362599,0.03221434154447562,-0.010923093165573718,0.07185342652105475,0.12318853994733188,-0.05729611681501603,-0.08563018117810725,0.030348106593534742,0.049213226678394784],[-0.001989436308145857,-0.01821966482322962,-0.02012946890033105,-0.06402287075771416,-0.045617767765182025,-0.014923143804614817,-0.016510164068398076,0.03581517026676118,-0.030605678846694392,-0.018004468935848176],[-0.03750410584029525,0.019808295984203084,-0.052438459506261206,-0.06311991304965438,-0.06349046597447733,-0.010684995790148146,-0.021602379773862156,-0.06271614423353418,-0.028237959589099335,-0.04404031872110128],[0.056927581845211316,-0.06980893092870376,-0.007319111025860523,-0.05171001560242033,-0.018691671647961358,-0.05858015230524355,0.013248380937922227,0.05621710516643122,-0.03516823185118919,0.027109906987594152],[0.006590848032928854,0.07759263696398577,0.008148676246006483,0.04255444867330735,-0.028703494725384936,-0.02461704643949613,0.06080679128914891,-0.02635146141017713,-0.0479630357711453,-0.0017643557976547],[-0.06460904176324468,-0.05070812532724371,-0.052419547069056716,-0.02091891133052719,0.019363571683470502,0.04905504036171547,-0.02614492391878967,-0.03650398955416211,0.039755736503841066,-0.021774930618483342],[-0.004630909821022723,0.016672692242889035,0.059069353629251725,0.10033549337451739,0.002786292610710085,-0.09130529241696417,0.02749969035049779,-0.053742674921641274,-0.0396332685291373,-0.07221552618114364],[-0.04815961947841576,0.04941083155569781,-0.02809151966170299,0.15659587736748562,0.1126215004162811,-0.10587745500387144,-0.002282323735829016,-0.019301789419110187,-0.05281851038462012,-0.047210118566713255],[-0.030801468501895135,-0.018109986502308745,-0.06774508685730748,0.17518194876571638,0.026380194506246516,-0.1003689151118574,-0.10426092937189423,-0.014706648243809886,-0.0422990775696058,-0.1698909286341826],[-0.07092427760846569,-0.04244185283634021,0.011468046607809023,0.28673572888266863,0.106118550809166,-0.1352213369440322,-0.04082521816693497,0.12812918128844686,0.011962012166434471,-0.17283286268592432],[0.05467412980246739,-0.14915963366646084,0.04209205781436123,0.04064353303942103,0.10901178735245334,-0.1078514715872597,0.04701982459443662,0.1334736362866335,-0.0509185885818132,-0.12255165273541609],[-0.047812863814448874,-0.13168356920175125,0.16213441199235995,0.24941412496368842,0.053699470331586126,-0.004066369940813247,-0.035614165848787,0.12881020999554985,-0.08636041687433298,-0.12062573069252183],[-0.13203519077317985,-0.15277174142272776,-0.019771147950155218,0.2560905084324349,0.14241261170582484,0.04197416553621762,0.001981043154036098,0.036378107854526075,-0.03641582228487191,-0.0730822686840607],[-0.1058394989873541,-0.2444533324128206,0.13469852900912774,0.2002966020055977,-0.058320861871899825,0.046520904398040325,-0.12455316380405645,0.017932120880423518,-0.04809323514746197,-0.0656513984051978],[-0.036620250334861125,-0.20112174153837212,0.10080858041689864,0.10999421757001351,-0.027586032615406257,0.10516636878492859,-0.0686576331336799,0.0588108218859837,-0.004771385114465605,0.01901413692964863],[-0.014883315376650044,-0.1327812295898994,0.0438457674422821,0.14611392096669523,-0.19877076041422503,0.03355481746642942,-0.24215922945102022,-0.036431960649373214,0.12121706967356119,-0.02705618093159368],[0.038872215341088756,-0.041972984594154966,0.12915332307188993,0.08652566798054863,-0.17653248867811822,0.021527951254252997,-0.16354086326695585,-0.15420912936696715,0.0322473871891116,0.12529309201975944],[0.047061207878175255,-0.11401645035945966,0.016659988327947774,0.12071219819189899,-0.10327884019644391,-0.061307970253386815,-0.07031496930659145,-0.18523563602121373,0.2875489481523099,0.20742088744168008],[0.0557202284501515,-0.19047408608015884,0.12901114766289914,0.09331449510522402,-0.1956384436895709,-0.10893825384438467,-0.16881586187825598,-0.028276416025881813,0.18558162781328122,0.10313593045250741],[0.12670802150872482,-0.07937000648737078,0.08334167883698239,0.11339783200781606,-0.12465072343566558,-0.0002057778556567441,-0.04287232307538527,0.002453541242432098,0.2459489738579219,0.02134496579303958],[0.23095752378170079,-0.11149891960662014,0.00964763899916816,-0.0687505233069301,-0.18208096529167866,0.1400297478174194,-0.028102500780659213,-0.01573435222651669,0.06097576835447485,0.10490476821966717],[0.17086692977668744,-0.21815339019020635,0.0707352413187844,-0.0028371903569135437,0.01975426452476981,0.07660131410838254,-0.059663271737195246,-0.10996656975579472,0.1927839807965087,0.02841514537863516],[0.11031372300757113,-0.007887427346360443,-0.15521065757090743,-0.007037924471763242,-0.12141121280875361,0.060247995223915586,-0.08836615757876697,-0.02534802157802586,0.06772667222565473,0.09291303873916129],[0.04426049870451286,0.06145040937788711,-0.03265055065756956,-0.09031676931356342,-0.026654086735194038,0.09895710293106998,0.0028161909400818658,-0.021393423469089925,0.060370452390967305,-0.04592844271102414],[0.035337619548284654,0.15351255422109844,-0.040830091688686225,0.022429227829516007,0.14746063045113222,0.019255035493715166,0.0037363137182397747,-0.11408318419084422,0.06643293462010645,-0.03939522881814831],[0.13837432919775422,0.10023790809878247,-0.09980798929554126,-0.11364262221963164,0.2207868508393644,0.015393382854662713,0.025727336293950513,-0.044163516000452006,0.09411302507288967,-0.14546859547340318],[0.14156480822018672,-0.035919550964233944,-0.10714867019182744,-0.11080255668111955,0.34946879493904853,0.11441634854228042,-0.10401435993529551,-0.09015992727950631,0.15559114732055604,-0.226466028055697],[-0.06974864297960888,-0.051471081980304256,-0.05228522472380096,-0.026452504012247403,0.10772011506905188,0.20597761567098458,-0.058955610104422906,-0.007311446499262814,0.10276600777830214,-0.21472598329874804],[-0.12192386272512769,0.016279864636917614,-0.06218701623351468,-0.07366346299297108,0.07915917507434575,0.17645694599074713,-0.06283772076931289,0.05102643502651547,0.013624395718828244,-0.0401800175215911],[-0.006626622357232538,-0.07978997883402723,0.030908400374415713,-0.06147119286071091,-0.039254683175883,0.025060372513697585,0.0581934841298958,-0.014386459228284337,-0.014437741937292786,-0.013716540054517756],[0.02353149457354443,0.04624169432067607,-0.045481845267628385,-0.05794024276795104,0.06042054712381867,0.03215370340791866,0.03207276052507853,-0.03359036781329885,0.03527902880913231,0.037935220020246026],[-0.08391729290023613,0.01414142977411301,-0.008734593286278148,-0.0030268018591107517,-0.06312276998547645,0.02439331229293056,0.02405038738410632,-0.08014079086332504,0.013740607368855389,-0.016728514053242174],[0.011471941464640291,-0.05391306714878123,-0.04377158243389548,0.06590133332155618,-0.037667902199033494,-0.08070901577315696,-0.05943953484821729,0.06741140401134947,-0.018449776241945604,-0.0272269682749691],[0.06102117287092539,-0.027573377652397323,0.05749231759929357,-0.08170090721815186,0.04887805731611552,0.01684311088154891,-0.01612948837225859,-0.02121247192218156,0.0014737301019942502,-0.06988879463508071],[0.012077948035358374,-0.021603174444481454,-0.044042997801602146,0.01808929642005448,0.10529888422613767,0.0054392246925366134,0.020724265393046167,-0.00968459627868635,0.03219820832392831,-0.008581328243188231],[-0.05883160710998676,0.07595016864136456,-0.003384345057199294,0.16782067721659566,0.08431678001340744,-0.11038068894420391,-0.10568833497894878,0.10874447782460771,-0.06841598482192505,0.0005611450252722222],[0.04677784830891614,-0.09039947425043052,0.10919854566498814,0.3036429655106796,0.006533154831152924,-0.3311678618851859,-0.040157317948148856,0.14636259965999135,-0.020834939475501302,-0.1591225868450752],[-0.01763648894394152,-0.07792694733182243,0.055544091551274835,0.1838447248319375,-0.04314331254778191,-0.20244338416130886,-0.11112962699863985,0.14208037000649845,-0.04241598040005112,-0.1553122212158144],[-0.005363103850443687,-0.0913928600770429,0.10590221431527568,0.11087678151943682,0.012867979845045271,-0.05501826083479774,-0.01563462262005917,0.21394675332238375,0.08558028112258156,-0.2922418519682612],[-0.11392397664926876,-0.2826861319178585,0.05224959593460029,0.017296813464133858,-0.04579267642546683,0.010844416397073255,-0.024823619503714277,0.25977200122215094,-0.03913190213012625,-0.11391450803962147],[0.005797592243133051,-0.2136223988288627,0.09489817980324952,0.15037862227614562,-0.02766093530161281,-0.06905676369093539,-0.13303305381315852,0.21009818449146714,0.0817563771252515,-0.1211945175126405],[-0.03629089482358493,-0.3118645579032804,-0.0028664258362028072,0.09563040273630859,-0.12232633327478058,0.04792032272889045,-0.1237411517454736,0.15022165784135463,-0.02746382988816929,0.007692413319786234],[0.024703257616294327,-0.13948631643202877,0.000547375562433167,0.06576182846987245,-0.016335803719690442,0.08021611308726445,-0.11109480254739534,0.2408541145778371,-0.09269309343873013,0.031242301153501222],[-0.05090847879158324,-0.03616313359232066,0.07844370696064605,0.08067915588837574,-0.22174330029647532,-0.054908484393298485,-0.20374090585865304,0.019683079474585998,0.007984778067638528,0.16906824443596966],[0.020753170848541457,-0.20860891707140303,0.06884924890622592,0.13856736078352927,-0.2699465364587061,-0.17228999684307936,-0.1890494989530448,-0.061736136781764074,-0.010115752240015433,0.3079763355540586],[0.18975478354059447,-0.2037859696625032,0.09863795974310911,0.14218852920330344,-0.1786477951757789,-0.10178974101385362,-0.08462929322633761,-0.0024365840834300466,-0.08750769187034184,0.35704283970608824],[0.09748615660124373,-0.11058567627374982,-0.029629252419045835,0.05884844110937851,-0.2722846027139143,-0.05752457592739488,-0.10917518413486854,-0.08966859132045646,0.002819384637286742,0.5613290034620353],[0.09873677467996855,-0.17601179463436545,0.014948519838779243,-0.0032959369205087397,-0.33022650412899107,0.03919207201618349,-0.09285239561772582,-0.06584477687669742,-0.10013285768062156,0.4986790779954322],[0.21234232018091015,-0.24872676671086252,-0.12468064247899781,0.056856843967623784,-0.13699659022625044,0.04696771996672456,-0.22532179077490008,0.14412090941786443,0.08618605528988893,0.08460894166448],[0.23197964519186337,-0.11479854010837783,-0.1421321791264202,0.01859752518000553,-0.07945812389183249,0.0549837685077333,-0.14486477817182658,0.0869636719680397,0.15998049838987805,0.056019543614754905],[0.12046239142505105,-0.023282733488268887,-0.04064059294020016,-0.03543639353159724,-0.13782103996684364,0.2599710110621883,-0.17531229633449047,0.1670804554061326,0.053875004187882714,-0.013960063811412581],[0.1203519706826608,-0.07159133958323781,-0.12095520217957864,0.050784389311911315,0.04487257146239437,0.17936543353538928,-0.287677815769471,-0.009689761387924429,0.009443265980062284,-0.09849297526852271],[-0.029009725820268145,0.05250275530431528,-0.07059290361438258,0.044234401006751,-0.003464717444581272,0.059191394022779086,-0.10024481985124685,0.09477962077053767,0.13041131844748488,0.02219227964600402],[0.10332199563747813,-0.009938229853149861,0.0530797607039649,-0.09331311798128929,0.1451016749566471,0.23140521559680724,-0.12113271302078371,0.06549086693530869,0.13110583832684888,-0.12819221017043697],[0.0268296505149955,-0.11565529703940598,-0.13843549112700176,-0.14700296658669973,0.23829236247070695,0.1830572420674151,-0.2637509913779397,0.04023848109006361,0.13239801336295853,-0.23999620090230372],[0.04686319450409841,-0.1187789660798205,-0.07557338763878582,-0.0468237476395007,0.0756490137843706,0.4166084530225462,-0.08381233708127603,-0.06815743539699402,0.20210636662319575,-0.25457651895256345],[-0.12217417796169334,-0.11757015218097466,-0.03637967417989587,0.01652646865100662,0.027166036052240362,0.25433055958175826,-0.1140652307992596,-0.05797125647281169,0.0409655094484625,-0.14961794877712412],[-0.09681752682196823,-0.048573351019730565,-0.0636193516164235,0.004792336131730164,-0.067034760625132,0.0938074242787463,0.021385934119058717,0.053227801169885326,-0.04834501336957535,-0.12185833191363116],[-0.014961488541447342,-0.028079095848294825,0.019054115668167438,0.05090909190078586,0.0026504486768976756,0.076270491851947,0.02327296355097032,-0.02457507816345009,-0.009687204684465614,-0.01717002658377756],[-0.0402725955077519,0.0522284943962372,-0.02499715785662253,-0.05250846967303279,0.031203985230072798,0.011034649633124286,0.010958664776865256,0.045587333148090124,0.008074242913755822,0.021275177766122668],[-0.05575396875102131,0.08552590320117856,0.02222969327014935,-0.062336455006750155,0.03709095481192019,0.046200169800372545,0.07408231520745108,0.024989132296867715,-0.09384485154894782,0.0024972587103941034],[-0.08213690709763125,-0.06651346155759323,0.04019751529803378,0.02808711900022604,-0.007993770087544533,0.04377651420934823,-0.06735562302529773,-0.019190177012786715,0.04585292915285714,0.05187854086657478],[0.03215582517518125,-0.04016382492107914,0.0509738561451027,0.14742113384666153,-0.06138653374280953,-0.09319983140964593,-0.12486611829417407,0.14686963391155541,0.0839039130000262,-0.08898359354090159],[-0.09970940466032543,0.050494541461596036,0.05909452410656254,0.25141304052678065,0.0819755813285208,-0.15622372391467465,-0.03515458784671871,0.13371128638089838,-0.006812364988377608,-0.12663301929708004],[-0.03444920181958352,-0.044892438748131806,0.10881908857125433,0.276671370747682,0.010373249360089333,-0.16325701904294418,-0.07619427076676322,0.17559125458167857,0.1151609998254589,-0.16589550688405721],[-0.06969154106860952,-0.12925797153210397,0.10411514449018754,0.16982036946312362,0.015796659508573,-0.20393315478144647,-0.06338004095708819,0.22122526334167808,0.06993037190125233,-0.10954205620819081],[0.024315457614950933,-0.13329522475893776,0.02133034608435674,0.0030930074012681117,-0.03319542888680512,0.02391144206513692,-0.061055566270785254,0.21474744520568134,0.022640052362004785,-0.081117706778901],[-0.1497605143182217,-0.25742253133967896,0.15375231268129433,0.06530240746001782,-0.025318741287298056,0.12350913512126732,-0.02838567038630498,0.14437992142089937,0.06745189537937284,-0.022018460801647034],[-0.08077409257566219,-0.1909475572144026,0.06778005746730802,0.036739158434797796,-0.14288285113367158,0.17685576487055663,-0.0019222461140730653,0.20761820181125998,0.019437587252453512,-0.06615576555575467],[-0.049492777041329566,-0.15464783060427476,0.09178201905047682,0.03283709627197266,-0.09095888001579645,0.1243623885075984,-0.09133962227928584,0.14972730157819522,0.20319870385508473,0.030142718671387236],[-0.06022394222057892,-0.11612135329438537,0.022500851461027087,-0.08975052479476717,-0.1667565769720013,0.1928674332363241,-0.13985511181801027,0.2932197856952437,0.03636884822455398,-0.00885797768254044],[-0.010651177708146962,-0.11679597251346766,0.001245494382997256,-0.014026197596555517,-0.06819888911129135,-0.016217984252411936,-0.1995394442494101,0.14588863243934203,0.03572013480913667,0.3394764250092058],[-0.024977478139349724,-0.11189079108026995,0.07529837291202028,0.012522304488167189,-0.23250012913938767,-0.16078624386803997,-0.13988862578588573,0.07699483724240662,-0.024600184140333273,0.2348556010900859],[0.006257819690599316,-0.058009158120408404,0.10651166639759432,0.22200268572822868,-0.2368840778692603,-0.1364162944871363,-0.1734839696963577,0.07071303922807308,-0.14383074289208228,0.1731552334844363],[0.14307193353898073,-0.062394851798089505,0.038982753001956943,0.28220971028807007,-0.2950392259863399,-0.1714137564241251,-0.1268108216021839,0.15342094961085437,-0.04514859881974012,0.2553562228111662],[0.15725281136060545,-0.022403987654860267,-0.05597840913126317,0.12057103477805711,-0.26796117213232407,-0.11288498359031235,-0.15230606231382973,0.25473907430365683,-0.12484818410701212,0.21359470671877878],[0.17168027908024802,0.016016919976414627,0.011494022025308361,0.0426547307153781,-0.23007080435892777,-0.037623811202562446,-0.3072812779153961,0.17957910901137383,-0.0352367815834327,0.07543414169650027],[0.22588280426031865,-0.050034492768860434,-0.0059370380283214905,0.064751650963302,-0.07294473916683586,0.05989898691305584,-0.2523818371393315,0.07642534079323987,0.010571945127122175,0.09207903046578417],[0.16801122024255977,-0.019889438164316462,0.01985624117870778,-0.02615517192354995,-0.06483494306592778,0.09520038079308142,-0.32302347401224696,0.05177608588009116,0.17599662736369112,-0.030696638225116105],[0.15140221445045365,-0.0486420185089866,0.03424883944981167,0.05730879248851229,-0.05479435749762289,0.12217767603562975,-0.19029741216626378,0.1568154551738098,0.07274138222939132,-0.030249456463254734],[0.15602690645069736,-0.016794345700142183,-0.0627799501950537,0.1297857336655022,-0.06989465227325309,0.020325491881126572,-0.23111455093496233,0.12613820674626064,0.04259229812672674,0.08563753099944485],[0.049120420676366745,-0.03678951370129762,-0.051706772373275374,-0.044754345191354725,0.050202745830061415,0.3322417949413649,-0.15409206745678877,0.0995416153393268,0.04110668729586652,-0.07101882075455243],[-0.003715106403853912,-0.1146939655529172,-0.10664995199318686,-0.15246242115952371,0.10403417296453983,0.3959403397737071,-0.23117685612471545,0.013338474634847278,0.21817610682771357,-0.20019592321416504],[0.168740097607576,-0.20637382726993703,-0.17031944491473028,-0.17826592314113981,-0.002315302090763833,0.5581107682367124,-0.22788803509989383,-0.015992174626280168,0.20041053633697106,-0.2532194374659014],[-0.07926690691821266,-0.1653040713636829,-0.07693071102447901,-0.011155508402726007,0.04023767641236025,0.466668781969629,-0.16684339771593998,-0.010012606852234167,0.033669537103886746,-0.10268166657153499],[-0.05994224125009326,-0.05015945682710506,0.04406131391900084,0.04145629630862286,-0.05245005574978778,0.07002475800258552,0.01173641831358868,-0.06549709664514757,-0.00285034198272152,-0.01091154755325683],[0.027301810715112278,-0.056349170611313906,-0.07026261172900869,-0.025864783210866524,0.060505631270181943,0.054823114263785666,-0.03958616476457064,-0.04995660648185971,0.06484602894777716,0.06500623124091827],[0.045820730396838406,-0.011847579376803578,-0.04314646738149096,-0.053379727631664424,-0.06471517129752571,-0.052423171691277456,-0.06870132217935337,0.041097164850144814,0.017135907725027093,0.05613416049962812],[-0.07308200869231743,0.004009153545809351,0.06539486800360243,0.035709418682958946,0.015389115720113864,0.05496217763927819,0.08006107426374132,0.003078511366517899,-0.08738788820021022,-0.05265525234917],[0.04263098989836862,-0.029180760355192358,0.06541760800262603,-0.05823408280376605,-0.009922065223255946,-0.009971760134911392,-0.07189908534795522,0.07907286405558143,0.03855375105762062,-0.04766033843925605],[-0.05007194674283661,0.04186447397723768,0.02720406720368495,0.1613943615209507,-0.07247070713644473,-0.09040633038777111,-0.1050983638506379,0.15220391123616225,0.028868132929072213,-0.05851121624864254],[-0.09096646778038726,0.0634112138134352,0.11883672893394043,0.17057704611442379,0.018237299521484906,-0.1261498041109808,-0.053167255958718615,0.17368075514438863,0.052264328475875206,-0.03284576934908721],[-0.003797014584048976,-0.0989759509930984,-0.0008486442155476049,0.12641077516354027,-0.06583365592716552,-0.24177921788598525,0.008930434600977488,0.145973904427225,0.0665997796507743,-0.16460966791618376],[0.010517916001888825,-0.0055753877303455065,0.05366501252592469,0.12397334173983773,-0.06066182180888565,0.009358297014020139,-0.12235740067808873,0.1593405789343409,0.04870958885091677,-0.16153538228230002],[-0.07326158054180494,-0.10248350271989629,-0.04749824257372806,-0.034993532060730255,-0.09550177203458596,-0.003234063910848692,0.051390204283315616,0.08412483125423542,0.03195669520337817,-0.013699781933095493],[-0.04311521595816055,-0.15655310641514897,-0.05478008829815161,-0.06605433203349054,0.04400725461209946,0.11403602641929304,0.030303977480540888,0.05541475582730053,0.17952311071877436,0.06863201459244343],[0.05930412510153514,-0.24041886781059085,-0.019433255049723937,-0.0932019665441967,-0.10168902891546146,0.09191376334893651,-0.044934729461186255,0.1785505654137233,0.0410859119117379,-0.0775564919045325],[0.017467655668245954,-0.1335427386489709,0.11516869324623723,-0.08958500481907461,-0.0889225851078479,0.07019486707562238,-0.015183324335799227,0.22963666149996623,0.1129775383946614,-0.03620937098515145],[0.0009780505178172752,-0.030317532405344284,0.020559478627978,-0.41220666286741753,0.11947924954075907,0.13829418256636697,-0.06783812755059543,0.14328564112896397,0.14303122932720022,-0.009825060891668083],[0.11569024461760895,-0.22431937289591192,-0.07217019461318887,-0.10550101676084897,-0.10518139207419892,-0.02279804538956958,-0.03994647237530814,0.10371206774543273,0.04963338080165799,0.08264290812141618],[-0.01678267116511861,-0.0027088013387813257,-0.051833537671314996,-0.0715493973028529,-0.15634141127774115,-0.05304497088838058,-0.17157548604046038,0.1799538596279031,-0.008841555376777974,0.02710586072674676],[0.042631445901860146,0.1312304797784975,-0.019614238981691106,0.21491585071860173,-0.38910146688189307,-0.20105580979885818,-0.03180650041057028,0.3094245913951895,-0.11176828667827386,0.16060163930055835],[0.07390811713280274,0.19218774448232856,0.14702823446619787,0.3187092842464063,-0.35110170305699184,-0.36222508713573276,-0.1836396689582823,0.3094965903141265,-0.0883826990095391,0.008198592508015724],[0.11986189221085156,0.07712361848555907,0.11114977487602462,0.1935809959604311,-0.338659555306752,-0.3294666027292678,-0.2883103001009459,0.3145925134730246,-0.1355727193977338,0.053919103351099826],[0.18118508307455522,-0.12020540829140063,0.14296639540060274,0.0796712295562473,-0.030163979315463253,-0.3094950856413661,-0.3062601190239022,0.2586456762883777,-0.02976895802525873,-0.00922852713488878],[0.17274836597860946,-0.1784085841524171,0.07197374769869369,0.15310393318785534,0.060421835849600536,-0.14835789553661388,-0.2803310503057932,0.19904406479850995,0.11661910189290493,-0.0888947679599837],[0.223706695675345,-0.12019023751061372,0.040309424603347514,0.17344275502642995,0.0006680276179868599,-0.05769261604225648,-0.3203667734713378,0.08134899802411759,0.1828976300969406,-0.08859498379755483],[0.13636774762094195,-0.13118494734186806,0.06054339530196003,0.08740504717845982,-0.12215425119742879,0.06878936974998077,-0.30067145755661556,0.21480813201098473,0.13505691340316997,-0.04503801874197769],[0.110600855661705,-0.1341490581916456,-0.09065148960273801,0.12183666140019216,-0.09851657718847531,0.1702029449686425,-0.140391411048813,0.07499988322903982,0.06542711193576893,0.02122494322908891],[0.12707802714177613,-0.19771416213333476,-0.009739062645860101,-0.014142816157033392,-0.16710279506576278,0.30494755406829277,-0.26383785871102444,0.09781757140979777,0.10136991766188946,0.05524956896644418],[0.13416900463951165,-0.15205208659719452,-0.1684724412548195,-0.06528438769085465,-0.06556163108013352,0.4507745296233734,-0.1063354989372824,-0.0493209298181491,0.13513720881944405,-0.10673210187825787],[0.15714404425601086,-0.2614443353485246,-0.16202741626542255,-0.11135099097671321,-0.08102873341581603,0.6070759340312889,-0.1639132965361089,-0.043435026555684035,0.18377138109790922,-0.11477920684998924],[-0.011740192433620846,-0.14904827787043562,-0.08632199368202699,0.027401973153120998,-0.10087088511860835,0.6760893291355258,-0.16327599355092023,-0.04057101142297028,0.07592736270651923,-0.08556859867822507],[-0.0902045479208078,-0.07981901352034385,-0.026670040455523902,-0.011989311183564175,-0.06436195656676046,0.2133977037170308,0.0066959728399319934,-0.048554359343702544,-0.01119693117502491,-0.055213179593821785],[0.050261155058821005,0.008201253125686493,0.019776503396667144,0.0529305299487427,0.023345603088326203,-0.04810635544135181,0.06324543165593496,-0.012532039934643522,0.05043545001332715,-0.015298517867091653],[0.06597773962013519,0.01105710354976606,0.03293860611398487,0.009557482116944153,0.005879732693922716,-0.05770343714643185,-0.0633248140741751,-0.021513492548668293,0.04841479456854231,0.06046366467828913],[0.0766376542816335,0.012816750002677232,-0.023746011083492145,0.02964330078406391,0.0010637531266467239,0.040619909021890235,-0.07205837148300984,0.05656089354753439,0.0012975769875087123,0.03559863642804594],[-0.08648962114835904,-0.05955169152387232,-0.0005976063389443576,-0.039611796602478114,-0.08047869479080424,0.07241181367659126,-0.06187733326626123,0.008540421016213093,0.06160245375875498,-0.09202301848494676],[0.03456926469445047,-0.039995764119869597,0.02311871299043603,0.013565354536139627,-0.061807225578917525,0.0567793455067441,0.006242862293671013,0.11446679981330922,-0.07480695869921933,-0.024773823793824333],[-0.14388686853326257,0.006739210320105753,0.05729394313213647,0.040802677261330286,-0.1059123565917671,0.0051058136414293435,-0.022318827634379562,0.0995115750022338,-0.00219915647003039,-0.05732347667779936],[-0.05116419665740334,-0.0957936164353566,0.033265850484035055,0.02214478365394694,-0.1284869345098486,-0.09499275520034596,-0.049366351487594023,0.17994533613463454,0.16348272689039967,0.06526485968426814],[-0.012203456885166627,-0.056016408603686375,0.009095876824511176,-0.06660332098356814,-0.06869250532350556,-0.03963643040306852,-0.005030881914652108,0.016798351953251273,0.14445229793251352,-0.032827023681063744],[0.03461300242222078,-0.05791989785637645,-0.14638915492205504,-0.21024976796453146,0.014324545076148656,0.2508231595803541,-0.024094177830080526,0.005088764264591142,0.16446824671232702,0.16155791623758886],[0.051833760363774684,-0.11550380265940215,-0.10524629901238453,-0.15302010705143315,-0.1103459804003624,0.15347183578979218,0.031900593856087255,-0.05550755409706704,0.17607781396716693,-0.0048901032708890705],[0.03597972863683152,-0.10207867337054881,-0.060993601817062926,-0.2712116645253718,0.022513238867826545,0.2616424674208558,0.03899399592040787,0.13916360837704875,0.2350619829073177,0.039387170379536665],[0.04201733522763505,-0.14188695142460697,-0.14106917221475884,-0.2740890265171438,0.10514286452446094,0.14050052689257833,-0.11543691193743352,-0.002316916293567064,0.2785809943569235,0.1908502209112169],[-0.04019086542406809,-0.10740691905311908,-0.19474359791326581,-0.3052550217777795,0.07907614218898695,0.11058671441015627,-0.09816537956876814,0.1533820256513193,0.1158308560227725,0.16285591382994305],[-0.0040939123943174545,-0.03547504919385974,-0.13276075114091493,-0.18216392742269022,0.13950840407984424,0.15470552683058988,0.062047453756541644,0.14543267799308704,0.15155068425363016,-0.0513157136825935],[-0.07079293539475923,0.049117522351738364,-0.19372040592283407,-0.09228254085830952,-0.19245123672244768,0.13877853460095405,-0.10484682368662952,0.3037288753926611,0.11983618704796897,0.01340489117416562],[-0.1448583966312783,0.29156762491505595,-0.13131064344845386,0.1512103888035553,-0.3204264665010251,0.0071501261087562025,-0.07072349378709378,0.3243937030545997,0.033960941340485815,-0.045974182078958294],[-0.09664322214882669,0.23857913959617985,-0.06629728070505041,0.20157834219249374,-0.295928271248283,-0.1641508780463411,-0.2826296051518118,0.3171225784465819,-0.12176680126806536,0.028364476142314344],[-0.03557073435826147,0.10340064041318435,0.031805505591069275,0.1450324922758045,-0.02502009331327403,-0.28563457228607686,-0.21033254834961324,0.3351100843495762,-0.16508755659820237,-0.06241444816181752],[0.029299405750226465,-0.09951291433055613,0.14629529741345,0.15799131674111658,-0.02456569498985234,-0.23943539895017513,-0.19749657325091466,0.40457939320175196,-0.07471414214147921,0.015531748438464539],[0.1370859288914454,-0.13774800203343682,-0.09654617939785433,0.1569107292887786,-0.10014640416324183,-0.20707483501449403,-0.27129726791388065,0.318051746558282,0.08640039546524814,0.06541556985787197],[0.12771968926381305,-0.09179029901441076,0.09971157792230956,0.2326584664136977,-0.14043014745474294,-0.32842475149722483,-0.24921103128429095,0.07616019422942556,0.0895812942322495,0.14523420719776411],[0.0043314956485173885,-0.17231190159565787,-0.0446665926308997,0.2538963159381022,-0.08498471831064978,-0.3994779240678111,-0.1868788217274238,0.17480019403507474,0.07242118854933272,0.1458717104604526],[0.001996039753978572,-0.04064267175883704,-0.028741054836258995,0.08885067617418725,-0.14619849555894135,-0.046616370709840184,0.044336039814598285,0.1121874005225359,0.11567283236635545,0.13427439533487603],[0.10968579677537431,-0.14148362114897517,-0.08495952327303287,-0.014998412494788987,-0.07352289080936347,0.07092814146060826,-0.14188720187362258,0.15222760289768136,0.04873821424387312,0.030240883815139147],[0.21923635695137933,-0.1752575711198812,-0.019074873255607454,-0.12955113092219084,-0.1561245142734779,0.16518870404240085,-0.034182862962479146,0.006344683348818222,0.07987163232648099,-0.09783250964820245],[0.14096676918470416,-0.20662907851509169,-0.15551478895635054,-0.08738628838737163,-0.18667081984938752,0.3855933335761979,-0.10871877311981204,-0.08010170649396142,0.11785612575168805,-0.013435668007661761],[0.017049310030087212,-0.025393873864065303,0.025921187561581616,0.05096103096669596,-0.1616320271484074,0.5306219510377829,-0.039195409875891485,-0.023747362591479495,-0.02198374476575309,-0.035940956679375906],[-0.05116478031557038,0.03956092734763063,-0.07252237523874629,-0.06927850133811894,-0.0512089540371439,0.20921111493839192,-0.09645385633962376,0.03858622177319279,0.06255181477716848,-0.003799796582396783],[-0.021461494233246132,0.02055191494635086,-0.007983177897501909,-0.006888602885528528,0.02387904282097089,0.054112193674412876,0.03633961469285654,-0.05175257438826111,-0.0613935545197878,0.029371884783468114],[0.062335714991781054,-0.014328090017629257,-0.015808911974505572,-0.04462262711911551,0.033130089797263236,-0.02184203747824882,0.03875042672859088,0.020118362855469463,0.020388596421230126,-0.05444021112906442],[-0.07964290275709511,-0.011495901666888544,0.03542055373761673,-0.04645337956890907,0.03391620878941994,-0.046092936260853985,-0.031237027271633057,0.006509918938813551,0.08252731237613392,0.04239693200176857],[-0.01901048200002519,0.07220997410840567,-0.051572100403056584,-0.039317620426555636,-0.030807281321768118,0.07479631702966753,-0.0472038822633291,-0.017803782320098306,-0.08760236597768441,0.05000887798999172],[-0.033627973981687986,0.038241453250072416,-0.08186851955534781,0.061602417409313256,-0.06870990502137844,-0.0925649297418372,0.0602740098699965,0.1854204079135072,-0.05663800905125403,-0.01527763832994755],[-0.0018653853270945587,0.010052784838080074,0.0449890727077834,0.08356216565410833,-0.02797587080410434,-0.04030196485793224,-0.015005162575174513,0.21510770793900688,0.03925244582431824,0.03893582305546806],[-0.01913839056827062,0.018254003074627868,-0.22330451158126804,-0.17912661396970844,-0.18847722892589408,0.04280728368063174,-0.022753469988625052,0.06383022073615424,0.05411360610781058,0.09130437079013994],[0.17360074754406968,0.06235235557133094,-0.20536202660079583,-0.2753823595343781,0.004577536356526232,0.13298756845012902,0.10732452951676227,-0.04504182580131732,0.2007709919920527,0.18945293836631424],[0.042884375644904195,-0.022752602990112218,-0.4467098162894395,-0.37624059077373917,-0.017870714164943374,0.0995900923406406,0.03477524838551099,0.06088705425004868,0.17199068033005752,0.1620604063109023],[-0.010036249820863798,-0.12589768498149928,-0.3787032591468665,-0.36388168645493957,0.2734415560396268,0.134482497532984,-0.12533954345934858,-0.08473201062065779,0.18682724638351808,0.114160518256933],[-0.027467233768828005,0.010847738230835204,-0.3794199624567102,-0.14455305687083217,0.21555071466591183,0.09962812526706376,-0.007603147547171623,0.0024642986338411464,0.1825947791474046,0.18494942227083402],[-0.016659960659638824,-0.060598374343491454,-0.32431629018007124,-0.21787788898357482,0.2686883853777637,0.06496668890672531,0.14303824302764262,0.0912203071353709,0.09633797395607285,0.13554749783006445],[-0.09121276649831082,-0.17779546837840404,-0.49961797721524276,-0.09641808420876581,0.2400349827497292,0.2957040230436082,0.060063946618557504,-0.03817076041343871,0.14821314283944514,0.14046719097802318],[0.01949270514580069,-0.18782649106751573,-0.5811098630766015,-0.061209723777161815,0.13491432777711024,0.3602579486897924,0.1340488731577312,-0.019408771229414656,0.12092356767802882,0.10063813465511276],[-0.08782825011719748,0.1279975171401013,-0.5602038804052978,0.0570602679624228,-0.15854201807572635,0.2802166034146895,0.00408661239476387,-0.025372864614367368,0.2284596225194916,-0.07260107072272598],[-0.17618192544970854,0.4022443232968445,-0.3747562959104572,0.22455624338597477,-0.39208333828979314,-0.038499521798652486,-0.10171798148104767,0.1381160189816022,0.18954529138577575,0.01894038415906048],[-0.3068068369218232,0.308676266978523,-0.2938238216753529,0.27640390307869317,-0.04682075490111902,0.016072224639193767,-0.17747166641337644,0.1768659366398841,-0.008622233134187869,0.030239492307271607],[-0.1542569727883747,0.0911765860815422,-0.18349331439768635,0.08676587293100159,0.3308236026257487,-0.11869498604102892,-0.24242721957162908,0.36513865270816676,-0.029773759881396526,0.0754686326496124],[-0.1092163908116237,-0.047699138044905734,-0.10662817522936838,0.11089410261157137,0.2299451327399939,-0.10465290751000879,-0.15297483149541322,0.3393382062298275,-0.09792500812166771,0.10375995866911183],[-0.07304968967953003,-0.16730541697456328,-0.0332531241212032,0.08752233609651758,-0.012771727561026694,-0.2250709140577951,-0.12772268594714375,0.13846253580141044,-0.1006550238145002,0.2643117854299227],[-0.060356408584284746,0.028857902995294317,0.02241230102765983,0.07982200510607043,-0.09693942838465025,-0.0910482997782801,-0.03461696405407229,0.08247429579294634,-0.08241351073518081,0.3154072755375444],[0.10593114460012337,-0.055270925556739896,-0.02931784820941952,0.0854863099127319,-0.08613200648156155,-0.3070325901817559,-0.08698711232910836,0.13813425583225492,0.005854389220012858,0.2614468600833119],[0.11807079853499032,-0.05580263445916793,-0.07319669800178334,0.10170496796681851,-0.1327017330829345,-0.49654758739314386,0.029566604180853474,0.11875110094967042,0.11082906771025051,0.17525622661365198],[0.25364181139755587,-0.043071063708777294,0.0011886882485387497,-0.0672301208816977,-0.1302297083660113,-0.5112632716713246,0.12186272723466307,0.06810904262327822,0.21031143168783964,0.1710866275703293],[0.21539656048186498,-0.08125783262697613,-0.16849015530033384,-0.137949413250765,-0.062470046193098934,-0.25422805324988756,0.11576776679376362,-0.06256651979260744,0.22100371863573945,0.11967557266892326],[0.2680157601388938,-0.01347854005932976,0.0603963872614559,-0.08890350367883662,-0.1532030274101918,-0.016137738752907162,0.07545044718488651,-0.14208348806695756,0.13697579889483188,-0.031022756531547874],[-0.09109572792577933,-0.05640849397293436,0.06532219067690151,0.06273610971653898,-0.09337509789860135,0.10643877455931561,-0.06425184405795073,-0.01496895157474439,0.10280392236589819,0.035367453449705405],[-0.09208918086346993,0.025075736976413934,0.008114816915978882,0.056611085630148855,-0.046749584923431856,0.1187657703977951,-0.0052321042680274306,0.005372581227143274,0.07863958611963613,0.035678208041343355],[-0.07496275131144514,0.09461651429106169,0.034180901107425096,0.05462789450385911,-0.030781569380624638,-0.014466119372411773,-0.0007278832137775387,0.05834291921394508,0.012564718141784635,0.016478479407595004],[-0.06251481022278223,0.07502205502158034,0.012984180596297173,-0.06495703301214435,0.04624923946805335,0.02114959057748847,0.07487003557767342,0.06416262832787813,-0.0004724354755615807,0.017618916878036732],[-0.07153843138433927,-0.03910897242218859,-0.03503840926929119,0.05690817625462123,0.027351703237497495,-0.08319774869824932,-0.0375677701451396,-0.06098359406629957,0.06547837942771693,0.02985725251775402],[-0.01206084248020518,0.03963704941254364,-0.001177767096327689,-0.0023824600121875933,-0.05987186923122171,-0.03816866272541676,0.04522078605676177,-0.0019440320243055307,-0.08571600213260426,-0.07476011648229183],[0.011504211742855503,-0.012671273320438044,0.036631102934497284,0.028916246841173755,-0.05296224336508305,-0.041855433982701286,-0.05499736208027067,0.0892789906409391,-0.0799336685530031,-0.08441956959319206],[-0.03383743873208165,0.03183314451552201,-0.07498928209438384,0.01820604576964185,-0.12765228224428077,0.08390420014242671,-0.002255784265426726,0.0571391002989988,-0.03315204976991041,0.07303942794728392],[0.06052103890404523,0.041828068049333575,-0.36154538846929957,-0.1435727001760739,0.027492089531334366,0.12642703691843238,0.011939960775868891,-0.08183758487283588,0.18907793519969557,0.09044998589338617],[0.119866805177555,0.04764359548786021,-0.5433527106811348,-0.32509660486238307,0.03566107906619555,0.020577539759930877,0.04395636058370698,0.0784751108430382,0.13316496759909946,0.2597237064594773],[0.03477771741226707,-0.04419695795511682,-0.6358535987433273,-0.24637023040946993,0.19852058005789536,0.13387533672619395,0.07193022950199959,0.11209286587104059,0.260529099148119,0.21632884354240464],[-0.037766983458322294,0.08175180156805006,-0.5801365657635241,-0.09736520894054487,0.14961603961129757,0.10741736126044554,0.07344584141119105,-0.0019019337446869009,0.09160315742853274,0.18372339059944987],[-0.016844958418821828,0.012897447159678973,-0.5338395490256677,-0.19367034214748438,0.20705078152743928,-0.03948082815366243,-0.009483355556863058,-0.00426107648193373,0.21674357173745754,0.25803705563172924],[0.11845677978911201,-0.29607390777195075,-0.38793429137248536,-0.23910893754999335,0.32285954388967253,0.29584662141180257,0.12150693617291675,-0.1548354583456251,-0.019219704209393722,0.20188599059123935],[0.017802972196773535,-0.21391045076679024,-0.33753543913826656,-0.0846136825401188,0.3285144041389195,0.3322278599220895,0.07467822285987315,-0.03762811124011515,-0.007659260814582788,0.0762038347860963],[0.007387491960955947,0.013461199669023165,-0.482935943436914,-0.14359296212282568,0.3658981041358611,0.24572482516299307,0.03302629786536112,-0.36088003137758773,0.30508794116678584,-0.06632158894968017],[-0.12645891391832795,0.1771457377399545,-0.4222924927779332,0.10993993199821711,-0.06797173472553543,0.0928941878163206,-0.12411822208843348,-0.3514648985535695,0.2973553042430634,0.10647509826986049],[-0.15470313777296746,0.3860902725730088,-0.37733363888329696,0.1818303322734715,-0.15850736835193735,0.12793702593588127,-0.04379522428349538,-0.14446489567233067,0.05901186807250365,0.14829730096761723],[-0.4312305599801706,0.3315593423639024,-0.32137148731041776,0.234483879056874,0.16888735685165374,-0.06951816261775506,-0.014389890983255407,0.11160037113042269,0.11418882272870688,0.10256620700140522],[-0.36105568505054836,0.09744696061159347,-0.1964199664004964,0.08677429087939544,0.22453007165076244,-0.14626670601340314,-0.15359001952258414,0.15303021985129311,0.004924129067184891,0.15954946442991522],[-0.25754563566711186,-0.0005520146797119967,-0.18494092986169094,0.05451709718663307,0.22354947158967517,-0.2069460597942261,-0.16225255553152848,0.25470544497729153,-0.017359874608677387,0.24939027591305077],[-0.048116839101431545,-0.07747693121966161,-0.12262989008529991,-0.04248308080616218,-0.06077103630628312,-0.21716578087590535,-0.026318129677989237,0.1427386112727681,0.11882955105419839,0.41157839815024655],[-0.11546738716043319,-0.05246211426476737,-0.05405616625669218,-0.041158843597548414,0.04713369322644339,-0.2864184881961323,-0.05415991036219861,0.014410562612937432,0.025415217388085456,0.21217172307681537],[-0.031433392931935845,-0.1159023675726436,0.07552139304934656,-0.2084638454402277,-0.04468646482179577,-0.1929282981118403,-0.06787434376090552,0.09822786792727523,0.0781515011015428,0.16196778995610514],[0.022776424297141967,0.0076847069483288125,-0.026174964105484384,-0.09147795625098566,0.013153550134583476,-0.3224777277528592,0.06734346641978138,0.005130222161639461,0.20633105523169587,0.16508394881119137],[0.19466412741690142,-0.0693932504259882,-0.06899889056293099,-0.11132676122499276,-0.002841907354689307,-0.49620091859676113,0.1318662448077759,-0.03536909486739351,0.28210985172613073,0.08189737368057978],[0.2640802788646328,-0.0027358456247005367,-0.2084803941804047,-0.0035815361121242714,-0.07995588013249891,-0.5660800406486105,0.25339303355854087,0.05519864445839511,0.305963795078754,0.10061955463036314],[0.1558350491516774,-0.038076631039131274,-0.09631571954762425,-0.1110523587046727,-0.09977722446235635,-0.3274867548432531,0.12859061781887077,-0.04447990440226342,0.16129887327217857,-0.026205154354114826],[-0.04676677815903131,0.07616620482386306,0.09531061347304043,-0.02780867552241029,-0.009885499626773648,-0.10136302986749358,-0.054789278132358135,0.0509267332625509,0.11196422784257024,0.00507638504017178],[0.07436563323054425,-0.02206392673676165,-0.038414881509390895,-0.059844118422791304,-0.011737218842200928,-0.01586167688317871,-0.09052406258779001,-0.07491928874313634,-0.04389366179070596,-0.054902072373502746],[-0.029570528404123844,0.07268824457473516,-0.05015656877550401,0.0716924246672401,0.056968524942295796,-0.017030495866255702,0.06299695074561129,-0.037641525411115075,-0.04486501178087313,-0.039553857071505334],[-0.06538052126838396,-0.02550858258850313,-0.041953141377949005,-0.061843342450005126,0.03200873969084132,-0.027126415602610834,0.05554513754321782,0.06039921095767485,0.028837151211379856,-0.022278656698468527],[0.0886970238331162,-0.031923878297990566,-0.038268137092886706,-0.06751056770731408,-0.055224725037135616,0.004253930983194256,-0.04248485257942219,-0.023130668744308455,-0.02474849616248165,-0.03898976946020327],[-0.019584559717009887,0.04972172607383,-0.047316796076854455,-0.02244919899888451,0.036656288912369626,0.008430734659427681,-0.07735890666176522,-0.011153337232070692,-0.0871289946537016,-0.03459428631416624],[0.005754581311173166,0.09134340226468099,-0.08989305733700514,0.05744693971481864,0.02991440986663078,0.02247651549568312,-0.04266258492333854,0.11359879067510671,0.07536513193349276,-0.06390336835253606],[-0.059558313967943054,0.031781392879277975,-0.08675251400055131,0.027821933624715453,0.08262243470704526,0.008064351688826658,-0.1043452925474171,-0.0197575233924369,0.009751007857698208,0.08949400795766253],[0.15899329327356457,0.07962580747620943,-0.39522611058346485,-0.0986909131076279,0.1382994539787452,-0.023356143601566216,0.045442031888021525,-0.022373482135501166,0.0523692988674069,0.24822601718764373],[0.15894985402324652,-0.024050100610169118,-0.5897030501841511,-0.10146900854278575,0.1279372228969287,-0.053936579776065995,0.1518742426007671,0.06943558532800591,0.054998027529356355,0.21525903794401519],[0.07640110981694809,-0.01976303085193377,-0.535926173525919,-0.2731763463419903,0.22183401984938697,0.08132278752975292,0.05369892711926793,0.0268228714984545,-0.028018151810991064,0.16870791260517334],[0.11711525858060216,-0.014787874883858115,-0.5196099222295624,-0.06337374159322015,0.2723004242628763,-0.07061152114100476,0.02967656321671067,0.02500440842493469,0.009360369146978716,0.11648304026234829],[0.06762492066639962,-0.1106031034182392,-0.23512440937891055,0.015916569889315075,0.17101364925946447,0.15198766500306948,0.048844407514017044,-0.030942159271430295,-0.14765610892475592,0.19425602850607276],[0.10182437071314847,-0.3701205371840114,-0.12851420263873764,-0.045324690673253204,0.32110528967247576,0.27003647811539117,0.044793112666045416,-0.15402451505316586,-0.0965682052200492,0.0331313504429658],[-0.05895283945970426,-0.22684878176548517,-0.2182500255467008,-0.11174023441106304,0.28918658005584,0.25545383147053735,0.1326903780279422,-0.34454806666306426,0.07692031942450689,-0.09672678687182244],[-0.06463705741439899,0.09778007826049363,-0.1830617536979816,0.07064104650406262,0.4707225399038647,0.06326135742212745,0.05362200721257275,-0.5077286696117982,0.28517005032082904,-0.08359879381110452],[0.06201912256543708,0.2664791348055064,-0.19884739963605036,0.2239562580416241,-0.00894275162703532,0.08297118745840848,-0.13870604594462438,-0.7384266274050456,0.125917174566466,0.18286729203942706],[-0.24645303241600613,0.36613289377937025,-0.1373881432524486,0.27980118204329035,-0.1630146740071953,0.0811092433758273,-0.09283770800115393,-0.2118239355459705,0.18101104844105143,0.1450913837672253],[-0.45488738058061584,0.3103326035542987,-0.16509104905427863,0.12680096744528535,-0.09273082049104295,-0.05217279556150903,0.04957081951481871,0.11218528875723659,0.119141285062015,0.17828574307159104],[-0.42338868838887717,0.27058176121974,-0.1716276043605257,-0.008588945654276951,0.16887232806514052,-0.1585604016762491,0.06311308795246548,0.1320739602672349,0.104406996297642,0.07873234876839696],[-0.3128450575611489,0.014995281676476834,-0.08369049525048043,0.16289073642398028,0.17264748633192067,-0.10655352383411212,-0.07094381643140517,0.036304368988295574,0.07162342918994269,0.13725232078979382],[-0.2555418762039224,-0.1557081373738668,-0.10538901052658407,-0.036906927746285484,0.0824903349052731,-0.08193354215323004,-0.04061346824756214,0.10905175052468732,0.10118647325384304,0.23975919281588912],[-0.07532587117520592,-0.14840227258717548,-0.10353718177200177,0.12352603993692157,0.06419921216536151,-0.07562921853159152,-0.09822388599577478,0.09080823235646716,0.01591218203617735,0.21808387997495793],[0.008057761224391245,-0.08870683082580597,-0.07206081140977744,-0.0026869691506407186,0.007478370321901116,-0.03514770724814957,0.11818499683364533,0.06777735719200742,-0.030762994494360853,0.13869108923548015],[-0.04847841260027241,-0.10997920435588956,0.05077963030106465,-0.08241534745533202,0.08367262277229223,-0.14211319983966336,0.08890557492108274,-0.05014889884338314,0.010247006344328966,0.030770048296157298],[0.14851679255812933,0.014721658410826849,-0.06293290990990791,-0.1334399682523027,0.14965777561700558,-0.22764557654495501,0.28527573671996487,0.12242661129409758,0.05493334444281369,0.0068286708255761355],[0.2796668491952105,0.005210843695866015,-0.19018466888837132,-0.11720059710514666,0.02660540810852365,-0.3784928073069697,0.3556056842417698,-0.06383874497320598,0.20170765326434376,0.034884974659808846],[0.20332439951079043,-0.035431045765054056,-0.020399478728405553,0.006633529689335835,-0.0019085681955205874,-0.2291864555783366,0.20294355089381222,-0.049481365360293066,0.07913903602675294,-0.13489326815685576],[0.054022532573419005,0.05514836670818855,0.11238296945285998,0.032451492684431205,-0.03630966550955142,-0.03241925558062399,-0.05281619858402769,0.01889706993649621,-0.022442433398205733,-0.03476675415616855],[-0.06243275112947396,0.015161973049719488,0.03620406976208006,0.04472129866406227,-0.04393505782981146,-0.06613901155241415,0.029140660611058702,0.06135715561584333,0.07382230610772311,-0.08933418703611695],[-0.04186908315701494,-0.043145685787256555,-0.028775786783956307,-0.003437388055422889,-0.016335011467200938,0.07540114647157137,0.01721986218518169,-0.019880787073307118,0.014920982721964276,0.0035467727778483076],[0.04642487527180439,-0.004640621844892806,0.040953499472558955,-0.06951565444697923,0.01349690805405527,-0.061463669207326675,0.0711931151988125,-0.06655193221253479,0.05828448464085359,0.06912487954040367],[-0.008451109260843918,-0.057924166787566886,0.061686685236463604,0.06363303587846895,-0.01739313834074869,-0.06518856906523006,-0.013900516611055388,-0.03337793892263478,-0.06874664178355341,-0.0009598804611971255],[0.0739400681768927,0.04630176036641501,-0.0504228229578469,-0.07635988303231318,-0.020639046746319972,0.04073566560006629,0.004546402583263247,0.11425176660170913,-0.053493307294016273,-0.02127203270313983],[-0.008514555139973677,0.0660918411798469,0.05775058364292599,-0.04820771679389066,0.05422052927969012,-0.03271985482670013,-0.0032163603470859465,0.07617113094043747,-0.09308393239022346,-0.05780161615854077],[0.0606131864128021,0.06263421567859843,0.011007143633229636,-0.033000584525909815,0.10133686836477607,0.022700499474295234,-0.0351653246409943,0.06786688388851038,-0.0153835072131533,0.11993114157413273],[0.06713930073383662,0.03844161689060259,-0.2464899663469963,-0.10170037054835915,0.19879084162929533,0.08807336896284117,0.05958741498354674,-0.1042881563145878,-0.17116227523963676,0.0520229528127848],[0.09609152870035138,0.041043029327472606,-0.32792193749106635,-0.12667970678997661,0.19495775625609155,-0.03139710838363372,0.04423791510521217,0.029878845817454223,-0.1508751922571723,0.06508577524911058],[0.2346146540660982,-0.01754996679648589,-0.3293245998666885,-0.13038444142039377,0.23713146040606814,0.11870375636472863,